{
   "layers": [
      784,
      50,
      50,
      10
   ],
   "activation_type": "Sigmoid",
   "0": {
      "type": "Dense",
      "weights_size": 784,
      "biases_size": 50,
      "weights": [
         [
            -0.7594456751999867,
            -0.024953030315236758,
            -0.24423692254993634,
            0.5587337529051204,
            -0.37814889499336796,
            -0.42330342924554704,
            -0.7573019664832963,
            -0.622692013500481,
            0.985048452787213,
            0.09542973093898939,
            -0.6611398966636182,
            1.008416730943964,
            -0.012963848215433456,
            -0.2797474214960259,
            0.5433100825141342,
            0.7874087414937347,
            -0.6621542887003202,
            0.28795475555286915,
            0.6095871993315287,
            0.9468720812973097,
            0.1636586254426774,
            -0.6682226386820473,
            -0.8251753582929271,
            0.4874383096033879,
            -0.20346963536627055,
            0.8103925384003949,
            -0.49816455179256347,
            0.7911362769610157,
            0.2395018690709163,
            -0.9044832562995526,
            0.1169176866776941,
            -0.35062649615963454,
            0.41788082199840787,
            0.5009367352994457,
            0.13307145692195443,
            0.8802831163263163,
            0.04213004973948218,
            -0.6629226859392923,
            0.08102521360797912,
            -0.04922499758441585,
            -0.5729816880413818,
            -0.23638605191258377,
            0.4913592947651548,
            0.3307968223051282,
            0.5279072029405525,
            0.39173241876338616,
            -0.9294787290703312,
            0.11833268267589164,
            0.773728903360691,
            -0.46197434533444914,
            -0.4235381894364401,
            0.0007048222393622622,
            -0.4268653674348832,
            -0.41897977590517915,
            -0.4281391110489556,
            0.6294393930051021,
            -0.29386985141853844,
            -0.20975323267634977,
            -0.03769243142580737,
            -0.5372608927724942,
            0.2639942492372736,
            0.961243110456559,
            -0.44885422127570956,
            0.8799097453603559,
            -0.6127160790794799,
            0.3959197431158013,
            0.6182620894343333,
            -0.6174685695878144,
            0.1583394713964546,
            0.8993534623762065,
            0.28823657624057686,
            -0.8378633305490706,
            0.460087962508522,
            0.590817205152888,
            -0.5031367241789183,
            -0.7889271787173011,
            -0.6279883714135545,
            0.9310271705889008,
            -0.0941983363179615,
            1.0118649271850997,
            -0.8883836944704866,
            0.6689122955968614,
            0.18899521278293058,
            0.47753879331653254,
            -0.6319460291721832,
            0.25110199074858647,
            -0.7669222973090235,
            -0.26363661172387015,
            -0.19809736931421634,
            -0.512800028046467,
            -0.21747257081550736,
            -0.8657715193828773,
            0.5109458532503277,
            0.6703740911099569,
            0.6888516390183488,
            0.38604091864792234,
            0.2966950374638773,
            -0.44356400367495147,
            0.7773044544109402,
            -0.6580003885573092,
            0.8763866539500064,
            -0.8846983426717441,
            0.12240582690202809,
            -0.3930287423808869,
            0.7768101391797632,
            0.6084624757744924,
            0.17368433731131805,
            0.6071827349203578,
            0.679483032242182,
            0.7386160854306025,
            0.2116633947526455,
            0.9773664300163669,
            -0.918372579813856,
            -0.23292520153256485,
            0.07723844767547212,
            0.056260423179245726,
            -0.7285771465186933,
            -0.2646680222706806,
            0.8123227257772179,
            -0.634716678089139,
            -0.2542198297443513,
            0.16159626131194268,
            0.5543936963143841,
            -0.9958673675278342,
            0.6076496121229502,
            -0.028396155806416364,
            0.7932895840221221,
            -0.8639704667692988,
            0.5693209577045387,
            0.6929625268986802,
            0.8528753808974696,
            1.0098858784502314,
            0.1469768563295122,
            -0.32420796336754165,
            -0.18905538201048028,
            -0.6171511344840668,
            -0.8605650898517937,
            0.33646186814577106,
            -0.33341257571885047,
            0.09029619025825271,
            -0.009057270059969137,
            -0.7213328861402839,
            -0.3512509340391819,
            0.35503984917903897,
            0.4307901055434376,
            0.9846118741180281,
            -0.2931545717813831,
            -0.9570390426990065,
            -0.39477703914311,
            -0.6732925908169876,
            0.5956541300742304,
            -1.0261111049508553,
            -0.4795981604044231,
            0.7628330213382544,
            -1.0587123184088003,
            -0.07147596507324797,
            -0.13176622244609715,
            0.46156208182837216,
            0.3921551563924737,
            0.11716284538831656,
            -0.8775501246699683,
            -0.7689933952978253,
            -0.343083392327987,
            0.8907603346898085,
            0.6943824990694023,
            -0.9327327080538356,
            0.4239280735754634,
            0.13611723151552202,
            0.8288612862304654,
            0.6217895992843443,
            -0.046499739907378525,
            0.7027353885714862,
            -0.6489060348143276,
            -0.49054684949290633,
            -0.1580977067640415,
            0.04769903733163381,
            0.39497844616233413,
            0.3688424692550157,
            -0.6806669425250157,
            0.18497595033265063,
            0.23623096704518748,
            -1.0111666925247629,
            -0.9659432703113553,
            -0.0794906359665357,
            0.10577662112433914,
            -0.7800603362424918,
            0.39189410226493004,
            0.5536980961474421,
            0.11683087703583359,
            0.4699839478103066,
            -0.9921408723471763,
            0.4165281597071942,
            0.9873808689471932,
            0.520992777013771,
            0.5029385966380785,
            0.9706039039422951,
            -0.776406410083021,
            0.6239031007781353,
            0.3483408863230082,
            -0.6240371825520136,
            0.11795840606695333,
            0.5592671061863617,
            0.6761028987793448,
            0.2599726539834008,
            -0.4668873201689275,
            0.8924636474991965,
            -0.7690704361563032,
            -0.48086046067986293,
            0.2408005968702163,
            -0.391571853934575,
            0.09567474317858096,
            -0.9099813641009493,
            0.3995134374703949,
            0.8785983054976054,
            -0.7399620167973167,
            -0.632605843784625,
            -0.936741518616466,
            0.8099709158794965,
            -0.7394395748186274,
            0.24947162702074638,
            0.832711732239172,
            0.679277982262853,
            -0.397350556529656,
            0.10880811909294598,
            -0.5956565665722149,
            0.8911010059406175,
            0.13072415320813935,
            -0.6452613798082376,
            0.242338917691272,
            0.1992041026918332,
            -0.2678245488535971,
            0.8925955150979419,
            -0.6027647722310004,
            -0.45881859693298427,
            0.7451055166752514,
            0.471212332237911,
            0.6323251704243043,
            -0.2508104080906008,
            0.4422209178772816,
            -0.8623108995601826,
            0.9293944776749092,
            -0.31340258385810993,
            0.46451704009682165,
            0.8164820717504033,
            -0.8507644888524031,
            -0.4835944382758666,
            -0.46528688079086655,
            0.8488413717669556,
            0.40971644036016186,
            -0.14592482626218584,
            0.34249703387447794,
            -0.6127594657639751,
            -0.13668169367818594,
            0.7268487616716459,
            0.19326628018342773,
            0.9476519201108191,
            -0.9736474317578686,
            -0.4669002892223243,
            0.8898434287203807,
            -0.05647372747975753,
            -0.2002931987058412,
            1.0564159679075804,
            0.8454790609531749,
            -0.7373876043709088,
            -0.6190568006981633,
            0.3300400058327989,
            0.9634084643155668,
            0.569468857022098,
            -0.253880907115759,
            0.019467087889730783,
            -0.4927700998203965,
            0.3165891407841856,
            -0.6009692660652656,
            0.837661536297202,
            0.5611810774200017,
            -0.6397670393309316,
            0.15426016966379963,
            0.5583962004989454,
            0.7603609207488968,
            0.7365872756358214,
            0.5136298204355119,
            0.8098574012722863,
            -0.30024916480102504,
            -0.09412480027395105,
            0.7538049523394648,
            1.0221807734540138,
            0.860127120267679,
            -0.5975905714111688,
            -0.5024828650466873,
            0.5009276679612575,
            0.5378044635855883,
            0.09422318631727436,
            1.0059139267461046,
            0.1532832478883046,
            0.9371841656611062,
            -0.020985230273338044,
            0.7207356803758923,
            0.9307864366591526,
            -0.1146732092396197,
            0.09318140232062677,
            -0.30311244207672483,
            -0.4756423202157141,
            -0.9720480543259298,
            0.06846173618082023,
            0.8150810358029981,
            0.5048239408195937,
            0.9610528333500128,
            -0.11740988298543376,
            0.5750473869347574,
            0.45260066416649686,
            -0.06525961270725164,
            0.47443549217126707,
            0.20230494556645007,
            0.7575291525043134,
            -0.7644341733526794,
            -0.34635379167410335,
            0.8688351946061488,
            0.7751176388173283,
            0.2635785085625194,
            -0.7056472457446471,
            0.30934175252550633,
            -0.8670489393977993,
            -0.8157302533628661,
            -0.14422890059197563,
            -0.5651227601874875,
            -0.01417758679203648,
            -0.4204377955697702,
            0.9134570179772057,
            0.18091689046316364,
            -0.30054905917236563,
            0.19123013813895479,
            0.6661096793222999,
            0.9686392584901573,
            -0.0434339104970661,
            0.7141209043693948,
            0.9219055761881165,
            -0.8007630963688757,
            -0.816269537361771,
            -0.802086908644152,
            -0.6441584049204923,
            0.1142908492515397,
            0.6751009786073624,
            -0.23870013068269172,
            0.1568929848123928,
            0.4302067655800175,
            -0.5409995600540769,
            -0.16918713319820405,
            -0.2863135699185272,
            0.5180258997480383,
            0.7053294535155722,
            0.26210632725467237,
            -0.5151484745510232,
            -0.44762995322116544,
            -0.5473223227591768,
            -0.8038455667704503,
            0.5402663507961565,
            -0.8707255523367835,
            0.968435313625361,
            0.44744113063526764,
            0.4128864089301327,
            0.33123012251910733,
            0.5626751671478111,
            0.9147975890829555,
            0.746580722085503,
            -0.2413249997565194,
            0.33692871027041804,
            0.8528825722276424,
            0.8075650889356217,
            -0.5636002866376512,
            0.159569666402527,
            0.40161949430734634,
            0.281194398434069,
            0.8473499176465479,
            -0.27621110879795174,
            0.12463921301678912,
            0.13570389412608366,
            -0.21999238278776426,
            -0.9736977836947774,
            -0.3658625371517123,
            0.9275150621125027,
            0.25000538434247144,
            0.2540367969360672,
            0.8743971872868652,
            0.4954934957635727,
            0.4672494160911319,
            0.5315894053408923,
            0.6401726911179877,
            0.40125934845897515,
            0.9626106675597981,
            -0.5487771011835796,
            0.4659086002342748,
            0.35215971053792555,
            -0.8666416120456395,
            0.5947919331742824,
            -0.034374290354079746,
            -0.8289113881013913,
            -0.845986454950955,
            0.25379366456227476,
            0.49374005891114736,
            0.46016109785823894,
            0.8734202631385364,
            -0.4791406119369412,
            0.8651583506744043,
            0.6426919418378213,
            -0.6977713645803552,
            0.5122529210016694,
            -0.8810671290592742,
            -0.8268098674522091,
            0.48622764366653576,
            0.45876716663382017,
            -0.6862317168210418,
            0.0338274787488765,
            1.0498531281772918,
            1.039236028665191,
            0.7816216443235132,
            -0.3708649278477509,
            0.9985149950428579,
            -0.3589628297855131,
            -0.21903843057273242,
            0.5217887810186688,
            0.8096171531162277,
            -0.11666001974630012,
            0.23239380226271833,
            0.1062033942808237,
            -0.5439793477788046,
            -0.6033533115139088,
            0.03426866007934699,
            -0.1568424757501737,
            0.95639573005695,
            0.2930803999419514,
            -0.045114773989994354,
            0.3481805738597108,
            0.6534556611633349,
            -0.4883518416837881,
            0.7842572498296269,
            -0.6970584873154886,
            0.2714795168644808,
            -0.6617776602934345,
            -0.13000215889461583,
            0.3795228926642361,
            0.794247531753582,
            -0.8217551895904367,
            -0.8372033992035537,
            0.02488381060078484,
            -0.4563293985265477,
            -0.5404617149602614,
            0.3027114933294685,
            -0.7013776272964503,
            0.31356674269454704,
            0.6119749932401852,
            0.8053120341151349,
            0.6623957168275681,
            -0.5241816175272211,
            0.1480453376606813,
            -0.26896328585686047,
            -0.4857301530790694,
            -0.8007545480599767,
            -0.5087280160033698,
            0.22571727609410533,
            -0.9724404373245928,
            -0.06995955194705057,
            0.7512651490209492,
            0.7458206725405885,
            0.9611507833509361,
            0.6622971954067115,
            -0.14157147739510406,
            -0.16909717711408126,
            0.006753893231688955,
            -0.6557772935126254,
            -0.49740738491726416,
            0.7463967380498692,
            -0.9509180429366844,
            0.9362648827997231,
            -0.5921251220515344,
            -0.4913046753460196,
            0.3840359915928859,
            -0.6834496368166199,
            0.4666622778010631,
            1.0099085013941356,
            0.4748618176725291,
            0.841635954181678,
            0.8736806390954663,
            -0.3317633579172684,
            -0.2625226287904398,
            -0.29956225904873096,
            -0.27411647205889395,
            0.8195864507838779,
            0.3185960158718812,
            0.0975022115999206,
            0.4260150883571851,
            0.4953962002541014,
            0.7638418839620909,
            -0.38314925083231904,
            -0.6162071379169843,
            -0.5293123503781871,
            -0.2554476434391108,
            -0.8462253314158638,
            -0.19574844528407098,
            -0.8956693286680687,
            -0.20041095251870486,
            -0.6435930083964135,
            0.15066295944044572,
            0.9547949236746902,
            -0.34984280479706825,
            0.12059351287452556,
            0.030705938174202238,
            -0.7411040887598119,
            -0.35608025238757013,
            -0.08230874608587281,
            -0.38637059416868325,
            0.42773368942426665,
            0.5454888398742724,
            0.1509252700069772,
            0.5830522326418133,
            -0.9035923907495116,
            -0.6040350544343033,
            0.6899784608529711,
            0.7204204903648153,
            -0.597534486207098,
            0.775508523281837,
            -0.6062676624403637,
            -0.5256861386169442,
            -0.35668007283991887,
            0.12428688987858678,
            -0.0782904948159693,
            -0.38366870066636005,
            0.551193897482397,
            0.7455308423460375,
            0.9443210816971046,
            -0.5323901723303214,
            0.8586702469825516,
            1.005531316421132,
            -0.6804388095743057,
            -0.26220315578036535,
            0.6638761707681147,
            -0.03919931577597096,
            0.3411405201604488,
            -0.47042382582695097,
            -0.2013059612598835,
            0.8230928469964467,
            0.14623452629148417,
            -0.5402314222305529,
            -0.8841999025132888,
            0.2488861237435778,
            0.3506524166684707,
            -0.6527097825344478,
            -0.29612350235753043,
            -0.17903950517281392,
            -0.7228411979295067,
            0.4669863590771709,
            0.5983634218104674,
            -1.0611048212151026,
            0.3322452581178494,
            -0.9924259270658036,
            0.20808837172024705,
            -0.2991008760948743,
            -0.7309842743912708,
            -0.1779121175419104,
            0.9230561037244814,
            0.10024074147600869,
            -0.9321993130882795,
            0.7098211043650919,
            0.25519576367060415,
            0.5735185653797392,
            -0.3255979516682928,
            -0.7379522676743003,
            0.6399133695447583,
            -0.3407451920584275,
            -0.3238675114887896,
            -0.8286482048188598,
            -0.25791777297184243,
            -0.06292664799043536,
            -0.9320678594632271,
            -0.2745942771079606,
            0.3593620066631246,
            0.6619338692692428,
            0.029641343163062814,
            0.18269937745190945,
            -0.8214536668613361,
            -0.36451367378470584,
            0.7004961953108763,
            -0.09108563308171755,
            0.7116293264988195,
            -0.5613415022304725,
            0.6612221208355289,
            0.7493473690552738,
            0.14200295487589015,
            -0.6130202847055866,
            -0.9283230451227316,
            -0.349816928429918,
            -0.754454797302971,
            -0.29261453378671826,
            0.04682961495280772,
            -0.9187485571841306,
            -0.2433660316210871,
            0.21848847572076324,
            -0.31188412432691043,
            -1.0509733813257545,
            0.5300919912053627,
            -0.9253593712121444,
            0.8566769105114634,
            0.17414048453874514,
            -0.7292060925517133,
            0.6542572183223853,
            -0.03582360659722382,
            0.6945228414428736,
            -0.991677386407852,
            -0.9582765309351412,
            -0.8539538276589203,
            0.524810523185238,
            -0.2643709240360864,
            0.18988151062671035,
            0.14782931590677711,
            -0.013086618812569385,
            -0.8458535311660816,
            0.15785873140368223,
            -0.000829992624703249,
            -0.5973998954973332,
            -0.7715499178591778,
            -0.4177579200059821,
            -0.3030455382129944,
            0.1862306669937046,
            0.7243324880737639,
            -1.072196145327895,
            0.3619052325379757,
            -0.8078208808691751,
            -0.2651838306119886,
            -0.8505938079020344,
            0.6014169007104107,
            0.19791912395497863,
            0.5074044336228002,
            0.6752534962324249,
            0.5380503788413723,
            0.6495526517613252,
            0.2707885193702795,
            -0.6207301082680986,
            0.4327811740099524,
            0.0540679624985713,
            -0.9588937019784228,
            -0.7760901589643248,
            -0.7894861117963844,
            -0.20562151861360983,
            0.9087190441019122,
            -0.2672732336470836,
            0.848814946057179,
            -0.5966480922020589,
            -0.15818631364247737,
            -0.6649725634108956,
            0.9248323156447655,
            -0.1332169480691244,
            -0.98696631014457,
            -0.9992617463517524,
            0.28310089914946335,
            0.47375654421862373,
            -1.0148562926440945,
            0.2686006360319404,
            -0.8464996499342303,
            -0.5620252678441119,
            0.3450659948800819,
            0.20584509603803058,
            0.40146360752543886,
            -0.24525682687488293,
            0.515966287881433,
            0.05949352235738118,
            -0.8319067062122387,
            0.24267232914478185,
            0.8313070567750523,
            -0.48210005254290483,
            -0.6053520888633048,
            -0.9136147808519265,
            -0.01765010095151114,
            -0.013513835790750672,
            -0.39401949445357304,
            0.14855070199270182,
            0.6310729192419811,
            -0.3765043451362363,
            0.554969871376878,
            -0.20991335979503228,
            0.4127263902399529,
            -0.2286683707494693,
            0.6044678707938794,
            0.25894334781606376,
            0.9940971839135894,
            -0.8934252872778885,
            -0.5544782723706801,
            0.8787040522670283,
            0.4045706116330259,
            0.015649886201680792,
            -0.9065729022003197,
            0.29560435123319645,
            -0.1957317826139181,
            -0.29872585422536707,
            0.1542577676106429,
            -0.8900928177690509,
            -0.9214833637858116,
            0.7637949111830313,
            0.7446907591106187,
            0.24937419083965173,
            -0.03430252126229313,
            -0.2695952103814317,
            -0.8615244817518339,
            0.1038886411390902,
            0.7864085615404304,
            0.2532040412261301,
            0.9503683077990517,
            -0.5225239503674117,
            0.5130134877109462,
            0.5234665496373541,
            0.27818802187432023,
            0.820319934025655,
            0.795631425805297,
            0.5811837633326574,
            0.7340621900933689,
            0.16919703583309711,
            0.8458502272966983,
            -0.49791212763629755,
            0.6668900217919643,
            0.49239115744249534,
            0.05916441974035432,
            -0.26733734206914195,
            -0.5391682169795197,
            -0.21865990505127475,
            0.26116097711585995,
            0.5051721534907325,
            0.5486215299042327,
            0.37993284896779295,
            -0.4660820244638623,
            -0.3859704844729707,
            -0.8947040867560954,
            -0.5108730187216048,
            0.5022678574641939,
            -0.8677678472642116,
            -0.49060661057427873,
            0.052337254918307784,
            0.583109889413048,
            0.38520770243604663,
            -0.4909903900297185,
            0.06691210874674161,
            -0.5931359148360391,
            0.8092413425216027,
            0.05115682633430625,
            0.3924259363981109,
            0.6519247253603697,
            -0.8997232570166143,
            0.019072823260210026,
            0.0561610111395333,
            0.060707479088977286,
            0.8472478877087294,
            -0.47240203839696177,
            0.5083958545144823,
            -0.046342554876089063,
            -0.7997702673232616,
            -0.17402987357755306,
            0.922543542522392,
            0.3210755455966406,
            0.01524805314935231,
            0.21463395633237842,
            -0.0489553247455067,
            0.11576963483134349,
            -0.24359700023936276,
            -0.4055984188352504,
            -0.3567118961445807,
            0.2138105314256053,
            -0.4021406148869062,
            -0.7910403427057396,
            0.5499060452091642,
            0.8274983117039248,
            -0.9113142516154844,
            0.6185762187782224,
            -0.886267561143592,
            0.560804648958855,
            0.2200383780931724,
            -0.12376984229558638,
            0.13784020719965878,
            1.0183788406386356,
            -0.8520587674900909,
            -0.22893935504092583,
            0.5189533735075249,
            -0.7962586852522047,
            -0.7917992584146725,
            0.7706879207149646,
            0.8533168273973744,
            0.6089873025701451,
            0.38899973594540566
         ],
         [
            0.24087941937215307,
            0.9355422722013662,
            -0.7082802629918792,
            0.13055663772762935,
            0.25072009840850323,
            0.9220569423783029,
            0.46993698096814307,
            -0.4192362423435181,
            -0.668206406818513,
            0.5500606026862789,
            0.7097123496216229,
            -0.9452511586395242,
            0.42555750178293816,
            -0.10764307167601618,
            0.8692166012988876,
            -0.301914865494877,
            -0.02355344450197283,
            0.21186378677280165,
            0.14203840717969934,
            0.8080678498700982,
            0.08890275425573964,
            0.7796986890736086,
            -0.9811902278821427,
            -0.19907481579957592,
            -0.8046725412926548,
            -0.5093254570961384,
            0.6849280233730641,
            -0.828141735996839,
            -0.14768644587867713,
            0.6984532880446435,
            0.5922231778847407,
            -0.3655764226609246,
            0.17146229242001249,
            0.3643221645874062,
            0.5911063710546947,
            -0.13837968772945147,
            0.9518700924688881,
            -0.5274234890905557,
            -0.9793154383324723,
            -0.448257347635233,
            0.5308937397013972,
            -0.9064033946026161,
            -0.8986409586712439,
            0.9289721435152566,
            -0.4957516118909045,
            -0.5909255388766387,
            -0.16123980175486535,
            -0.8976951108233691,
            -0.4498597766577691,
            -0.5641543645392659,
            0.69559628651307,
            -0.018894381454210622,
            -0.4205874905113729,
            0.2497688524786686,
            -0.30633795782645423,
            0.677747061798315,
            0.14588285164916792,
            -0.8058438802327301,
            -0.23538523394785638,
            0.0536337629834813,
            0.6649000485482408,
            0.44137179786069086,
            -0.2875360755370793,
            -0.757201008010588,
            -0.7269322780004459,
            -0.9825571839472818,
            0.6299879152005563,
            0.9129453149598965,
            0.4753774759421478,
            -0.03383332758424394,
            -0.30630745260290504,
            -0.12315752357825091,
            0.8314667669640534,
            -0.6709507433265011,
            0.8312868415546444,
            0.43198632065271075,
            0.16187057678017108,
            0.6201786085414253,
            0.2049516113479992,
            -0.0878988823692882,
            0.5924536112732401,
            0.6859372984621084,
            -0.6535034044366723,
            -0.6069547354403595,
            0.7592537445896164,
            -0.13899814428572377,
            0.604694277249713,
            0.43926342361873116,
            0.18791371614151825,
            -0.07128742168449954,
            -0.843662663286327,
            0.45366402767927255,
            -0.9017737214916894,
            -0.7688788002878402,
            0.5011997267034352,
            0.6908026215583778,
            0.9267039111525515,
            0.933018430652794,
            -0.3092382653273671,
            0.1668527534530391,
            0.7485523460021426,
            0.8276587217365458,
            -0.04666193857977991,
            0.38073468853586984,
            -0.6909847928747248,
            -0.7061048914854866,
            -0.09376015732735218,
            0.5544292732188935,
            -0.9363324846275904,
            -0.2924849083104275,
            -0.6815777820336315,
            -0.1552737510199294,
            -0.7428688608094047,
            -0.813050692596814,
            0.3058627159125733,
            0.3193549599438062,
            -0.8018102744746626,
            -0.8028617014277869,
            0.6900139633632365,
            -0.19946420213053073,
            0.7522972714144815,
            -0.1498041774774244,
            0.8912305629358308,
            0.8286417959392005,
            -0.21685962563347344,
            0.5937431644394245,
            0.8957000815444988,
            -0.16299699589622932,
            0.9719257464970412,
            -0.8673027013434362,
            0.19786880332127468,
            0.3746603699533454,
            0.9561559350473572,
            -0.15090978163199603,
            0.601977427079278,
            0.0692875587162906,
            0.8823699381712353,
            -0.9182959727286397,
            -0.34516141047179383,
            0.308308278984154,
            0.7876192945231411,
            -0.3041221775813896,
            0.577716314213048,
            0.6677842356980873,
            0.9954740592438418,
            -0.43595745707696076,
            -0.29145563573486144,
            -0.2722426248857918,
            -0.9929371770333547,
            0.06412985013291891,
            -1.0139607679949045,
            -0.24835825584343843,
            -0.8133164920678964,
            -0.013670811289978168,
            -0.5194704236337196,
            -0.6171780347338224,
            0.7403573568266263,
            -0.38902477333255525,
            -0.8543281510948078,
            -0.7802881296161155,
            0.36912325877295316,
            -0.46739443265478386,
            -0.9180046933780467,
            -0.9254938759888297,
            -0.17050356510780318,
            0.2752744729231818,
            -0.708727605308258,
            0.9573532594841752,
            -0.8721655295583999,
            0.2994741839324382,
            0.9962953932619745,
            0.5415486799121206,
            0.040972706058454,
            0.5603619403484614,
            0.5297000156619885,
            -0.7390190828752178,
            0.2711822565465164,
            0.4590261462536128,
            -0.8412524317161159,
            0.8558729908081042,
            0.03790146916111446,
            -0.6672983546214636,
            -0.8458790750499137,
            -1.0016671643784931,
            0.7236939153187646,
            -0.4216875794872628,
            0.08922642983865585,
            0.46023283368405793,
            0.5316650317986871,
            0.2796039021392014,
            0.09951309449979609,
            -0.735570222248532,
            0.5561953928375554,
            0.2670380207302995,
            0.5616192977080109,
            0.032036201580878006,
            -0.4339740144691884,
            0.7837386408724434,
            -0.9165009286585397,
            0.8794555681706139,
            -0.38403724520937466,
            -0.5586709829898021,
            0.9277537051051776,
            0.5474353772365023,
            -0.8960024010008658,
            0.9470523940946326,
            0.04306554813695452,
            0.6810555162631841,
            -0.1522932800146701,
            0.09630779869375809,
            -0.1420005887944872,
            -0.5879704457782026,
            0.4889029379573392,
            -0.20104639080976983,
            0.01343180960248836,
            0.025389665287869186,
            -0.903037840411179,
            -0.14790616947412946,
            0.6540197480744013,
            0.8370719535245918,
            0.9350473823002964,
            0.9965831348773543,
            -0.8981226269496669,
            0.15115994448819278,
            0.0627427525347018,
            0.16286420040842664,
            -0.9935802568056195,
            -0.7032888316723807,
            -0.8505818053563422,
            0.6368727160688479,
            0.09480369204316359,
            -0.9046770379947398,
            -0.39028176186149716,
            -0.44518620761226446,
            -0.7545231805482994,
            0.5579564535843641,
            -0.7338086593861263,
            -0.9739504981590206,
            -0.47388801545080933,
            -0.2183858107874087,
            -0.3615647495920873,
            0.5301920271986589,
            0.6419301810688651,
            0.07629208246107404,
            0.34700502818677953,
            0.2816429262286777,
            0.861400736033129,
            0.33264993313019586,
            0.9057345252550911,
            0.4540818479980901,
            1.003970026611895,
            -0.7685908556658848,
            -0.7430521570109209,
            1.0036703726029799,
            -0.6698287657923144,
            0.882626701645597,
            0.7741412289899062,
            -0.43918941259197974,
            0.37900912762985584,
            -0.2864384050161285,
            0.2430613554295409,
            -0.16873288710628032,
            -0.1210642501059407,
            -0.9019961791142973,
            0.43324393758121815,
            -0.08109785711597454,
            -0.7858933617642458,
            0.21029367392310153,
            -0.39116402886292095,
            -0.4648082195676061,
            -0.6910036501101986,
            -0.32549964646268903,
            -0.2864671650146118,
            -0.5925307554031992,
            0.9860089717516504,
            0.4586267326778285,
            0.12447042103917588,
            -0.7920552417207646,
            0.4177251182175436,
            -0.09536983079899036,
            -0.43435235609426415,
            -0.9869350788592197,
            0.9071137908626834,
            0.26264978418691165,
            0.22997750081527035,
            0.26702329204383785,
            -0.9550935465118894,
            0.6066573629357912,
            0.8243979660309231,
            -0.4299148653977603,
            0.6348181563764262,
            -0.768382055269826,
            -0.1667725555104125,
            -0.9569842894918299,
            -0.6177896818652809,
            0.8222863903761357,
            0.44266711805008485,
            -0.7687863676420884,
            -0.16164168798619896,
            -0.8063849233424979,
            -0.07657276452454972,
            -1.0130626820239261,
            0.4731131331864778,
            -0.8942184166503935,
            0.09647905365876264,
            0.4348931868562972,
            -0.4524262910761384,
            -0.0104403280638195,
            0.7607819792653259,
            -0.46178613249819733,
            0.16846771639861352,
            -0.1292011392057571,
            0.6942083328456394,
            -0.9749249608167296,
            0.6311334380858838,
            0.8124591968972025,
            0.3876477741458725,
            -0.8139658432169025,
            0.2793015364304931,
            0.8699192961383383,
            0.5413957018759544,
            -0.6904023407544391,
            0.21964299398836293,
            0.9478765143763901,
            0.45541986187652167,
            -0.7170181568623872,
            0.1801591881696075,
            0.08886698297470914,
            -0.7135121172406006,
            0.6411960940219376,
            0.916302398035473,
            0.7944375845014593,
            -0.09313906565647964,
            -0.4684393474467706,
            -0.23952209157785626,
            -0.5640486778232705,
            -0.09184766838419632,
            0.7367439394767094,
            0.5725667477070968,
            0.8916498449675667,
            0.08600718295552655,
            0.14677622247171604,
            0.9265120809536275,
            -0.43291814146596935,
            0.04258815945439143,
            -0.9068364438431067,
            0.7178202867144435,
            -0.7282868834324792,
            0.7882804796675212,
            0.8045861910962782,
            0.8372331880040921,
            -0.7820880916613054,
            -0.47667382796516167,
            0.19707372513760057,
            -0.23270939401469734,
            -0.2642056375465965,
            0.35192110653128794,
            -0.1581242738765184,
            0.8945610691514466,
            -0.5844804623940748,
            0.9759805818628046,
            0.22915524370828347,
            0.32743416296394867,
            -0.30546095691400765,
            -0.8048798738014631,
            0.39244165805773185,
            -0.05362903837642322,
            -0.7157319942445172,
            0.9852026695111411,
            0.8999355161759899,
            0.6829023279452267,
            -0.2846218880613324,
            0.23594781274002702,
            0.7908746871876148,
            0.800009910511271,
            0.5234966258573761,
            -0.35508601288132396,
            0.2886207533108501,
            -0.17740807596362418,
            0.5588289735630562,
            0.5902426517987185,
            0.2342320529095554,
            -1.0000997183778375,
            0.8387773242520143,
            -0.8289187709843135,
            0.01515762241502198,
            0.5350360794163328,
            -0.3046055069349877,
            -0.5285955988046208,
            0.11696069140370802,
            -0.9785338807177445,
            -0.6148060265486481,
            -0.5236433014279149,
            -0.2704130242956156,
            0.6593784554042899,
            0.6516056131488747,
            -0.15842536614606564,
            -0.24985738347722988,
            -0.6179272133261019,
            -0.896027530394876,
            -0.6794133812624142,
            0.44996034298800797,
            0.5799102749941147,
            -0.3985081264647812,
            -0.8103699147393156,
            -0.22456096579861973,
            -0.6400624035735473,
            0.2569134731807141,
            0.37283840042023836,
            -0.13288491536110167,
            -0.18584188532503254,
            -0.4905884759503405,
            0.7124435087046009,
            -1.0052359831771485,
            0.12425293738924219,
            -0.7579472043690731,
            0.2479493252179073,
            0.2284690918584721,
            0.035631459775034,
            -0.6015327036330809,
            0.9040004773361745,
            0.7835645653664007,
            -0.4310793840846011,
            0.9813376512002088,
            -0.8032602595153677,
            -0.8725985361147629,
            0.6276105226102185,
            -0.8611696202123514,
            -0.7738881003071737,
            -0.6192436395076638,
            0.0822537371777481,
            0.01856930932329829,
            0.31070615848963457,
            0.9376278682016634,
            -0.7707867676719825,
            0.7987723159735123,
            -0.23095923351192196,
            -0.892280242374571,
            -0.7459106083752765,
            0.760462945675348,
            -0.9121466512302251,
            -0.34241339677314836,
            -0.7711728946088586,
            -0.8140694648281266,
            0.9363181907632726,
            0.060983482096926896,
            0.3040109436065094,
            -0.3033486336031451,
            -0.4199952625030826,
            -0.5517282291968901,
            -0.5589282309121298,
            0.2540165652046346,
            -0.42303370313503197,
            0.22695552229347882,
            0.4315233766750761,
            -0.6190690219745374,
            0.41525661270322317,
            0.2360196276923311,
            -0.5688110194668689,
            0.49834621812279634,
            -0.03674221352948684,
            0.5373334000127661,
            -0.29572655351743266,
            0.0554214794290449,
            0.22661223815140777,
            -0.7107722462906557,
            -0.0010891390396956763,
            -0.9010885979483823,
            -0.42070293066673164,
            -0.2939406328486761,
            0.5215158541269901,
            -0.8498476640739366,
            0.2776855279926928,
            0.8714430754231662,
            0.13228912445322985,
            0.2790393445311389,
            -0.7066136212263774,
            -0.08612103694734004,
            -0.8540704168836054,
            -0.7249087968425467,
            0.5034512247443842,
            0.7693387196506501,
            0.5849549883566356,
            0.5395883305581725,
            -0.07323812888097042,
            0.5935937295764275,
            0.780717358624411,
            -0.5930553694414578,
            0.9285530937403979,
            -0.3299726953547703,
            -0.05299466074514102,
            0.6630175242733626,
            -0.42128920246442886,
            0.5304829130267523,
            0.16883636639346158,
            -0.20476693303412366,
            0.19623836033374314,
            -0.9307214392957273,
            -0.979729272709536,
            0.7415981993925325,
            0.7213101774822197,
            0.6558190017870429,
            0.18227362221141122,
            -0.13695821572891226,
            -0.658927825657271,
            -0.8240475460936897,
            -0.11920058374299441,
            -0.6802519593922263,
            0.7175080550059202,
            0.6267261606498294,
            0.26613124720711206,
            0.6518269054382169,
            -0.22087746932521507,
            0.3082464835637283,
            0.5144477313443531,
            -0.3433859619053218,
            0.46410183196471205,
            0.3767294736677319,
            0.9026162838762357,
            -0.9437257129669271,
            -0.118165878997231,
            -0.9572193930314706,
            -0.8051024806591625,
            -0.15404050281042578,
            -0.12125581094175318,
            0.8646701071897299,
            0.7535975013392048,
            0.14621001723766655,
            -0.06722393120211764,
            -0.7288912671068608,
            -0.3295054653898241,
            -0.4029164385868182,
            -0.9509866353181566,
            -0.46279841304658287,
            -0.5588660399229748,
            0.659623670023512,
            -0.9720163432911686,
            0.3910541473224873,
            -0.6523324530654118,
            -0.49393243897255146,
            -0.9487677995134769,
            0.9244631771369888,
            0.1875277710279997,
            0.1580203553771907,
            0.5225572102278818,
            0.03717590689852915,
            -0.7554810116221694,
            -0.009975302524274737,
            0.8826246487673892,
            0.015033690453138533,
            0.09887464416064351,
            -0.5666079540218533,
            -0.7227485901051739,
            -0.4978822958441484,
            -0.560272179383733,
            -0.4310566074843113,
            0.12057694120130102,
            -0.8492806096559704,
            -0.2177744297206824,
            0.5895420065050813,
            0.9612517098408535,
            -0.8522932097627155,
            -0.09713120404887729,
            -0.7320952801158672,
            -0.5918178491917488,
            0.9403470372933838,
            0.5009204037407725,
            -0.33272376290711314,
            -0.23844055788177265,
            -0.8223201356669997,
            0.9057430754410658,
            -0.6662119573168608,
            -0.9602584681353706,
            -0.9227593608113385,
            0.6412201485701318,
            0.09859299383872454,
            -0.5227304431208437,
            -0.5384437065104454,
            0.6367337778239356,
            -0.36434511514258994,
            -0.7873271862196422,
            0.2651427844481391,
            -0.4410723233462526,
            -0.890744650670634,
            -0.5151003077892515,
            -0.5602886442905634,
            -0.38050092917207784,
            -0.41685731984504015,
            0.6209044946119973,
            0.620636266040254,
            -0.982860491009189,
            0.9856657030592868,
            -0.10248709296933665,
            -0.6361085026983931,
            0.7085698736132283,
            0.790348843545072,
            0.5281088425896893,
            -0.8099064544499146,
            0.2786022179191519,
            0.6471398561951921,
            0.3743831687478203,
            -0.906933024434344,
            -0.22191370048656092,
            0.3105812617357881,
            -0.29029503849991123,
            -0.4907899390015708,
            -0.7428947075136225,
            0.2716422243869417,
            0.39254496433662867,
            0.13768850753962855,
            -0.7887814865639448,
            0.8573945110573845,
            0.24814162250721666,
            0.3108314571044979,
            -0.6578083896725567,
            0.5202803985521682,
            -0.263820518160539,
            0.6697069151479358,
            -0.45502132393043765,
            -0.5802240537963083,
            -0.6245595583316264,
            -0.13636381254346175,
            -0.17956010533129121,
            0.7503114362078406,
            0.6492025834335489,
            -0.9062639595911162,
            0.6560713384912901,
            0.9718794824892122,
            0.49570521407704904,
            -0.6623911804973945,
            -0.35788033471222896,
            -0.46800074168712574,
            -0.5858429448001125,
            0.9487677529059995,
            -0.7362128167399278,
            -0.8680014457934484,
            0.792682562468248,
            0.43924609127802783,
            0.04165653871555011,
            -0.3767154076208611,
            0.36577572849187895,
            0.6738934632396303,
            0.6543795333791718,
            -0.1494957489353994,
            0.2089880250278297,
            0.7721170383845197,
            -0.9375810480852588,
            0.6148169324286108,
            0.856797315359425,
            -0.7067298928393169,
            0.9519264688642373,
            0.40634124268313,
            -0.4761945638815086,
            0.14637814583684566,
            -0.8278443068738793,
            -0.6728065155671681,
            -0.3944255010293066,
            0.200361656602385,
            -0.28765174531344184,
            0.818968782302302,
            -0.09171903522151145,
            -0.11500200484025427,
            0.42027237753531277,
            0.25056287877076144,
            -0.11995276528905544,
            -0.02775966927826755,
            -0.11207657995156835,
            0.04189175773289157,
            0.42270199970982403,
            0.7538962638630601,
            0.47505646927117945,
            0.2034217411353027,
            -0.1503676061950983,
            0.5897815063150675,
            0.09500709648124368,
            0.7513144741368203,
            0.513787786330042,
            0.10767165940222603,
            0.8413451170607854,
            0.06185905696347879,
            -0.5890109027716262,
            0.14675620732417352,
            0.3913849866984634,
            -0.47729322046388317,
            -0.9006451571799167,
            0.5243851160588597,
            0.7829815583698478,
            -0.4076140953457859,
            0.8407515213694244,
            -0.43504406527862105,
            0.14224164909796005,
            0.3784383960422705,
            0.6714948781636892,
            0.7037171030970094,
            0.7642852591178948,
            -0.2184731817188472,
            -0.6524955472988808,
            -0.1828542670830225,
            -0.15121522700232704,
            -0.941206862173193,
            0.05925063251904722,
            0.6580781567552922,
            0.12544862712154273,
            0.2805199810008164,
            0.6571524389825729,
            -0.009611061672910396,
            0.8675763669908301,
            -0.7216746590132367,
            0.4909352317974043,
            0.30791328052972144,
            0.7224429956473551,
            0.3228040233685201,
            -0.7982304232258939,
            -0.32708052527772413,
            -0.49858776280705275,
            -0.32787628501075966,
            0.8249754243280019,
            0.881815666927262,
            0.2565637016606559,
            0.05763614654100164,
            0.8931037760571857,
            -0.141707630548695,
            -0.4342083942580429,
            0.3260910361485217,
            -0.5646393325604704,
            -0.38744545667939334,
            -0.3016271678938457,
            -0.16127150522083095,
            0.27485383345580505,
            -0.167541882154235,
            -0.11110571410871665,
            -0.780058253404077,
            -0.10089511216848636,
            -0.21286806950809162,
            -0.7866233264070347,
            -0.34703977812468506,
            0.6419846083771426,
            0.40272225203737433,
            0.7162678263562394,
            -0.6891397325966416,
            -0.04053112112391673,
            0.7041775278702094,
            -0.6158185365420492,
            0.7495839437680804,
            0.5706521079742809,
            0.4456759948765557,
            0.9169421917161649,
            -0.08878165779336925,
            0.1354019517230733,
            0.2089854557390125,
            -0.23462929863398205,
            -0.5955661175011326,
            -0.9626465179230028,
            1.0039848654911339,
            -0.27901132213180646,
            0.03863271778302173,
            -0.89645821329651,
            0.3539960029759046,
            0.6853770374169439,
            0.5102534326623863,
            -0.2670999409630544,
            0.808472310355113,
            -0.5313316183658437,
            0.9693736296491371,
            0.04796979766199179,
            -0.18341135564531133,
            0.5608566726628439,
            -0.6455088503579881,
            -0.7762709465070319,
            -0.5003975925429125,
            -0.4295615128963592,
            -0.03845656833754715,
            -0.646751357633991,
            0.528862562618841,
            -0.3448983135767117,
            -0.21655492938523355,
            -0.24989141889775596,
            0.5399736814588156,
            -0.1557290362446106,
            0.7782084646662553,
            -0.9533889842042469,
            -0.3650207804308703,
            1.003068716064756,
            0.7220917469431924
         ],
         [
            -0.3738267112847197,
            -0.9828042083154898,
            0.16723048676106733,
            -0.3434977815264812,
            0.3847517873391029,
            0.9124942321605949,
            0.44635870370362735,
            0.08929517514490821,
            0.3452682840412005,
            -0.9811528461452503,
            0.7619661568246288,
            0.2810404757310843,
            0.28941792721756926,
            0.7038480569909087,
            -0.6024548645596306,
            0.2915154764905155,
            0.3905726978180733,
            0.8994406551772003,
            -0.7332797491042056,
            -0.3477544145835731,
            0.12710504219170843,
            -0.812777951322186,
            -0.8892079906450026,
            0.277073153351497,
            -0.7396868523303908,
            0.35849178240916096,
            -0.03953861164595005,
            -0.7198892821030072,
            -0.5634126183222197,
            -0.10491692273362029,
            0.6241282389526281,
            0.15596796581997052,
            0.7484798669328858,
            0.8167522559881801,
            -0.25054082667263144,
            0.43115451109536757,
            0.008305451953112063,
            -0.9217360326961013,
            0.5391935195070253,
            -0.04452046502316078,
            -0.8487797719197532,
            -0.48601080701825883,
            -0.8161371943245461,
            -0.3017440136899379,
            0.397474680437006,
            0.4823006138263394,
            0.9657584343265594,
            0.7326162505514714,
            -0.8778330745407005,
            0.0442458389326817,
            -0.01939481608530934,
            0.08839726380852088,
            0.3294093304024999,
            -0.28446416894053245,
            0.9464913151119878,
            -0.34167061111614,
            -0.4447480635242022,
            -0.6245832880744624,
            0.3554364674649995,
            -1.013778344379424,
            0.39498142501260874,
            0.8316539814911759,
            -0.7969165094542121,
            0.23955086114218194,
            -0.8040146478243817,
            -1.0063743326447983,
            -0.32333378828558845,
            -0.3592410768307226,
            -0.6673434020647209,
            -0.17731408598873036,
            -0.6683327670218051,
            0.18223849835504016,
            0.48425759437444216,
            -0.7985148120583428,
            -0.5934821692270026,
            0.002059991010468475,
            -0.8173507704868,
            -0.7570272952848667,
            -0.11701284410321437,
            0.41119705514951227,
            0.02443626444476379,
            0.5025008263015012,
            0.5979953151736539,
            -0.84092028057674,
            -0.011670600341751592,
            0.15757305826517654,
            -0.5403689619260728,
            0.8706248117262103,
            0.608215990285967,
            -0.6691688444686335,
            0.5801398300620346,
            0.33310862819197207,
            0.10251014576722198,
            -0.8777039404208233,
            -0.46479643522903974,
            0.9289866281949679,
            0.4084085431186051,
            -0.9588897212570772,
            0.16083144854542394,
            -0.08333330438095536,
            -0.7120339029865994,
            -0.10876036728411115,
            0.8308530331149329,
            0.8642895235398075,
            0.02013730634183379,
            -0.7674883353046797,
            0.7229393191682898,
            -0.20938261524128826,
            -0.7221135598102226,
            0.3127212854920331,
            -0.8006312193821514,
            -0.2812549337141886,
            -0.44031048963603897,
            -0.9002114852699508,
            -0.8046462614289596,
            0.581518952151001,
            -0.5115291423632121,
            0.8375800770085471,
            0.4221704226071288,
            -0.07177081945275929,
            -0.2081570090305406,
            0.44178386498409256,
            0.6260063475178123,
            -0.9354084581885842,
            -0.06449531252126213,
            -0.21860660427407497,
            -0.9539570459679968,
            0.7783481221496065,
            -0.7821428845390282,
            0.16880678754223882,
            0.756772534323761,
            -0.7723344918574833,
            0.457961709534685,
            0.29087225139092887,
            -0.1902583704852679,
            -0.5292255253460239,
            -0.16121482215767557,
            -0.10729692289683453,
            -0.4315693376545659,
            0.5117117220313342,
            0.9218037392386391,
            -0.1487385973601556,
            -0.9138424065283391,
            0.2288610681708284,
            0.2979358183035985,
            -0.17854755514920337,
            -1.0073424761613048,
            -0.5492056226046497,
            -0.613712630197858,
            -0.42921467066248176,
            -0.49307178280012665,
            -0.363124487590558,
            0.2137065975511921,
            0.5101784517900482,
            0.8031764716626173,
            0.5410182044125247,
            0.17871644809348355,
            0.5714316068835775,
            -0.10837177345431215,
            0.03971099797467586,
            0.8460219903814332,
            0.454291234013883,
            0.6598912670889268,
            0.839270418116813,
            0.594412340298144,
            0.9716060118719622,
            0.9561987959645658,
            0.9267340925998044,
            -0.051146277157814175,
            0.6439361233506526,
            0.18869316420068405,
            -0.35282708621125164,
            -0.9989025173073232,
            -0.5790659457062086,
            -0.7182948525300106,
            0.8096334991567565,
            0.4188756249958119,
            0.5625129176282585,
            0.6836341337951487,
            0.7912823757172337,
            0.9072916031763236,
            -0.4438133402340531,
            -0.03699507484379003,
            0.32161693846103867,
            -0.1330525379505005,
            -0.7907002236774036,
            -0.5153739101752325,
            -0.4125875712969855,
            0.2985562745350273,
            -0.30546432047075,
            0.21738093093840175,
            0.9031912158951018,
            -0.24592190657624485,
            -0.3391400450986593,
            -0.11774039643420212,
            -0.14528903150388778,
            -0.9944203488894094,
            0.40065390166271736,
            -0.79200539312253,
            0.23757462829225728,
            0.889168591431367,
            0.5863640696597842,
            0.674587848096391,
            0.8690052393509698,
            0.6244183997750815,
            0.2023586319392794,
            -0.4146677390594393,
            -0.8948801785795749,
            0.015237774127868359,
            0.04270335042034352,
            0.1701116155916785,
            -0.5671279806452776,
            -0.3617244794688712,
            -0.18315923206873772,
            0.15110352870235505,
            -0.8177000491680979,
            0.6390633914183974,
            -0.8735073576802586,
            0.9328230693800078,
            0.48750891920523143,
            -0.09034548857546951,
            0.33490268690290986,
            -0.28186796373327844,
            0.892651791020261,
            0.9845473634444633,
            0.2862644894251641,
            0.7032864783298737,
            0.5002030120333134,
            -0.7427900351591142,
            -0.5910797614490908,
            0.719447626895702,
            -0.8680273930751543,
            -0.14773715133061896,
            0.892052511918182,
            0.03268251237817893,
            -0.28327837336350925,
            -0.22127193744003965,
            -0.5852140849160924,
            0.2818380051976755,
            -0.5535425220684672,
            -0.9512366536057215,
            0.9041405641623879,
            -0.15538187733252773,
            -0.07863902332324786,
            -0.4490328990389272,
            0.7586467955352791,
            0.5190013902295143,
            0.08588665844545834,
            -0.24765877986119225,
            0.45645725682355487,
            0.5727911303755351,
            0.29567977007250706,
            -0.6563092407445894,
            0.8738375953921236,
            -0.7787824914005412,
            -0.8710047433190917,
            0.932218446224173,
            0.3297649170640566,
            0.49566920451553553,
            -0.25542844974742523,
            0.5323182212355496,
            0.14205270502760162,
            -0.9165740312191477,
            -0.16729151858157945,
            0.2575017821381931,
            0.2596075888749937,
            0.4344182970944928,
            0.285798151534163,
            -0.3309942871824079,
            0.8089652363843204,
            -0.9326141591482806,
            0.23367863038883774,
            0.2835691085791719,
            -0.3825461410507233,
            0.46690203071156017,
            -0.011600821285253648,
            -0.7059413564541499,
            -0.2665619872250983,
            0.2106136901316784,
            0.08934880340375202,
            -0.8710906596251939,
            0.6345782273593401,
            -0.04204946916550372,
            -0.23023550897363787,
            -0.16161025807809928,
            0.4093301348666758,
            -0.9059243369878472,
            -0.4930865492762606,
            -0.15449577514070467,
            -0.10882676847812824,
            0.7369975480601824,
            -0.049771608083556525,
            0.7744417419290344,
            -0.8999069300549944,
            0.8653024300078205,
            -0.04404557997560721,
            0.4309719068256489,
            -0.019656000357738304,
            0.16638973186571976,
            0.7080541662826859,
            -0.6471754773516954,
            -0.1772191366984387,
            -0.7883831884538747,
            -0.27507016482643093,
            0.07987598843011931,
            -0.08966980464042171,
            0.11426005850725914,
            0.5881403727828538,
            0.7407424835987857,
            -0.5112282317888124,
            0.3382036098103992,
            0.0629705469887591,
            -0.562233283479503,
            0.48013936222536846,
            0.8614070338687867,
            -0.5858872512030431,
            0.9212261439118254,
            0.5444572305626775,
            -0.34894607856340853,
            -0.9139891910602741,
            0.6965401736566623,
            0.8448814794750719,
            0.9956738845283922,
            -0.5346973857700741,
            0.8757704425592197,
            -0.34709611016867686,
            0.11797687777093559,
            0.17306304567254652,
            -0.20744177158192137,
            -0.343925658980385,
            0.9253716040456207,
            0.16317188940366537,
            0.7746946883596099,
            0.5149545009952016,
            -0.9851021149851453,
            0.0974759010801267,
            -0.7787645112832411,
            -0.7051471989565294,
            0.5383523344541932,
            0.168431299098881,
            -0.19696224193500914,
            -0.9749953321594906,
            0.40909650144613147,
            0.20093068971570016,
            -0.10773521404558437,
            0.7274460808956555,
            -0.3127567134258005,
            -0.8484704444481713,
            0.8582245356085626,
            -0.9190147806973303,
            -0.33401205209069335,
            0.5643702364091263,
            0.9754869030674258,
            0.5571080721255022,
            -0.7062832979455242,
            -0.9718026728902812,
            0.9121963154711465,
            -0.21848226354068473,
            -0.22759089413281278,
            -0.45516108110911585,
            0.7133854036980981,
            -0.6987198530196657,
            0.8331903060826343,
            0.3348424043765415,
            -0.2815409248884195,
            -0.889004040007545,
            0.24071992126862968,
            -0.7109740821431519,
            -0.5883861304437119,
            -0.015063954670020667,
            -0.06662646459069657,
            0.42640322734155783,
            -0.6223373455851656,
            0.37695865275568596,
            -0.8289904067785304,
            0.3134424134187888,
            0.4323978057798059,
            -0.603547669422786,
            -0.6732812082801307,
            -0.15786588950109798,
            0.5589444126848703,
            0.9450168899547038,
            0.3914146386375981,
            0.38086213907727184,
            0.07501956053307696,
            0.25971800661806427,
            -0.5924124653324799,
            -0.8537703053404812,
            0.3597656035380921,
            -0.06729517901694544,
            -0.02813841671946152,
            -0.21511075787044937,
            0.7982198763420538,
            -0.533292789803089,
            -0.3359180210304081,
            0.408824008050124,
            -0.16968371605203844,
            0.23728612089566914,
            0.568947049313383,
            -0.19806416341879365,
            0.9479349827574849,
            0.2688133525364826,
            -0.34311093699430084,
            -0.4482065091074854,
            0.7044466758313195,
            -0.13183275409191458,
            0.3213214753058714,
            -0.38168698681829016,
            -0.01613332934038804,
            -0.6874332595269966,
            -0.6455000275284104,
            0.24147238250219694,
            -0.9998183105392336,
            0.31069407242324804,
            0.4175754546020059,
            0.26312546244828183,
            0.011530900396597057,
            0.5037850849059047,
            0.5235936694185697,
            -0.4381948270537653,
            0.8468026179513131,
            0.31656897584375815,
            -0.6924927710429126,
            0.39143300319132585,
            -0.11541055769927748,
            0.33349131452488273,
            -0.8394153407613925,
            -0.3013435276100228,
            0.6454580377885026,
            0.091297753468264,
            0.36945323397921404,
            -0.02447194432576356,
            0.527763220952343,
            -0.02229846588513264,
            -0.5422180260989014,
            0.25294667168585777,
            -0.4927155734528808,
            -0.016749502319475543,
            -0.043670857912311956,
            0.8058495305761657,
            0.9028036315278444,
            -0.3396349593577407,
            -0.7566011366411522,
            -0.47409066897824087,
            -0.2728253061800405,
            -0.24698341224505926,
            -0.6211448413293594,
            -0.7696692406971208,
            -0.08046647725612428,
            0.4714123216361195,
            -0.5891160510671308,
            0.6518658812263733,
            0.20442668625742455,
            0.8502712082871917,
            -0.7962392400013601,
            -0.0014049125730674628,
            -0.10184147329069052,
            0.9416804088995355,
            -0.9120861081431136,
            -0.353351063753215,
            -0.5742417560182373,
            0.6776066578679854,
            0.22969762357253978,
            -0.13584323793434752,
            -0.7260378890603362,
            0.42565153363715474,
            0.8928979967487918,
            -0.7088142148945111,
            -0.6008626394125333,
            0.9186086471535354,
            -0.4870437066443849,
            0.9471594482940411,
            -0.2708938493161755,
            0.6638545084431402,
            0.06734574656559454,
            -0.6355834834586953,
            -0.254936311790773,
            0.7252538213666453,
            0.6054159812409206,
            0.4280317060730445,
            -0.90823439612832,
            -0.7068946462139906,
            -0.6357042982210058,
            0.7943367503770197,
            0.8317894325299818,
            -0.643169584454679,
            0.4974781574315229,
            0.8557203239993451,
            0.12022529569129893,
            0.6725561356678496,
            0.6204003305062121,
            0.346600124545583,
            0.7542493525918308,
            -0.31241914923294434,
            0.5733888936799617,
            0.9153073948779344,
            -0.9077211355189984,
            -0.41757043833792773,
            -0.2765769040312083,
            0.8725056143731389,
            0.9498596014382384,
            0.3486624162156653,
            -0.6014828649818205,
            -0.10305683226008062,
            0.39384818341714484,
            -0.5947533845042268,
            0.12902162483068685,
            -0.9620218805164257,
            -0.960521555334232,
            0.3997449439404776,
            -0.9679648827970639,
            -0.4605481656483352,
            -1.0214569648125729,
            0.8683762727755701,
            -0.42204287012074443,
            0.5359988480002931,
            0.3079529870451081,
            -0.8449501200608514,
            0.12724884850384047,
            0.1825029845004472,
            -0.3175750440389619,
            0.1998956966915597,
            -0.24256257771414294,
            0.7276493733494791,
            0.0995797086290372,
            -0.38363175268199223,
            -0.3509447284296127,
            0.8618134334268108,
            0.6214764143753165,
            0.8793930215697512,
            -0.7705802090940297,
            0.40504587072894155,
            0.29171374053969684,
            -0.035281735543046054,
            -0.22078046769979914,
            0.6942290580737945,
            0.08093906986129008,
            -0.7318067401011039,
            -0.1740581740165393,
            0.8813322313405525,
            -0.6484910315042081,
            0.8585794457165912,
            -0.5724640836701613,
            0.5856088141147436,
            -0.8694439358229874,
            -1.0094315298427257,
            -0.7063189445754353,
            0.6823470166166606,
            0.16477931231460735,
            -0.9395933802157297,
            0.08649830505370734,
            -0.5442522558691156,
            0.13687872406093626,
            0.6205221383720788,
            -0.7717517973352201,
            -0.7911839588759323,
            -0.5597268644290999,
            0.4605882837710235,
            -0.8687261236381509,
            -0.7199673550967607,
            0.004842271382025503,
            0.8657929558800113,
            0.5339283941645917,
            -0.6459288104771931,
            0.621223352196917,
            -0.7683911872493164,
            0.47162922378583116,
            0.5429286972692323,
            0.6642312767613837,
            -0.9987818961745607,
            -0.9514467955923561,
            -0.38506993738894735,
            -0.33761424493598396,
            0.49182598432670543,
            -0.1805646490431315,
            -0.5713394654700694,
            0.13423224610316906,
            -0.9084737295295249,
            -0.8779572646460216,
            0.8326366522789489,
            -0.6019258483824381,
            -0.5349064517468254,
            0.4509108626315518,
            0.43768030402421054,
            0.2755745723902997,
            0.9310022512029322,
            -0.0584685934059072,
            0.5031538842782278,
            0.7438876637760838,
            0.15086687529713005,
            0.4495840798178212,
            -0.0006549333433063236,
            0.7491751028524521,
            -0.39903316797091354,
            -0.22291486044506967,
            0.3888465466857035,
            -0.8359580124489905,
            0.724399232210244,
            -0.46014685932278593,
            -0.935592114164725,
            -0.18587666182126764,
            -0.5130948782159594,
            -0.7182336909299941,
            -0.3068267031473675,
            -0.8815168597805485,
            0.8800170447291985,
            -0.9538758398230611,
            -0.8338150425930514,
            -0.28502757237690746,
            -0.510240643461122,
            0.9168071521608508,
            -0.6990865894533135,
            -0.48439819854566807,
            -0.5280134244138085,
            -0.8803323227553221,
            0.8913463344796535,
            -0.711014648267579,
            -0.0005414105178559504,
            -0.11659152103359281,
            -0.33607231126926085,
            0.5191859883673307,
            0.6364350441515749,
            -0.6831401473331077,
            0.43666991612329015,
            0.9137218382177925,
            0.4402435559151135,
            0.6754577280566344,
            -0.6086326018282162,
            -0.5140917137247747,
            -0.1287147499215946,
            0.10634523482503828,
            -0.9498447298173931,
            -0.7553200604926008,
            0.4572252803894084,
            -0.004146307685482083,
            -0.8513879996703131,
            0.038456526409991955,
            -0.20305736893448015,
            -0.9357674610357003,
            -0.16129168937770014,
            -0.2952677180770611,
            0.5163473523302617,
            -0.4750307827319976,
            -0.04127984385003592,
            -0.20668038683736134,
            -0.7182866364865659,
            -0.5122299555881595,
            0.10488455906809106,
            -0.402765358198479,
            -0.2021147837084866,
            0.909585966745324,
            -0.2225752616519785,
            -0.8648260510602935,
            0.48938000185426117,
            0.019484862780056882,
            0.9476048461006931,
            -0.5108498013843704,
            0.7429682407796339,
            0.5628109402038969,
            -0.2420569000263604,
            0.7993495122396241,
            0.2920883974742528,
            -0.1829489808361627,
            0.8318688969833816,
            0.003834198880986935,
            -0.25218573218805546,
            0.1835439836961326,
            0.13529652432396827,
            -0.8673695775120848,
            -0.46285891304191645,
            -0.6771138503114037,
            0.5073706318629789,
            0.05312712889769177,
            -0.841955281450329,
            0.24256916691895525,
            -0.3950564636615986,
            -0.8590471008531363,
            0.5586865153748521,
            0.3123072415773946,
            0.45290531882428997,
            -0.8067386714434808,
            0.74477473377297,
            -0.7622302259037016,
            -0.7606441291071115,
            -0.027576704288811676,
            0.6970762733628779,
            -0.7603770242910025,
            -0.10254307749067922,
            0.6407827506020636,
            0.6089805445319519,
            -0.819136181176926,
            0.36273143069433916,
            0.3112114755431213,
            -0.4317555482326471,
            0.18177205231632132,
            0.6877030952066813,
            0.2135939109658485,
            0.3067943018214951,
            0.4232904928897557,
            -0.7752224527353608,
            -0.25106066384377185,
            -0.7907760841106188,
            0.6389657573708998,
            -0.8400135434340981,
            -0.27691671934131473,
            0.44923908402397333,
            0.4718386363205971,
            -0.026377746359201204,
            0.4775099336675975,
            -0.27221037196160364,
            0.9095628516028458,
            0.6585484708408847,
            0.7131714138557916,
            0.7256846463149035,
            0.10342815744203981,
            0.5847080942610343,
            0.8681530437675568,
            -0.4804313303669162,
            0.5032062183259118,
            0.27615861925665797,
            0.2976310663064952,
            -0.4123585387140831,
            0.28293903421510425,
            -0.3413057281081338,
            -0.38244160800887345,
            -0.30292578466107917,
            -0.010627784620387031,
            -0.5538673441454531,
            -0.007510838328682041,
            0.869788696095166,
            -0.08965991259948454,
            0.23927849050705013,
            0.9100872567851326,
            0.3927030338926662,
            0.0631430714040231,
            0.45095913451386715,
            0.7336707709456406,
            -0.663290362082788,
            0.2659686726870352,
            0.7587692931187592,
            -0.49327065343979165,
            -0.7450437911908883,
            -0.8284361539713785,
            -0.856056353451237,
            -0.48080346117412354,
            0.6543138484151985,
            0.1822890979330319,
            0.2628675643283678,
            -0.729893613177366,
            -0.9791941117784525,
            -0.742621120252073,
            0.5698301692028291,
            0.16806031949505823,
            0.5924971887055246,
            -0.12104850984306173,
            -0.6783964807199938,
            -0.8546863410509249,
            0.034021834171936986,
            0.2094732252746458,
            0.8188702813329738,
            -0.6713909762935175,
            -0.09118509687603925,
            0.7401187150269027,
            0.23601121675524467,
            0.031651793751055986,
            -0.9728730583998814,
            0.6333989284435116,
            -0.9055386010976829,
            0.2438748799345999,
            0.22464245661811214,
            0.6025425357165092,
            -0.5340970069880121,
            0.27030350367635064,
            0.9247964373816518,
            -0.855542640770811,
            0.8944341681346681,
            0.3088495354758039,
            -0.15300981508142925,
            -0.7564485095080358,
            0.21144337585559908,
            -0.4931287484533531,
            -0.04480001341680372,
            0.6977935488127198,
            -0.07548215589756684
         ],
         [
            -0.9969933177354506,
            0.9493170921261239,
            -0.4865399645581535,
            0.31103552521664957,
            0.059113469265096356,
            0.33631494451486577,
            0.6470787487715425,
            0.16073457826104304,
            -0.4838507832424012,
            -0.9654266152244623,
            0.42713953163457774,
            -0.04384705342911688,
            0.4071504205552985,
            0.5644725325435559,
            -0.7068716553943407,
            -0.00028381691776419444,
            -0.575991055718824,
            -0.7528165367262644,
            0.48581890492587676,
            0.43084387038665184,
            -0.44822674846820865,
            -0.0408451019197974,
            0.6546600002517869,
            0.397671537042695,
            -0.3589167369298877,
            -0.554542285388245,
            0.7130303148520042,
            -0.22296377991984223,
            0.9342095108246863,
            -0.6253669768698792,
            -0.6869814329784948,
            0.6416913436151611,
            -0.7041093074549937,
            0.7122276769776089,
            0.10031505886305733,
            0.9885650833635513,
            -0.24583047194336394,
            0.4259760321166948,
            0.7915043266896683,
            0.7145125697922765,
            0.8222305454712068,
            0.6759052149941693,
            0.9508264541635081,
            -0.7602159055047356,
            -0.9947232917055561,
            0.9380054452011932,
            0.7696912166452529,
            -0.4301893253901828,
            -0.485710128412032,
            0.13850211933540682,
            -0.30995398493433035,
            0.08633890699452837,
            -0.3949946931763161,
            -0.08546658421925465,
            -0.1404149389787101,
            -0.1809745405251077,
            0.14141864368046475,
            0.27450384869412725,
            -0.6607209993478255,
            0.9191902935412269,
            0.9581112701428885,
            0.8454433227343692,
            -0.6700265893228318,
            0.9839897580073599,
            -0.15663117535830795,
            -0.7628123592523434,
            -0.5867063648051355,
            0.8608139029724169,
            0.8842021565686842,
            -0.5726299786006466,
            0.24068285127906244,
            -0.5218721766846866,
            -0.12009269131790785,
            0.7820140991387047,
            0.518139957094726,
            -0.3088067054423044,
            -0.3056139120509418,
            -0.296156740060215,
            0.40849602436142607,
            0.13244503321709986,
            -0.6155908266567353,
            -0.7945294030630486,
            -0.10451391732210752,
            -0.901452786331388,
            -0.1168200935631257,
            -0.3321680308973999,
            0.9588014717459498,
            0.12045802654806086,
            0.14632507452179944,
            0.1591853969203487,
            0.3225215917062795,
            0.5327409104078231,
            -0.9265621801283159,
            -0.12097614921419005,
            -0.5680422908887075,
            0.18475174123083485,
            -0.47019199017826835,
            0.3340077124803115,
            0.8631561780803856,
            -0.9657338800748674,
            -0.3391721176428371,
            0.7978273978335803,
            0.032872522557602264,
            -0.9083854382063665,
            -0.36310715153848855,
            -0.42069370346601376,
            -0.7596977958880311,
            -0.7608985430668216,
            -0.014762595122993187,
            -0.11783552333154257,
            0.5880509246101625,
            -0.4029325465257899,
            0.36148046428943437,
            0.17616047019686765,
            -0.09961178187765293,
            -0.3369904485860211,
            -0.9259718224446933,
            -0.39933891586094844,
            -0.7012892744967952,
            0.25003214509666605,
            -0.008218141580597074,
            0.19677544177121423,
            -0.5624605362243428,
            -0.6175969675505415,
            -0.43269173919192,
            0.6128055216826707,
            0.7661910719240573,
            -0.9572780989304656,
            -0.5549112129194237,
            0.89512979526123,
            0.9475309873852811,
            -0.524955698498032,
            -0.1388582166111061,
            -0.35630829941168035,
            0.19263285107041705,
            0.22806221740887733,
            -0.6166549942988762,
            -0.48757208944970293,
            -0.8837098004404792,
            -0.6501941520700504,
            0.43726881930394257,
            -0.08457672407244496,
            -0.9524974638621895,
            0.6102716004939415,
            0.09649389807414031,
            -0.846848546613799,
            0.9092645610704166,
            0.7414614461865228,
            0.7241511972179557,
            -0.030909511505956767,
            -0.5365442739312622,
            -0.5445713238993514,
            -0.7651118648786049,
            -0.019476521312123542,
            -0.834220316846222,
            -0.7333749156889945,
            0.8631539872746821,
            -0.6567921948840619,
            -0.13460203419029054,
            -0.5163211886994638,
            -0.22243203254632754,
            0.25115231575742514,
            -0.45113450107359104,
            -0.4490805589275428,
            0.8141983744356344,
            -0.677631651258388,
            0.8906488198233656,
            0.06884241086347476,
            0.22413236226929129,
            0.8597514571908816,
            -0.865317039950605,
            -0.8823152056987578,
            -0.920893468397619,
            -0.9038065350434595,
            0.4829134272808542,
            0.6641823889216606,
            0.14615168175510243,
            -0.38575202268548875,
            -0.006437456543580145,
            0.9130339860675093,
            0.7885594004600919,
            -0.7301561204148715,
            -0.4993224421484792,
            -0.2665136916048804,
            -0.5143229479003328,
            0.2419176148604673,
            -0.6170820951688264,
            -0.7023498106067539,
            0.9352464877377058,
            0.5097240076146973,
            0.8113104307091995,
            0.5316345528874635,
            -0.4439519092448228,
            0.3587168872108272,
            -0.06260482596986655,
            -0.39624395141663815,
            -0.9037232317149418,
            0.8707442301875329,
            0.009458367459197882,
            -0.4092150040359539,
            0.01448500340058961,
            0.8692238935158954,
            0.2827492836676325,
            0.7960587047125308,
            -0.584665581194151,
            -0.132215957931918,
            -0.7943106299037872,
            0.6084525047547017,
            -0.9380433286751659,
            -0.6489809970100502,
            0.2907413638631285,
            -0.7607607385811609,
            -0.6094213087337306,
            0.37596846989726057,
            -0.19586154803021455,
            0.6859414714225208,
            0.901564783960088,
            -0.17535691323762886,
            0.8638446191728406,
            -0.4336837989960615,
            -0.8350974687597293,
            0.9232188109329998,
            -0.11212124828247522,
            -0.7230492379655233,
            -0.10415461652712657,
            0.5596717250889037,
            0.1671158803445973,
            -0.0346883777579771,
            -0.10653033150492845,
            0.6273940409686412,
            0.43857170927238226,
            -0.5910835546291109,
            0.1822501897256056,
            -0.4163498431600653,
            0.518443291657792,
            -0.6663059939308483,
            0.90668152643702,
            0.5145167064331031,
            0.12626097505134062,
            0.605346408997543,
            -0.03753950395709346,
            0.18834890497508888,
            0.8220958028673329,
            0.8618813252264564,
            0.2144627295026743,
            -0.5482511508067635,
            -0.22111873053752612,
            0.6358795755892059,
            0.49457321497714396,
            -0.008780147551306173,
            0.7066468154300447,
            -0.0004358601803907852,
            0.806910636752663,
            -0.37733399433954873,
            0.686653003805155,
            0.6496693813229131,
            0.4849061986716805,
            0.5657898382412007,
            -0.48144591280003357,
            0.2941678003002377,
            0.05261869209432156,
            -0.26521211733086025,
            -0.02788073380409098,
            -0.6441542106185987,
            -0.17543554682342452,
            0.36917669278763104,
            -0.7837892864022041,
            -0.14891145506325745,
            -0.7255308502611253,
            0.022948016711406612,
            -0.035982204625179225,
            0.7774777922526831,
            -0.22534269170279597,
            -0.029745175804541956,
            0.8555958844783825,
            -0.9437211437414527,
            -0.2447322067183839,
            -0.7053801182397424,
            -0.08258820465758208,
            -0.8230841827805259,
            -0.821422174115178,
            -0.6032377672028467,
            0.7534000892736417,
            -0.9234125790608575,
            -0.4694944982349314,
            -0.5388077255647156,
            0.9718116783034428,
            0.8246173946436233,
            0.9704589783923625,
            -0.6740876632972925,
            0.841204994663509,
            0.8252317302057663,
            -0.7988638147902943,
            0.4243151957662073,
            -0.34620385273560655,
            0.4470464182087109,
            -0.0702680649896673,
            0.6837795363082163,
            -0.0401291348792798,
            0.4420254497687199,
            -0.10760870748858098,
            0.9232121168371192,
            -0.7571036361114023,
            0.5536665222882219,
            -0.5063765403696321,
            -0.7212745462726247,
            0.5096718656647736,
            0.04304174905548217,
            0.045143588361417866,
            -0.9593787131107515,
            0.7950612954498085,
            -0.2419359317808807,
            0.8087923839131309,
            -0.7139347075094546,
            -0.6921823995106117,
            -0.7664845180216208,
            -0.047529803240874524,
            0.7795183450079568,
            0.8519655726892849,
            -0.7280434059646488,
            0.523571557142216,
            -0.7799449221598677,
            -0.8037415430767783,
            -0.23321055318380174,
            -0.9762143403821774,
            0.8372905590736388,
            0.2304539244306222,
            0.3040910853481441,
            -0.5221492677248298,
            0.2069145135003067,
            -0.8187139167213293,
            0.3808831811719625,
            -0.7029630324069025,
            0.6848509528189307,
            0.44547085253355984,
            -0.566737459237621,
            -0.8628567118069516,
            -0.8365566737517424,
            -0.623233335319753,
            0.22532100836475447,
            -0.9080184835608972,
            0.5825723138552434,
            0.06733048431204981,
            -0.5878838252449906,
            -0.8567488128328099,
            0.7689158059543425,
            -0.8657623841753982,
            -0.3143725505946494,
            0.7604502088423039,
            0.5545106684201715,
            0.1452980107093637,
            -0.36260430495333257,
            0.7491184903623397,
            0.2991068852084073,
            -0.8527533303916346,
            0.4514974794676551,
            -0.41670617331660215,
            0.6018632232470936,
            -0.5370516938456927,
            0.8220893596805015,
            0.43364590692602245,
            0.47759457394961935,
            0.20708700249577602,
            -0.1412606284508926,
            -0.5211158835258006,
            -0.4301726665505968,
            -0.031765825878431415,
            -0.5354857870056847,
            -0.3077792662525179,
            0.5063763968615995,
            0.05275575097724755,
            0.4171152820259735,
            -0.8494665586649407,
            -0.23253999602694253,
            0.17331232380834619,
            0.032147302163454794,
            -0.44473781771983206,
            -0.5042008974545125,
            -0.8632883769496291,
            0.24111746188322605,
            0.1371728280562322,
            -0.2911911828049069,
            0.5699899892650635,
            0.7835058791023252,
            -0.5047348558104858,
            -0.05391017415336441,
            -0.8507493440184162,
            -0.4511936600767447,
            0.9714553460482391,
            -0.22181553428759565,
            -0.8569959727953304,
            0.7680704104507411,
            -0.005453904820653115,
            0.058797244212817866,
            0.6178558681900804,
            0.7678505834103578,
            0.5027481976165482,
            0.6088704378721929,
            -0.32729224362523923,
            -0.33281091761634957,
            0.33889234338664626,
            0.8506770009142582,
            -0.7676487721149394,
            -0.4835498051423252,
            -1.0291515144209635,
            0.5772395583602885,
            -1.072823636756063,
            -0.07473511499907651,
            -0.8612114089289813,
            -0.2799049247175118,
            -0.1975263865645527,
            0.8722969369599458,
            0.09959211919958579,
            0.5275707100072335,
            -0.9072600612393242,
            -0.42010964502849146,
            0.3888873861735897,
            -0.38844465505523795,
            0.3336822776584508,
            -0.30361324840683346,
            -0.08922472021486552,
            0.2888861942804003,
            -0.9437206154652583,
            0.6293222430948358,
            -0.22416264324959892,
            -0.8745715830629671,
            0.6225945811399555,
            0.7934871620329843,
            -0.9234669870803645,
            -0.21206535737412593,
            -0.5908673629194362,
            0.2011050978751179,
            -0.868148831598926,
            -0.6812769162741015,
            -0.8506962193438242,
            0.09179523901884572,
            -0.1864003250213732,
            0.7305687375289092,
            -0.5920893832889114,
            -0.6073512036248887,
            0.6410711077810858,
            0.9073850461019417,
            0.6301745194183122,
            -0.7835090023477405,
            -0.3081910433024247,
            -0.29717556650293836,
            -0.09427967004654159,
            -0.4491164169315832,
            0.2624013707681885,
            -0.6021941110405468,
            0.39603080767625615,
            0.40840309694472177,
            0.8688795208660492,
            -0.7398314734806274,
            0.650827871892687,
            -0.8981012384087368,
            -0.16451222180895164,
            -0.2743201913987793,
            -0.7386746569148214,
            -0.7648341318838088,
            -0.6531831145376793,
            -1.162537746601366,
            -0.31424560479026403,
            -0.9770239222360196,
            -0.3773552642093648,
            -0.42185053453725635,
            -0.6182002821956606,
            -0.031184754608530353,
            0.7437484986712172,
            0.7331802666878677,
            0.11203014492710557,
            0.3577016388805736,
            -0.3462766367590403,
            -0.951720370229967,
            0.408271038947212,
            -0.2747105233233038,
            -0.6697668925154622,
            -0.04434176931914814,
            0.5440898625559492,
            0.009205508380206314,
            0.6546996155210466,
            0.6350506000649798,
            0.8233492292910122,
            0.7757486221658209,
            -0.5861579508899178,
            -0.3736742522802359,
            0.23893333842928588,
            0.7548441475727331,
            -0.2870732411528212,
            0.2590085584812475,
            -0.1777806254772264,
            -0.3011323644707572,
            -0.7947681544438724,
            0.7796955664973235,
            0.3897467369917209,
            0.6107380040176246,
            -0.40693180168367493,
            0.39662243591967067,
            0.25417211262344924,
            -0.2379499511459743,
            0.36246678388794973,
            -0.9365732500650343,
            0.9017240769319903,
            -0.9600943506438923,
            -0.6545724385413855,
            -0.44351814621615837,
            0.8039710037287727,
            -0.9515357136739765,
            -0.3648929514517373,
            -0.9325413402407964,
            0.5329895033009024,
            -0.4248274880823075,
            -0.6420424249206236,
            0.7651396751472619,
            -0.5517025719147799,
            0.31451385356510275,
            -0.6149152252506744,
            0.34998385792141434,
            -0.9677529545230497,
            0.27884994849538186,
            0.09093345344564206,
            0.10875278215206026,
            0.5056782394319019,
            0.5893066097959826,
            -0.3880508843188331,
            0.8054513994412643,
            0.694244068387988,
            0.16334155097542835,
            0.4550475436338734,
            0.5614535322988672,
            0.36034302531422496,
            0.3498030902819663,
            0.5820765545611767,
            0.6634380182311598,
            -0.34613925896906783,
            0.8545392360031501,
            0.24516903418877029,
            -0.7296072777183032,
            -0.12113790789373419,
            0.43936602246170126,
            -0.9123728713051068,
            -0.0930988159325353,
            0.005931983581119299,
            0.7128109513867654,
            -0.5768802816776086,
            -0.2046658469986129,
            -0.7504611921004519,
            -0.7438966773932245,
            0.3050746122084769,
            0.1801522006523441,
            0.14977006075546465,
            0.01702451935118285,
            -0.49865049226610164,
            -0.542862902585821,
            -0.25075642383561975,
            -0.33028499923178734,
            -0.5348611141833794,
            -0.6851318525594674,
            0.17765045925790937,
            0.68200745154352,
            0.47831383939220384,
            0.34280237254323653,
            -0.47689438268955925,
            -0.8626139072517688,
            -0.4021548150253053,
            -0.6708763924825143,
            -0.8477910602298077,
            -0.8977731889576394,
            0.3703707281979759,
            0.2663776268390065,
            0.7435281452757708,
            -0.7322950005633556,
            0.9043523719325957,
            0.9053673934153997,
            -0.59109223908224,
            -0.9780355475369105,
            0.44084098392754767,
            0.4079564174892956,
            -0.027833850862608814,
            -0.8621862496116516,
            -0.5363489106844417,
            -0.2500210207660857,
            0.6976012630990261,
            -0.7877846021351277,
            0.34168971208603977,
            0.7639178713807758,
            -0.20006089129422122,
            0.0011873130594559883,
            -0.898872534833811,
            0.7383261714493886,
            -0.04436018809899837,
            -0.37034442088909564,
            -0.6210634772516505,
            0.20779449453143298,
            -0.48345456196002035,
            0.16698152494170326,
            0.905192111510683,
            0.9567480462209197,
            0.3880750974640115,
            -0.1480455719094878,
            -0.40940829471978696,
            -0.5978179921833575,
            -0.6579575941787245,
            0.11326576022619686,
            -0.7308815843353571,
            -0.32174567734095216,
            -0.04356918261139032,
            0.2621804195001486,
            0.5059697364140964,
            0.5073415926303149,
            0.4812029869175183,
            0.15212003988892936,
            -0.7424843535684909,
            0.975789380569451,
            0.9104058841382298,
            0.25249119925395086,
            0.9942291738816408,
            -0.4772338919788779,
            0.6924736094100532,
            -0.1670746470229745,
            0.02796240758233529,
            -0.7951936506356299,
            0.5012109075679538,
            0.7651137420882254,
            0.9693595361190299,
            -0.45302982039701806,
            1.0197633098714383,
            0.694288906714312,
            0.8514630313742017,
            0.910498240802319,
            -0.5369617136012577,
            0.8177753607821313,
            0.06946127680810527,
            -0.05822044412078158,
            -0.06781247894504613,
            0.9656298806827421,
            0.46287832301366494,
            -0.3621336984167397,
            -0.27071276314225606,
            -0.5948893547020689,
            -0.2794655917146072,
            0.8220501968702582,
            -0.7053028839997741,
            0.1586323148196787,
            0.46830859081593645,
            -0.09150814481471467,
            -0.8567527526908076,
            -0.06533432168963688,
            0.5573100651233142,
            -0.2350986384343633,
            -0.851503404583061,
            0.4587670778961159,
            0.5017513679981193,
            -0.2908743016674608,
            -0.3025588504396069,
            -0.46741214283093024,
            0.2604000805893334,
            0.03330364349867555,
            0.08561843773911154,
            0.20396763826612957,
            -0.07137200605641673,
            -0.3360000705297988,
            -0.6912778229907663,
            -0.4267458999255878,
            0.326154662705569,
            0.35209981371359766,
            0.4973534303756624,
            -0.027586145073058704,
            -0.9490156464584252,
            -0.40774515794082966,
            -0.14847167749761897,
            0.18416604578735757,
            -0.3268106354890675,
            0.4943572275663497,
            0.786828183723389,
            -0.4487075496546546,
            -0.5443787876299744,
            0.051656839801946665,
            0.25194620147946845,
            0.23182554743207484,
            -0.14827060322739447,
            -0.08590527892599267,
            0.40464521906580997,
            0.023673268533936774,
            0.6383693589121674,
            -0.7092572290724669,
            0.1722465180406719,
            0.08468324415571563,
            0.12652508413687488,
            -0.6535777550623489,
            0.5544029037687985,
            -0.17224624967029598,
            0.23195616872402067,
