{
   "layers": [
      784,
      50,
      50,
      10
   ],
   "activation_type": "Sigmoid",
   "0": {
      "type": "Dense",
      "weights_size": 784,
      "biases_size": 50,
      "weights": [
         [
            -0.6821824323159924,
            0.01221452463139633,
            -0.6654116767979361,
            -0.5910005633101376,
            0.2180817731074167,
            0.7015310442251612,
            -0.8409711928881043,
            -0.07680405517988116,
            -0.801696940499609,
            -0.02403387408862415,
            -0.5731337467109425,
            0.7495985286219937,
            -0.6254687941861978,
            -0.9004738752422696,
            -0.3798455379679117,
            0.4653078395592603,
            0.22652589726831127,
            0.12853336214014913,
            0.018054730108425364,
            0.8753945130470284,
            0.1686280219928509,
            0.4145773234638844,
            0.4015816373216901,
            0.1481842943533855,
            0.46463123651617916,
            0.7738852782023065,
            -0.818979649006508,
            -0.3344011120346497,
            -0.1605353270157113,
            0.7782143823581642,
            -0.870689718163044,
            0.8548827655904125,
            0.7471707812167008,
            -0.9423350308932121,
            -0.4165327598889837,
            -0.5034676109552386,
            0.8491734684142176,
            -0.7815524037327457,
            -0.7054212701028315,
            0.8203948607627561,
            -0.04302039036271613,
            -0.6137462423519902,
            -0.7480039588381452,
            0.45637630539699364,
            -0.8702006884554739,
            0.5008102906443237,
            0.4577469635441537,
            -0.4671213142472688,
            -0.8674038696933799,
            0.10124830528016422,
            0.015121783608126407,
            -0.07881891944260559,
            0.2432319382845494,
            -0.5226017139969517,
            0.10314683288163666,
            0.19359089309001185,
            0.8119270268612915,
            0.8588499511944918,
            -0.5793950056993685,
            -0.019379471002521912,
            0.25535038585612624,
            0.25356661796192176,
            0.36792060687448475,
            0.8605704109228318,
            0.22408386724797247,
            0.17571584279502567,
            -0.06464953863279076,
            -0.8979064645075984,
            -0.3016930822326377,
            -0.78517902618546,
            0.03598162610020173,
            -0.517171253178835,
            -0.8540654986942225,
            -0.13681187436590087,
            0.1324342442409096,
            0.7279702239503419,
            -0.03599124325655327,
            -0.5527679691966654,
            -0.41705443622470567,
            -0.008135675390381368,
            0.5842225723776017,
            -0.7489446217084832,
            0.6669303544923986,
            -0.6951940714319158,
            0.9871452803628913,
            0.1546373533560493,
            0.17805232708370883,
            -0.05651885859137998,
            -0.445410389515794,
            0.14234945596452378,
            0.9369860817358914,
            0.12333859108896397,
            0.44699781156871693,
            0.6719412901519611,
            0.7624766214497689,
            -0.5641740703329082,
            0.3447269263819152,
            0.6682022562926548,
            -0.074795670654298,
            0.32680435297763394,
            0.601098901886796,
            1.0379358719095788,
            -0.0005934923139208616,
            -0.8049258161444782,
            -0.6216298903519465,
            -0.7443940738652154,
            0.945481100977216,
            0.4529815203910747,
            -0.4543082247028861,
            1.0033756353202832,
            0.5435793127370574,
            -0.777977376488356,
            0.9692850185870079,
            -0.9448934029362694,
            0.2590596362484454,
            -0.6493409726404009,
            -0.18171497907484666,
            -0.8440787852224924,
            -0.030270009843162582,
            -0.6992756599949739,
            -0.6947787597251049,
            0.7719706013354322,
            0.6226495206275804,
            0.9535164990569307,
            -0.6629422424452734,
            0.5179209917756594,
            -0.7682520856679257,
            -0.22373021858208028,
            0.4114522942604303,
            -0.1975919780036123,
            0.9796740829928999,
            0.6017482696018123,
            -0.45951257361625963,
            0.08318138762337636,
            -0.22607192430251777,
            0.8062759291151308,
            0.4143376661657722,
            0.28866446414029173,
            0.997368585268923,
            -0.1608494328120658,
            -0.13133907626300698,
            -0.49086382442213133,
            0.21822369241737719,
            0.5532651374271765,
            -0.5008397280989635,
            0.5353715974354698,
            0.43668108512263654,
            -0.1478606508196747,
            -0.21917054734214347,
            -0.35293092876737087,
            -0.7077013297127207,
            0.3100732608585625,
            -0.5583775724463442,
            0.8152775943074646,
            -0.9865622312384669,
            0.5894554038397251,
            -0.6623964795731172,
            0.9191022970260018,
            -0.3236765032614968,
            1.0045250766966647,
            0.24300280600063182,
            0.039577087433973965,
            0.9974379804866652,
            -0.15549999238941017,
            -0.3937739471431413,
            0.04548805298087207,
            -0.11157975031874179,
            -0.1318313161713047,
            0.8044337408124114,
            -0.8958594866652712,
            -0.6433689465331357,
            0.8467918263525802,
            0.9621226125607679,
            -0.8670453524527721,
            -0.041054498583443295,
            -0.20426048537716338,
            -0.12334691988806275,
            0.49368056290876805,
            0.32037808742615753,
            -0.17887675025714145,
            0.4112508448940363,
            0.43897941040372657,
            -0.8751893506886915,
            0.5843444470111225,
            -0.2410435295014589,
            -0.6305355028084638,
            -0.8445072312119164,
            -0.7171797457633976,
            -0.9073073436671696,
            -0.1989011871335581,
            0.6959764838544868,
            -0.17072085180860308,
            0.7865119950247234,
            0.6041033616025688,
            0.01904975054752141,
            -0.5265696494057912,
            0.06058651084338294,
            -0.07685426460693207,
            -0.6234055813327372,
            0.009766321607975813,
            -0.9236650203846827,
            0.1579042161205326,
            -0.14626680714038867,
            -0.8291244027291605,
            0.08061513490414783,
            0.5212303396286012,
            0.566098879767727,
            0.4571319119902818,
            0.7206123118091929,
            -0.9790181489249122,
            0.29490988489170555,
            0.7890391828922475,
            -0.544096554758355,
            0.8600816580506508,
            0.6334807847091077,
            0.16984928282701256,
            0.6867699588185244,
            0.4787052771031365,
            0.2739795036116477,
            0.338786907915486,
            -0.31958281313145265,
            -0.8195042413781395,
            -0.3310277133729139,
            0.9507432054245583,
            -0.30622240473449974,
            0.5769183634122586,
            0.533846203729446,
            0.30813301791979614,
            -0.8016869010413139,
            0.5731451850064676,
            0.7756658938652464,
            0.6604788421757153,
            0.1250648702562546,
            0.6640080797494973,
            -0.24745351401289575,
            0.4257312511094509,
            0.5002051711918751,
            -0.720722824355452,
            -0.5521590744419342,
            0.6969814649656613,
            -0.4627576544177435,
            -0.9742405495821833,
            0.7171072971056695,
            0.4688320795799981,
            0.1522459869543926,
            0.10068299186416546,
            1.002817286382154,
            0.5147274295743437,
            -0.6302632757876563,
            -0.5032160852979018,
            0.6258733475492927,
            0.11288825928041572,
            0.45978017375916064,
            0.103606606308752,
            -0.5837315783780677,
            -0.3281346033941631,
            -0.18746891905764154,
            0.009946137248759515,
            -0.9714507398532352,
            0.24024346790908407,
            -0.9768807427006371,
            -0.936427336996966,
            -1.0191662757418105,
            0.18397402591178644,
            -0.20356232338296576,
            0.46449782748135066,
            -0.25141330777571735,
            -0.1296445041874895,
            0.7162201817177812,
            0.16284163387533118,
            0.17291387205359157,
            0.7657495278917126,
            0.41541370304857267,
            -0.6974462637617906,
            -0.06981188051557473,
            -0.04674968069737697,
            -0.6751944216082615,
            0.5187459215836124,
            -0.782859915572596,
            1.008192072637693,
            0.07992570410934467,
            0.3098016062271599,
            0.7638397721817876,
            0.5940768011836416,
            -0.4168835080661801,
            -0.7187618808862292,
            0.6783591192733871,
            -0.5520228677003977,
            -0.6190230480918378,
            0.08975971712459961,
            -0.5814821990749749,
            -0.1651274815404948,
            0.2885790205225607,
            0.39892361682075944,
            -0.23874918351033766,
            0.8637292196998639,
            -1.0521456535181977,
            -0.6493739873141027,
            -0.5958211700803553,
            -0.6691414892964408,
            -0.08859888841049643,
            -0.7083284942668348,
            -0.5846749970448433,
            0.9705975397430588,
            -0.09915053744331685,
            -0.26224699789495765,
            0.7634351781875658,
            0.08937459990096346,
            0.5309204143423978,
            -0.3828281224726148,
            -0.3437966581389829,
            -0.6442081419844773,
            0.43705181816201455,
            -0.4789128533159125,
            -0.8056756702967053,
            0.45459460086685327,
            0.7396533419202057,
            -0.2663640127621933,
            0.6764330647254929,
            0.8254614354792992,
            1.0393741996951753,
            0.25960901245016815,
            -0.9387711213316615,
            -0.8048872628958246,
            0.2139419071937265,
            0.3841687154259552,
            -0.2187640701355262,
            -0.8976812263552241,
            -0.2512363288432175,
            0.1711518795511312,
            0.13360510773577272,
            0.37669844409698316,
            0.8561756967529729,
            0.27954698691538327,
            0.4074857933879906,
            0.42264426547545714,
            -0.9002812800223217,
            -0.4143822403811401,
            0.8182644953431003,
            -0.9206036164387453,
            -0.3030574909673025,
            0.23322159138141288,
            -0.49392541313863286,
            -0.3059614951194142,
            1.05988922958245,
            -0.26635253763394323,
            -0.1659243185806926,
            0.3758134184340256,
            0.13611844560917552,
            -0.8084389815023522,
            0.5956362194055538,
            0.4139428636021039,
            0.2675597973983735,
            0.3242494750054065,
            -1.0390398289789298,
            0.5668878779580216,
            0.9378198149378731,
            -0.558176593599214,
            -0.2834932558559328,
            0.7944783208654908,
            0.5170626112427761,
            -0.1295454944198093,
            0.21537075379269827,
            0.7411847181381057,
            -0.7026269879697309,
            0.034541768562109075,
            -0.947006688279341,
            -0.0706992658203765,
            -0.20249027739995745,
            -0.3104486383674997,
            -0.543203749554269,
            0.38235256500942094,
            -0.6467745290919478,
            -0.09550566717339073,
            1.0392160534808055,
            0.2964129354026177,
            0.9839826875850577,
            -0.1089547722487687,
            -0.8695039291334091,
            -1.0079075496902918,
            -0.7987324556943015,
            -0.40774089394010293,
            -0.5608763614289133,
            -0.8515228846538792,
            0.002494447904949486,
            0.37778253968509484,
            0.9478112522899923,
            -0.2307244424669643,
            0.6891181209594709,
            0.4886627047574696,
            0.7924341176481878,
            0.8046665486332423,
            0.789010240037106,
            -0.03944935702252464,
            -0.9169030379935224,
            -0.04318177737938533,
            -0.7896101767136181,
            0.3740362977809507,
            0.602931476281953,
            0.8151066855040342,
            0.07097001829128051,
            1.1888307172027672,
            0.596033443905286,
            0.875446636478723,
            -0.3011577322887271,
            -0.5880810775842673,
            -0.24081644464127405,
            0.830422549627015,
            0.3349923449058926,
            -0.15225763342038168,
            0.6053573315429688,
            -0.4378497787449434,
            0.25298322617314956,
            0.6201402175442452,
            0.03996409972551044,
            -0.6575684051390691,
            -0.56782765989885,
            -0.04505259364080942,
            -0.15788070009595886,
            0.08810543761658522,
            0.09704753633628561,
            -0.7492840398957241,
            -0.3154372711145837,
            -0.789612651779039,
            0.5587584410001102,
            0.647164731158673,
            0.9092977752350211,
            -0.12140936125257606,
            0.2308944884192904,
            -0.2353188490425016,
            0.8605628262178355,
            -0.5426907041970856,
            -0.8162486676182901,
            -0.46950567456980097,
            -0.629428274767919,
            -0.5878450130381119,
            -0.06923733208065522,
            -0.04179699114542388,
            -0.5303119623014271,
            -0.5972651742061005,
            0.4125389108507535,
            0.04910097438461432,
            0.26502007641880293,
            0.13601523865036144,
            0.555563368968726,
            -0.31243297922038243,
            -0.6078902426142644,
            0.07055696921824632,
            -0.8814675728579151,
            0.7262426846339194,
            -0.5359312428686225,
            -0.9082957189644665,
            0.7953697819760707,
            0.9915367994076945,
            0.3200359975474858,
            -0.36470616317174137,
            -0.31122207788063005,
            0.8675166867746746,
            0.4594349016682423,
            -0.17437853266179537,
            -0.8827699909628924,
            -0.3327918083194722,
            -0.4542864526387577,
            -0.7207111643104528,
            -0.282556902229102,
            0.3374843693032734,
            0.8827674418341499,
            0.70498922532047,
            0.7717904363667908,
            1.1430120288726695,
            0.4309092772226236,
            -0.4041509352547651,
            -0.6873612355495411,
            -0.901722023057728,
            0.8169589270303829,
            -0.4016114169748211,
            -0.8039424894052392,
            -0.5624706482916035,
            -0.1417372347121045,
            -0.8531279068414037,
            0.17384935819263672,
            0.41699512645375175,
            -0.7389596310515375,
            -0.3127023743433235,
            0.8973422130646851,
            0.1357165489644417,
            -1.1766357403879393,
            0.24757241810263772,
            -0.2146320186453487,
            -1.0138341005713651,
            0.26084189006412667,
            -0.7185319274366821,
            -0.09443208670464456,
            -0.8637934025976408,
            -0.19468484073660058,
            0.7466313349468966,
            -0.08460571111243592,
            0.1814991152092866,
            -0.4350839488385671,
            -0.10945530105192444,
            0.4064054351328154,
            0.5371457821446673,
            -0.3724959908828235,
            0.009762982926760162,
            0.29944015339895574,
            0.9585744686332662,
            0.4247972365943743,
            -0.6538483645420436,
            -0.17224527231445994,
            0.9055641372478005,
            -0.23154319546997643,
            -0.57497339583311,
            -0.8277573049439721,
            -0.09118416435028856,
            -1.0866674098804001,
            -0.6132365707544674,
            -0.5281363113752879,
            0.7413473236960797,
            -0.8750734606588422,
            -0.5106932209620092,
            0.3571709841739127,
            0.8730472625462216,
            0.004612393192711797,
            0.38691197411790385,
            0.7715949664191144,
            0.9212009803264137,
            0.7893846267593698,
            0.617849476982207,
            -0.3153710275734791,
            0.31101928097777637,
            0.5116803359605274,
            0.13626532401644376,
            -0.9549654327472274,
            -0.9092152418929407,
            -0.24226166444673736,
            -0.6117407799772442,
            0.5066398063789838,
            0.8958471521144501,
            0.46216454187889805,
            0.04214607775558463,
            -0.33173239599458015,
            -0.3901575918719687,
            0.3307632616920662,
            -0.5590032462436888,
            -0.2256934292743708,
            0.050067353143345435,
            0.1958922663247475,
            1.0439513658124233,
            1.0777987128961415,
            0.08461489068028222,
            -0.20559190995978438,
            0.23215190232050886,
            -0.8146990994732336,
            0.85581776746411,
            -0.4900073426451754,
            0.5263824939776123,
            -0.09226654185204337,
            -0.7318883168797824,
            0.04634033927792812,
            0.041034663420157984,
            0.392021353962206,
            0.3978018574470788,
            -0.15203985257000197,
            -0.5270218044168145,
            -0.6372038588718812,
            -0.1888546836085371,
            0.007164312651481557,
            0.32444398099918226,
            -1.0128747493209542,
            -0.37007373085618955,
            0.62487065471282,
            -0.39595974647550636,
            0.7705716001070869,
            0.30507898998433036,
            -0.10715303817531528,
            0.9429353390411681,
            0.6331164126177989,
            -0.4985659197371349,
            0.7198746824803913,
            0.13689287722541327,
            -0.22763509592638573,
            -0.5259401222519215,
            -0.8162426832588033,
            -0.6522531729434428,
            -0.7981686280718812,
            -0.7529008355191488,
            -0.5656484292618045,
            0.6097045652956252,
            0.9047762056312596,
            -0.5255263745963668,
            0.6167360610527243,
            0.7809741575409813,
            0.9024501109841832,
            0.32115930969936557,
            -0.5454210303865843,
            -0.12652624601557638,
            0.14659499053934494,
            -0.9902119825534533,
            0.21953776017629006,
            -0.14854020954872532,
            -0.9248196944935688,
            0.8240141402307708,
            0.3211825246413215,
            -0.7632509947783588,
            0.35349461155638234,
            0.28271996761876367,
            0.8193418385487938,
            0.5686819460902804,
            -0.016112464434816363,
            -0.8890064275255749,
            -0.06541047221591573,
            0.9402893100073785,
            -0.3881924793300427,
            0.8268031105531156,
            0.9968147509483472,
            -0.6793550529048713,
            -0.485461690575871,
            -0.760087796178792,
            0.705794793224637,
            0.48010237811647577,
            0.32297384589069955,
            0.46294927106086237,
            -0.6858107215601965,
            0.01318550140837584,
            -0.838679098566992,
            -0.06030562271699953,
            0.5927436768301373,
            0.8171842446812806,
            0.010751478543107432,
            0.8869279661550462,
            -0.4240438996504712,
            -0.5154027116167176,
            -0.1614991801814699,
            0.7656291946437069,
            0.12206338579783926,
            -0.7685027295891281,
            0.4687474359288699,
            0.17507644465903394,
            -0.16531538297428824,
            0.35390547411705225,
            -0.5721839355899893,
            0.11874190267322249,
            -0.8194136854784719,
            -0.30213294817571973,
            -0.652428754400163,
            -0.8279176007908118,
            -0.04715711936788178,
            0.6298145548521165,
            0.24974293128877612,
            0.6183510065222482,
            -0.8047393215235651,
            0.850227591873817,
            0.6126343430880294,
            0.9859905566914338,
            -0.06440256415175663,
            0.6340344967225285,
            -0.10931298104254035,
            -0.8557809037186311,
            0.053816615650755455,
            -0.8860257287157195,
            -0.1752835431825297,
            0.14922018543970086,
            -0.719150044492779,
            0.9013006117019317,
            0.7204834470160011,
            -0.5199221028612203,
            -0.541829617997838,
            -0.12882657848999915,
            0.8313116275169935,
            0.5924684446649116,
            -0.007934404985371804,
            0.8205787140516432,
            -0.049709908764981076,
            -0.21185149723634092,
            0.7813257135129924,
            -0.43621967964888225,
            0.980863524313619,
            0.14512048147892873,
            0.803445242099068,
            0.8254536846802507,
            -0.1348096449893564,
            0.3542752754257198,
            0.21359373164373796,
            -0.3707659280966092,
            0.17890888064392185,
            -0.5703286468337758,
            -0.5544117999186653,
            -0.407511883076266,
            0.788801409094193,
            0.5831036677982934,
            0.9611090691768096,
            0.5412460873118361,
            -0.9014739006893797,
            -0.11090500540158141,
            -0.05550765635633913,
            1.011044480649261,
            -0.5288441179807106,
            -0.7061199175764741,
            -0.8780041990775103,
            -0.8255665509671741,
            -0.28387583519768506,
            0.2678839739334998,
            -0.7240307675303909,
            0.8166785043883682,
            0.7803144181532428,
            0.1024837110094916,
            -0.6393945134240384,
            -0.5976326138991982,
            -0.6083292698932137,
            0.41998510791551596,
            -0.6834764776174328,
            0.41487933212175404,
            0.8508341511174583,
            -0.4098458474226682,
            -0.8340701151606624,
            -0.24031694044620494,
            -0.9977540587345795,
            0.7027230663339462,
            0.338160629624966,
            -0.4451316733283258,
            -0.13496961494178308,
            0.09823971824492718,
            -0.3733847150111956,
            -0.5388789781964041,
            0.225813747761709,
            0.9341397808295131,
            -0.3605816277900024,
            -0.46528351572167465,
            0.5405589693997022,
            -0.8332966020290302,
            -0.08990035130133665,
            0.38073569405414126,
            -0.3546147435626951,
            -0.4724199885973522,
            0.31113659987673054,
            -0.18277453385832923,
            1.00426235759118,
            0.9862728784141055,
            0.19703367660898166,
            0.9609178798006363,
            0.9613062364154443,
            0.8802549427798133,
            -0.2554629299045567,
            -0.09299774302115774,
            -0.3799937884516918,
            0.09968928724828503,
            0.8043681233709707,
            0.8742227295623987,
            0.6808759929651921,
            0.7612504754593488,
            0.7949114086260626,
            0.12193807810360174,
            -0.26683670083880884,
            -0.9589809497040445,
            0.5243455110140653,
            -0.9260809121174483,
            -0.16853257891996745,
            0.7747031522545156,
            0.7913951986768979,
            -0.2048366896670433,
            -0.3296943332357909,
            -0.3059864249440569,
            -0.5792761333783117,
            -0.011998425966362993,
            -0.5310179257133869,
            0.2396242797382305,
            0.731949552514939,
            -0.05206748926220458,
            0.8432666912880062,
            0.2208581516408174,
            0.16030010343384404,
            -0.7250690987823253,
            -0.014542060190901467,
            -0.8260585827119392,
            0.459819892716714,
            -0.6931521776823898,
            0.14925961186888895,
            0.6092999199433863,
            -0.5695425877770038,
            0.14392508738068324,
            -0.07055902087916623,
            -0.07812358317868946,
            -0.12632488439191678,
            -0.26590778637783047
         ],
         [
            0.4225902185015999,
            -0.23262154409602362,
            -0.302217446783102,
            0.6883674023326914,
            -0.18520186456680424,
            -0.31244577189894035,
            0.24193251492362963,
            0.4282803188540915,
            0.10277700332831767,
            -0.5001334763843287,
            -0.027664752554060517,
            -0.7467455407814884,
            -0.3319317723221275,
            -0.37853650800887034,
            0.13896775444279222,
            0.5746248996541677,
            -0.8857217551645139,
            -0.8971348160795424,
            -0.09919631359640192,
            0.8533164508240295,
            0.5946383803076732,
            -1.081985979065068,
            0.6942100041818465,
            -0.415135893232678,
            -0.15339280214111065,
            -0.23177607270934417,
            -0.12145886852402651,
            0.2930795180581019,
            -0.4139031810509985,
            -1.0161240411445531,
            0.1887450055503004,
            0.6677397398483577,
            0.4074529270184895,
            -0.2516696011617987,
            -0.8343298164770839,
            -0.11166059888363693,
            0.26426113806294976,
            0.8619365290896474,
            -1.0346363802246248,
            0.7350540209546966,
            0.7123112708607057,
            -0.8891974462186439,
            0.04896899452873702,
            0.26980049939849265,
            0.3440244980699763,
            -1.05241322168184,
            -0.9077685955420368,
            0.14899999238777667,
            -0.24252054999864073,
            -0.008625885492401203,
            0.7388490402645974,
            -0.12096871745924906,
            -0.4986960171078839,
            0.09418551272481461,
            0.21411234849498187,
            -0.13018815025337754,
            -0.6781290313175893,
            -1.0543383491511564,
            -0.8387957486072785,
            0.48023326796755844,
            -0.8866135973403683,
            -0.09934277689883135,
            0.2670714071662918,
            -0.10528880628189788,
            -0.08629333685179633,
            0.7350224538616807,
            -0.7558250038567758,
            0.3125501172276291,
            0.8819493434252669,
            -0.601252563205935,
            -0.5444875678942537,
            0.684356258386324,
            -0.0982567940885262,
            0.03990175904793738,
            0.5032254969698735,
            -0.5829367160942898,
            0.8327705607624696,
            0.6371852470222842,
            0.4233597802996725,
            0.4590179638290304,
            0.6131205312020802,
            -0.5434212888398174,
            -0.0259438099742066,
            -0.5762731410989738,
            0.05951962706912193,
            -0.9479166798821371,
            -0.3045876853579707,
            0.8723800824625819,
            0.2195042108563454,
            -0.5420679108402914,
            -0.889973968152128,
            0.3644045793777554,
            -0.22038023357654266,
            -0.028654168843448777,
            -0.6766125736070825,
            -0.5161158877781814,
            0.012556757357422545,
            -0.42108938992674966,
            -0.6996381972095563,
            -1.0329059996232022,
            0.1630401892427725,
            0.05373432477698927,
            0.29998598193177267,
            -0.40097386994734796,
            -0.5541771434276878,
            0.2309213803277297,
            0.15924511600132935,
            -0.8937453650267919,
            0.06139005887800485,
            0.02169624363399906,
            -0.41913621481550795,
            0.5011458705926912,
            -0.7924083756969348,
            -0.8530476681048248,
            -0.17195050341366672,
            0.40120035912589086,
            -0.5594830406475442,
            -0.8973174087963595,
            -0.3206696715043025,
            -0.9544590966346155,
            -0.8554513114959748,
            0.8537130967885858,
            -1.060818262718933,
            -0.35418720249251995,
            0.8188626110787669,
            0.8158924300068504,
            -0.29096721569355677,
            0.8174566816718289,
            -0.7230235267476411,
            0.16391176015688996,
            0.49600760309597175,
            -0.28629319774233947,
            -0.2807308611599715,
            0.5246836950000155,
            -0.5476581831975829,
            -0.8208681339844529,
            -0.4760422245963518,
            -0.07094385329326028,
            0.7605703155639222,
            -0.2917596725170974,
            0.22674981314148576,
            0.8419990776922869,
            -0.23210842912901972,
            0.41114910202490024,
            -0.2468611129977663,
            0.6331952153782135,
            0.7315163210043863,
            -0.8178379410286857,
            0.7459726447846367,
            0.3521757540091543,
            0.458728244949054,
            -0.7518980836330607,
            0.6628687074793854,
            0.7367085452877054,
            0.4707858045978208,
            -0.9329544322416483,
            0.27458469792212037,
            -0.9608224487537459,
            0.07982841473514582,
            -0.37161656564698314,
            -0.4226475304784946,
            -0.20036525635054048,
            -0.5900703871314199,
            -0.4891912804184503,
            -0.31241927421675575,
            -0.8780679115910794,
            -0.7289770829596882,
            -1.0302778131828199,
            -0.8527448973152637,
            -0.6171521213062204,
            0.5909419688083891,
            0.13343122168718133,
            0.6044864521287875,
            0.3844655816626745,
            0.35220427298225676,
            0.5066618362358293,
            0.3169644080108797,
            0.8744046676716494,
            0.6103430757352443,
            0.5737597640849309,
            -0.31962918367971305,
            -0.7980401140212585,
            -0.7706178641876059,
            -0.7020774709690044,
            0.07292808939657605,
            -0.35264762323575,
            0.04600454549688558,
            -0.1887312449774322,
            -0.3454492471244312,
            0.8177726608592488,
            -0.7630515806370317,
            0.4286116669458376,
            0.19047043317278506,
            -0.759857949170953,
            -0.49961506469691414,
            -0.15965560815965565,
            -0.33926541864224197,
            0.8279002172481896,
            -0.33893611906160753,
            0.3574930296546341,
            0.5364687601142525,
            0.6997103932723351,
            -0.363301391064529,
            -0.8688541286439107,
            0.31915136155136026,
            -0.9860710427209358,
            0.20074645215921294,
            0.860558340868062,
            -0.1254683954207465,
            -0.8893582771802866,
            0.5326153906414474,
            0.4576282636756631,
            -0.018033546380731708,
            0.6076806988150052,
            0.8416077685736217,
            0.6197689442426344,
            0.3675682699075096,
            -0.6579873829580286,
            -0.41025644872301836,
            -0.582746922382488,
            0.7701659754350823,
            -0.7120114171617067,
            -0.46578855397410823,
            0.6831585574223009,
            0.19351796153988096,
            -0.9397710921679132,
            -0.9804453735452684,
            -0.8639477453197034,
            0.7914856118362167,
            -0.4209372944079298,
            0.5723372604894249,
            -0.576280540891417,
            0.927630428659771,
            0.2701860222415776,
            0.6754910034260877,
            0.7895795760564299,
            0.6278456991170064,
            0.5034805826537253,
            -0.7972543036446817,
            1.0744781774734515,
            -0.04737737705639466,
            0.7997567453063232,
            0.027320771345532603,
            0.44683498275640426,
            -0.08480994353415436,
            0.355287658592486,
            0.6006841756590188,
            -0.6370300990657735,
            0.03833751774890897,
            -0.0019758301265630097,
            -0.6897403704712037,
            0.3283759241744288,
            0.7659095060232072,
            0.4009982306207515,
            -1.0425752218298847,
            0.3398095094376729,
            -0.5877199211518088,
            0.13483503989913131,
            0.4449540853005088,
            -0.9387139636475282,
            0.36705748266869653,
            0.7232368117049937,
            0.3410197078460247,
            -0.057443265735035984,
            0.37153106404441527,
            0.017413291319660955,
            -0.36244105340799476,
            0.17252429196588856,
            -0.8437088362098767,
            0.8716366253022898,
            0.3380512880049639,
            0.8136414269207787,
            -0.136168555588299,
            0.8652789824819668,
            0.7007674585049338,
            -0.5770066218395369,
            -1.0560170614748585,
            0.10439537797964965,
            -1.0328023602042902,
            0.7386324970492063,
            -0.21221592793671715,
            0.73788874115779,
            -0.31285559915373473,
            -7.291577745791847e-05,
            -0.43226173561807407,
            0.7767800888329772,
            -0.9654342837350219,
            0.21577851894588276,
            -0.5997059938580235,
            0.6094862772149775,
            0.7707841050961323,
            -0.8046789346536913,
            -0.19035469449038314,
            0.5679409870329604,
            -0.30080180473784535,
            0.24753370929864282,
            -0.5809431649391829,
            0.27014518843978236,
            0.5145605903245001,
            0.31341912960543133,
            0.8290725531061164,
            0.2697027516293646,
            0.7079229421430238,
            0.8430906106836039,
            0.5749274541333668,
            0.7254233787725487,
            -0.1928674494504523,
            -0.29989650189663414,
            -0.8400879994893516,
            0.1380929935068774,
            -0.8732708546597548,
            -0.22817609931423963,
            0.20217236693465895,
            0.05023490872737405,
            -0.8978617769403607,
            -0.181826630994124,
            -0.1034247004172881,
            -0.7748362631972403,
            -0.7554094007872469,
            0.041264884425432975,
            0.4207891416088869,
            -0.3735258094165968,
            0.7657860107969227,
            -0.22467546861598997,
            0.1182495004179591,
            -0.7025748397672966,
            0.07740255644733543,
            -0.7775586123901415,
            -0.7808699777315905,
            -0.10307462082646981,
            0.2845191578045963,
            0.8948885745424018,
            -0.4279679856814193,
            0.40626714560590516,
            -0.742638770989522,
            -0.6807852286058574,
            -0.15271892031917503,
            -1.036196365624648,
            -0.8009422372518881,
            0.24882470941516902,
            -0.1751844633926063,
            0.41593453022337307,
            0.22305567982220734,
            0.24841106612704056,
            0.7407346248416056,
            -0.012403379401400934,
            -0.9619051563032739,
            -0.5164614393397539,
            -0.7711394133779458,
            -0.6828171645688392,
            -0.2961143270330826,
            -0.6847413011204732,
            -0.8927610386043096,
            0.40133159670447455,
            -0.7074585649933083,
            0.2651347845587633,
            -0.9148940618347283,
            0.8409236260066314,
            0.3650011837693383,
            -0.25227320956529514,
            -0.02429381639324929,
            -0.5241004869681161,
            0.11643960449182153,
            -0.18740868869096647,
            0.12474581144455825,
            0.5069264064547284,
            -0.07065065081503182,
            0.20880815352466672,
            0.01301357583557712,
            -0.7569653454090124,
            0.6620683514815253,
            -0.7261381062943858,
            0.29758063509272625,
            0.12161450595604317,
            0.20781904764607748,
            0.3102587959674408,
            0.7505793073724588,
            -0.06701018567893328,
            -0.25219288334083323,
            -1.2137722282172063,
            -0.6327922738582378,
            -0.03395593235091269,
            -0.9270413680922271,
            0.7776520295052045,
            0.9023071125877751,
            0.8959836626017227,
            0.2423564165797034,
            -0.6301675962124892,
            -0.2916644750201576,
            0.8981804644938718,
            0.3752424312076757,
            0.21236524445232322,
            -0.3815636872623908,
            0.018554903635996548,
            0.31954868680198334,
            0.5129758915863523,
            0.36048940244708577,
            0.6471816258893568,
            -0.9947322706861967,
            0.34657965329911317,
            -0.7316932719894227,
            -0.642865558794199,
            -0.34700721087367775,
            0.5627224795646888,
            -1.0795562243761134,
            -0.5355494402624377,
            0.4554712729320425,
            0.6126449416268893,
            0.8476114960181823,
            0.5223458156203958,
            -0.6000744193953692,
            -0.6406734238754092,
            0.38533322702585043,
            -0.4711466781339611,
            0.5298249854329043,
            -0.608710205228541,
            -0.5122239058217062,
            -0.9537394545196394,
            0.5862180525790726,
            0.09719155631860467,
            0.6642369173635617,
            -0.6849211258381579,
            -0.6985501925032948,
            0.8137414274163682,
            -0.18675663821079339,
            0.7972310923541585,
            -1.0290073503182338,
            0.3355756888583778,
            0.7017982777842718,
            0.8614088862988286,
            0.15531031598333456,
            -0.895576667843215,
            -0.2499271415010908,
            -0.5021678228733931,
            -0.2355347536756012,
            -0.3411831700794429,
            -0.5711118889861434,
            0.8938709679856195,
            0.6799011299138235,
            -0.9039593642544569,
            -1.0159564402234562,
            0.07039026342978547,
            -0.4658635393474666,
            0.7257196923964261,
            -0.440033902884566,
            -0.21912159063842054,
            0.4848289725987399,
            -0.26835970662725334,
            -0.3353691945436234,
            -1.0346537259231103,
            0.8259215752265906,
            0.4935464355115225,
            -0.8729319164286554,
            0.5855227639522248,
            -0.06919786452514591,
            -0.4969250035470452,
            -0.2969233113360659,
            0.8796497546800591,
            -0.5122933699904991,
            0.0016523236245072315,
            -0.6922987763851504,
            0.5647131711899228,
            -0.8122393132275447,
            -0.9592241696362134,
            -0.27709105355212515,
            -0.4361840360010345,
            0.5252003816104012,
            0.1309357129827061,
            0.45848668093068784,
            -0.03559558708721895,
            0.18445934816760612,
            0.414363411452251,
            0.4729670586039869,
            -0.7965825535584453,
            0.6594045365232224,
            0.2604170469052261,
            -0.3578619081931553,
            -0.20503501515527525,
            0.2901901683507904,
            -0.9998894176556803,
            0.6322343664147747,
            -0.5143564552054595,
            -0.8366189296195907,
            0.08727685352196492,
            0.47822267303170196,
            0.34507571859513486,
            -0.8704039604370298,
            0.8525660983602859,
            -0.029094153859139903,
            -0.7033981927311386,
            0.7866186616468461,
            -0.9493844018869565,
            -0.051631486271315336,
            0.49019455302248727,
            0.17345125736638886,
            -0.307315133962859,
            -0.7081909670071098,
            0.4475158676955982,
            0.2585058915256237,
            0.26864063578305114,
            0.605930430044853,
            0.5659121974663007,
            -0.298238670507398,
            -0.27102605309650973,
            0.4916779465644951,
            -0.775128625787724,
            0.38311021230000514,
            -0.42757956653170986,
            -0.3117907179875148,
            -0.8582689211903078,
            -0.7602125899282778,
            -0.9475312043326023,
            0.7674670963234645,
            0.5193851708723219,
            -0.45428087638674597,
            -0.37118744761828076,
            0.40450293437530943,
            -0.5338086053680404,
            -0.4021045768494622,
            0.8016120228780608,
            -0.2931648219330397,
            0.3126594515433418,
            -0.47716469140437007,
            -0.07186031234422759,
            -1.070058097867907,
            0.012583762620938622,
            0.5762563655254966,
            0.7992093204785568,
            -0.7875516900292385,
            -0.19524533062478294,
            -0.5161418114605653,
            -0.4478931408986556,
            -0.4404500359239368,
            -0.4443346715106739,
            -0.325848204728773,
            0.646662718493754,
            0.42047949859163775,
            -0.3233832590357005,
            -0.7345328600110279,
            -0.148589093540641,
            0.46936144052256096,
            0.4843989003935575,
            0.765462800501045,
            -0.5613463453004213,
            -0.2936021931969858,
            0.8791329531942199,
            0.19397868911534388,
            -0.0734974459474927,
            0.9200531124748774,
            0.3034997266633527,
            -0.24362053426343633,
            0.7779756554824674,
            -0.1612225703442895,
            -0.290455752421121,
            -0.25650065987035603,
            0.06688938577840112,
            0.878148157988976,
            -0.029142925054577166,
            -0.13395429696424563,
            0.888437652755513,
            -0.21868795358764034,
            -0.3525986878793453,
            0.1440424649317195,
            -1.0743150833869823,
            -0.2263463292432172,
            0.3047623207468387,
            -0.650540065698214,
            -0.42632871716765564,
            -0.7946510937103944,
            -0.9571991648271829,
            -1.0272379413144452,
            0.28464580201515155,
            -0.2639219489857393,
            -0.8387541888061548,
            -0.19829898737171606,
            0.6557654157317092,
            -0.315158302419937,
            -0.7414773706430695,
            -1.0347341288045564,
            -1.0408742804328148,
            -0.6792011912000827,
            0.3824004445496435,
            -0.10810385659157193,
            0.04790427066535139,
            -0.6944090872672526,
            -0.4915133527828282,
            -0.13606404362598581,
            0.7729417370424617,
            -1.0332177582800939,
            0.3449576523271031,
            -0.30708564057622617,
            0.7268129590191151,
            -0.05146039314555089,
            -0.5831724311860185,
            0.6409525103143295,
            0.14210091801652341,
            -0.030112664399787815,
            -0.3098049025591539,
            0.570240679441198,
            -0.15315566839189007,
            0.07065390004227734,
            0.5046848207223192,
            -0.24624496641136065,
            0.21558342393574387,
            0.15441147269356612,
            0.6545077723444731,
            -0.8946822387726062,
            0.022754020004062573,
            -0.9260303876983262,
            0.16067785957369254,
            -1.0104261976303672,
            -0.1284123599077442,
            -0.6984693509681247,
            -0.4510401987391939,
            -0.6838486803656385,
            -0.859880620675008,
            -0.9517133259876934,
            0.02063724886140555,
            -0.5698548790374195,
            0.18398928394088407,
            -0.5276372399336289,
            -1.0052842048830049,
            0.13777758997350703,
            0.7233100053316199,
            0.5834446295072482,
            0.6329778874184403,
            -0.8250852909033876,
            0.8721485606279471,
            0.6477926028209683,
            0.8175851011683968,
            -0.8303051105416994,
            0.5714058017913957,
            -0.25478093948807146,
            -0.632932608818053,
            -0.08629650394376735,
            -0.2520316722614483,
            -0.13819720031117977,
            0.7727082605940436,
            0.7058004477653338,
            0.5476608709464276,
            -0.8493115549407535,
            0.8177888786562707,
            0.6579443851718897,
            -0.2623982412969605,
            -0.45066553714291707,
            0.5429479041272086,
            -0.1042524040711912,
            -0.8640959164108686,
            -0.7858183786925236,
            -1.074549260736791,
            0.2182700767085233,
            0.7467298842513049,
            0.46021501566566114,
            -0.5731488124272515,
            0.8710322237755743,
            0.09428310290959238,
            -0.5760053295181885,
            0.0749964384132026,
            0.8983733480831171,
            -0.5570621413039893,
            -0.00661062258835202,
            -0.8424129034722299,
            0.09740090423115394,
            -0.4973699348943862,
            0.024423895531567274,
            0.538798810482461,
            0.4928319732570301,
            0.6837949794083242,
            -1.0762303015073447,
            -0.8892937729542897,
            -1.0572209953158667,
            -1.02956303587493,
            -0.8047882262381857,
            0.3321315545834059,
            -0.6043915107677026,
            0.6734126823414301,
            0.004896794759687071,
            0.37641260975744584,
            -0.7731607513893893,
            -0.053020196902565146,
            0.8991614515430137,
            0.5120082944777758,
            -0.9770980815783413,
            -0.004218140652571215,
            -0.38759250975180853,
            0.28631810441760175,
            -0.3291893782736272,
            0.5458472854295568,
            -0.9672457516520583,
            0.167177655359272,
            -0.6824374443539654,
            0.7112227600813057,
            0.1909745342076107,
            -0.9537565709281489,
            -0.35934012801130905,
            -0.7177012442086914,
            -1.0517551003626273,
            0.4754952845198582,
            -0.4428293083608586,
            -0.9701608337932383,
            -0.022348831956707203,
            0.37505442091500646,
            -0.9456825246495447,
            -0.9053871410087958,
            -0.31985379725240476,
            -0.9916769512223264,
            -0.005022351635149663,
            -0.1906023045763678,
            0.9176816405163455,
            0.6622457080620139,
            0.8751988096592319,
            0.3687395545657867,
            -0.19258984234918505,
            -1.0255649067138435,
            0.221361268556724,
            0.171356636947912,
            -0.1254683753331663,
            -0.9925078286657621,
            0.7387483860107582,
            -0.4795444716587924,
            -0.7530817865461621,
            0.41648652769188255,
            -0.875597923172399,
            -0.27413302209333457,
            -0.16173667047692,
            0.8355194972296592,
            -0.056628844161660884,
            -0.07395903384871079,
            -0.6349878376747528,
            0.03319033113608509,
            0.656281523620354,
            -0.49255393651575435,
            0.14865697005175646,
            -0.4707318430991862,
            0.30911976545754766,
            0.7790417759881763,
            0.45089295486014097,
            -0.5265837307983666,
            -1.0318281402550664,
            0.803307672537676,
            0.9082007314734328,
            -0.3852649096739978,
            0.8140696923793762,
            -0.5502750014429827,
            0.5520088704228137,
            -0.7369223914622918,
            -0.8678124540382659,
            -0.645727596944396,
            -0.5652001828114626,
            -0.5227296979336714,
            -0.23091469874497936,
            -1.001733381254395,
            0.330005591250421,
            -0.029851172064071427,
            0.5016990510380688,
            -0.919426422082141,
            -0.2620017941474943,
            -0.49179977251909995,
            -0.9678517395752343,
            0.1583235424568145,
            -1.0489017338290911,
            -0.8375679091278553,
            0.2019746731645273,
            0.2217189751410338,
            0.8933589452413723,
            0.3362070988231141,
            -0.15406777724176826,
            0.33328045118098387,
            -0.3528988027950673,
            0.4046093060536596,
            -0.8930067511342672,
            0.3157144582315132,
            -1.0923306403310193,
            0.652594225277708,
            -0.9628154669966764,
            -0.08653043747689217,
            0.4150504324178746,
            -0.7261424495874255,
            -0.2702952353715133,
            -0.8535479606458584,
            0.049757598532320486,
            -0.885014969417942,
            -0.7163544842784005,
            0.365903011330099
         ],
         [
            -0.7880358344721605,
            -0.2498786824103407,
            -0.09995037679470725,
            -0.8408019132032423,
            -0.0018943809505452664,
            -0.0760809730391018,
            -0.7612706156157125,
            0.5771896837742894,
            -0.2860051002240766,
            0.7230432216756151,
            0.8979713662234172,
            -0.07443543189062973,
            -0.655626113476274,
            0.28264646206831007,
            -0.25706580547499974,
            0.5979095698559109,
            0.2165783168173393,
            -0.4519331354430179,
            -0.6444383213542504,
            0.026696101643656163,
            0.7023518180694468,
            -0.206903455985478,
            -0.2492067893925529,
            -0.29533280337452744,
            0.2057266888029725,
            0.7172412324381463,
            -0.6835595388357454,
            0.5601641161046866,
            0.16322698877124153,
            0.7954603277850645,
            -0.2681228809756628,
            0.9284949951424057,
            -0.5758977633195173,
            -0.9740644657068525,
            -0.24707185468797274,
            -0.02176026235786544,
            -0.5510954930434425,
            -0.3078725453437487,
            -0.06324160822747113,
            -0.16515238557814158,
            -0.7003139790811375,
            0.4492286247163955,
            -0.6034361128617166,
            0.3077418567957116,
            0.8399404956170994,
            -0.991030345718983,
            -0.8810155572847937,
            0.31901763307951164,
            -1.0254408736501883,
            0.15017523326046017,
            0.5701780182939055,
            -0.17445457224227806,
            -0.6966535644713254,
            0.6059183295484332,
            -0.2799295126053682,
            -0.47124538181348635,
            -0.6146713482630077,
            -0.12387447016440106,
            -0.3588171085979645,
            -0.9916376738076492,
            0.6195959823879518,
            0.12068000204572193,
            -0.13960782685718814,
            0.06931979876001274,
            0.05398793383285642,
            0.5607238175121094,
            -0.16919050815011175,
            0.8063079933139575,
            0.2406004415229938,
            0.06690858184261961,
            0.7955718786816685,
            -0.04379810853755905,
            0.0436337372806259,
            0.44786915293642743,
            0.8250867924449629,
            0.6637195722935935,
            -0.29912809879288077,
            -0.2201947023865549,
            -0.4208024485753647,
            0.02881350672444928,
            -0.460730375274706,
            -0.8191826886240912,
            0.7713257577445007,
            -0.7461018564161037,
            0.0058927125496209265,
            0.5179275577866541,
            -0.7531459817045131,
            0.13071637589375154,
            -0.28437963274772965,
            0.6455114211869809,
            -0.5116808431229771,
            -0.20232013441092153,
            -0.9569487761403912,
            0.04260523775721272,
            0.6813279126739561,
            0.8572999692587792,
            -0.38063778806027326,
            -0.6998574012882091,
            -0.48865741905215665,
            0.3379630343627742,
            0.23532217503257727,
            0.660927282025196,
            -0.9535195426991658,
            0.9521800815387618,
            -0.18061558825926025,
            -0.9167027637152261,
            -0.6678084562833934,
            0.7768338956783455,
            0.8456735042218587,
            -0.21771132822906483,
            0.2059025076482296,
            -0.9609383219202325,
            -0.262475848798514,
            -0.8960134926338486,
            0.3589153168299983,
            0.26919401086857303,
            -0.9009431312030689,
            -0.6128316295502696,
            -0.22202545330458948,
            -0.46212671732630195,
            0.46350643938577735,
            -0.34191338979038804,
            -0.05963115328375121,
            -0.012755221635737326,
            0.6031694518277156,
            0.17060236075068294,
            0.010054492547163747,
            0.41177699574192034,
            0.3292354274492617,
            -0.6871885561103062,
            -0.9210263643523593,
            -0.9496170577393691,
            -0.32718479937729045,
            0.37818479544298134,
            0.39698125996408906,
            0.3766944373818758,
            0.7015166878063224,
            0.9602183923242847,
            -0.2863399014302523,
            0.11209702694212839,
            -0.29449886440956446,
            -0.1783190960319635,
            0.420018483671827,
            -0.353472697863982,
            0.05334719836324802,
            -0.983312670924701,
            0.245448396829451,
            -0.14911762661925307,
            0.8743848717745387,
            0.5681786974817509,
            -0.096723396126718,
            -0.1512378418469257,
            0.9054708678546358,
            0.9372420984804912,
            -0.38491221501573114,
            0.38203225080974695,
            -0.46366348445752165,
            0.2525185091050121,
            -0.30995873030797766,
            -0.40232011138474005,
            -0.811599973824045,
            0.8514322745246806,
            -0.4571247588797278,
            -0.9873007759071706,
            -0.3779624159922253,
            0.8103461086520722,
            -0.664405708495585,
            -0.33219343516220107,
            0.49492940703002636,
            -0.5745842397648813,
            0.9563787295954846,
            0.5147884910114119,
            0.9642874301435985,
            -0.30012855062946375,
            0.9358569354518212,
            0.15026870576477366,
            0.5696115156470802,
            -0.891824383797694,
            -0.8667368256250089,
            0.7824643920255808,
            0.5439909845882412,
            -0.04424299972339411,
            0.666776933411226,
            0.4096150487712823,
            -0.18763135325583657,
            0.5447895453273432,
            0.7787646824177722,
            0.12744952457177575,
            -0.8408338681075282,
            -0.7699728658866889,
            -0.10577331734272523,
            -1.0827587603341453,
            0.3185976769053389,
            0.2495406574478884,
            -0.30857580135613843,
            -0.2895714913565994,
            -0.5706048566484538,
            0.6442339103783226,
            -0.2784323311605757,
            -0.22573780448360584,
            0.29861441113636134,
            -0.5522601501035644,
            0.51338256238147,
            0.33539951272606944,
            0.13540577098658535,
            0.1232971196647069,
            -0.29451910090581274,
            -0.6352954662885488,
            0.7572202711426587,
            -0.17988871605107418,
            0.41873178298466235,
            0.2183065567322795,
            0.5839329512482049,
            0.1800128698025084,
            0.4279888723100324,
            -0.7703706406305838,
            0.702680749785527,
            0.1395817065281896,
            -0.34402492802728174,
            -0.5946022887210259,
            -0.5092193813557196,
            -0.5721398183526354,
            0.7700981919818907,
            -0.773377621853892,
            -0.5171843705552339,
            0.9537188064444666,
            0.06632714970309106,
            -0.6983279430120389,
            0.6105427983928701,
            0.9466833025286377,
            -0.043004885280416426,
            0.6851579279831556,
            -0.2650400169611625,
            -0.1016882447445012,
            -0.9232480562346804,
            -0.5297205064319906,
            0.006944708444859471,
            -0.6688067965754404,
            -0.1688444949066563,
            0.7165002243152258,
            -0.16898338128839668,
            -0.5404890632896177,
            -0.012038742949096485,
            -0.7512698001877134,
            -0.2552057011018762,
            -0.5126692337194493,
            -0.042607935196226826,
            -0.04286253518566066,
            -0.4166374809882612,
            -0.3094523010977959,
            -0.6568666052905274,
            -0.08037512468216815,
            -0.4399748594787894,
            0.4547739903601155,
            -0.674271846637454,
            0.6185901800936504,
            0.7042381420239839,
            -0.9145295382766191,
            -0.29686283150173387,
            -0.7596636895971864,
            -0.7736226350340321,
            -1.0651204336503803,
            -0.509442152645151,
            -0.1827253046262023,
            -0.003402572678560623,
            -0.8514155897173845,
            0.691741889449407,
            -0.6244329878744801,
            0.6037383082122223,
            0.1515909062971862,
            0.8542531203459383,
            0.930675656188939,
            0.9351184937567691,
            -0.7070346106376355,
            0.10378885017573793,
            -0.053850616261239076,
            -0.503617518946184,
            -0.6319969395430416,
            0.10824660646597595,
            -0.21011635918767346,
            -0.28930686382436693,
            0.46258540155849287,
            0.16531417742057783,
            0.8966485551075444,
            -0.4856196911086477,
            0.6720776505429437,
            0.5169343515852509,
            -0.12763700131174824,
            -0.60572467130421,
            -0.2565516163424451,
            0.2893217352878132,
            0.28082133278618215,
            -0.21640348841108262,
            -0.9748526972524586,
            -0.37431897883048526,
            0.19093373328648802,
            -0.6800819459935036,
            -0.1015414077665614,
            -0.5379750443221908,
            -0.0027795509931001034,
            0.5246319112764846,
            0.2608534338804234,
            -0.8274107333385926,
            -0.16935568395874503,
            0.28379754564620574,
            -0.1042150532673447,
            -0.6711101374138054,
            -0.4372218492051924,
            0.20873993647780642,
            0.3665110273696665,
            0.26417883180240764,
            -0.5027001995306593,
            -0.24746482045521448,
            0.2792636977925003,
            0.8321381628158604,
            0.7900053044504483,
            0.7851389367691491,
            -0.6232955150742755,
            -0.6702463822341928,
            -0.014048980447572832,
            -0.06940897559877242,
            -0.8865609222006278,
            -0.005360369111800244,
            -0.07928212205544176,
            0.5456234015139437,
            0.5258879909257775,
            -0.1965548522964633,
            -0.5806297763891793,
            0.5155867695020232,
            -0.5983326351430538,
            -0.7241515960107711,
            -0.340505153932302,
            0.9412388496683877,
            -0.7217277175191809,
            0.7184086512848747,
            -0.1106747097994858,
            -1.02235471311711,
            -0.5636244540241143,
            -0.07296860362953705,
            0.084398547094642,
            -0.7219800156704224,
            0.8542090998753976,
            -0.30828925075693675,
            0.3452230700289261,
            0.8210534111557436,
            -0.10306746540271233,
            -0.4263250389744122,
            -0.10104034052647143,
            -0.1439870553710073,
            0.05309374046702874,
            0.781235512057519,
            1.149184646816134,
            -0.5362813137934598,
            -0.6928880681909841,
            0.8832331286372181,
            0.3002892253311474,
            -0.3859673707448037,
            0.5622388948718348,
            0.12566160492521958,
            0.6371128421010804,
            0.16680259300585532,
            0.6261296002249134,
            -0.8068534229842727,
            -0.06166889028553175,
            0.48486835055950434,
            -0.3871159577494259,
            -0.5418731923417122,
            -0.2902058587025495,
            -0.8868133734998505,
            0.8302141110126448,
            0.8956262949635582,
            -0.8798166698357249,
            0.8536472871068569,
            0.6853942898427635,
            -0.38056048101574014,
            -0.3384734642994848,
            -0.3425983468440149,
            -0.10932704899202568,
            0.8305907197972213,
            0.15358481009182612,
            0.11094761905155993,
            0.037586461106682775,
            0.8542773149726296,
            -0.4000544159631152,
            0.3195969220616123,
            -0.8995664360815919,
            -0.7424645976127741,
            0.5321264122472761,
            -0.6139581879297743,
            0.18787014075101838,
            -0.7550442092230005,
            -0.45878352508805015,
            -0.3918794670966946,
            0.09728386037623588,
            0.49149316168398954,
            0.11877213718564945,
            0.19927434880641115,
            0.37045936343436575,
            -0.03629882840655766,
            -0.601291243131895,
            -1.0298348909008317,
            0.583368262611171,
            -0.8517058209788595,
            -0.47967955167885507,
            -0.13366976519514723,
            0.352971032052316,
            0.354163756491712,
            0.48077884393417336,
            0.16949550149463014,
            0.6045225087236142,
            -0.2018734123110046,
            -0.03035654321496283,
            0.570133052299417,
            -0.651268190045698,
            -0.6521720132287911,
            -0.5997087950359205,
            0.10881316680171256,
            -0.46727131443298586,
            0.8580193001278141,
            0.53639985517802,
            -0.1760909766015884,
            -0.04652284439986536,
            -0.20524994029513202,
            0.5950893348990725,
            -0.636824221757079,
            -0.3087771668893322,
            -0.2960386569815922,
            -0.14132003240212354,
            0.1731014924444122,
            0.6033445277311894,
            0.5982427975334617,
            -0.07493227227139489,
            -0.4336236917002761,
            -0.22995711531230517,
            0.49749045696954647,
            -0.8408835047141414,
            -0.9282667286796847,
            -0.7807342774764919,
            -0.31446874367553185,
            0.1096060175681203,
            0.4318832560435474,
            0.8293815065518728,
            -0.43519509333376144,
            -0.03891184150830059,
            -0.7492048915872764,
            0.7454048398399917,
            -0.14531762524513755,
            0.30878511391210756,
            0.28565002846102655,
            -0.7040707860061519,
            0.5253492515934597,
            -0.7764078274332333,
            -0.09841356919718484,
            0.7419412210599976,
            0.5041340856407555,
            -0.3384265049838092,
            0.188569362418709,
            0.16713223408823283,
            0.13112469993656,
            0.28835841118781735,
            -0.6153239660466131,
            0.21038400875436503,
            0.7350494332910936,
            0.5127903548705698,
            0.09021235271635107,
            -0.30584426618630356,
            0.7584238634864973,
            -0.8324877242990179,
            -0.22076939919247884,
            0.6190572145457455,
            0.2800352984605463,
            0.4530708798644994,
            -0.16186306687801089,
            -0.021129898366183807,
            -0.8200496127818442,
            -0.9540857006619982,
            -0.544034616118686,
            0.1453843602643084,
            -0.061903529147753995,
            0.8461100764955555,
            -0.6719815398854423,
            -0.4002325550419345,
            0.3701687710249968,
            0.8370950558432498,
            0.4691222173553361,
            0.43164891451989784,
            0.14356764659648083,
            0.31311261695429904,
            0.46326605157706124,
            -0.5237839713021284,
            -0.3648759717997339,
            0.6695374236192241,
            0.5105927448896329,
            0.3771058378488129,
            -0.6582668389228495,
            -0.411868548858847,
            0.1082010835541268,
            -0.13534502683726388,
            -0.07891889453221858,
            -0.20875206048504907,
            0.5409939325599159,
            0.12159681148365893,
            0.33788516502317484,
            -0.69785467954094,
            0.12393634929553426,
            0.1225686145500714,
            0.3488913661115854,
            0.5345495096752347,
            0.629369622761278,
            -0.5960299833323727,
            -0.4449442880491565,
            0.6437465733181112,
            0.7920426544751358,
            -0.37775532838403403,
            -0.3878168471947171,
            0.8151717891787239,
            -0.3741911685142695,
            0.62834635336663,
            -0.5036638855365854,
            -0.38545342245297765,
            -1.0161313034447785,
            0.7098846963423051,
            -0.8271649793506526,
            0.5717626362844334,
            0.6179269333737448,
            -0.5003812893927893,
            -0.9223490829979704,
            0.5036295915923532,
            -0.36688840952687685,
            -0.623713509737327,
            0.603472085091318,
            -0.7864797062627221,
            -0.16157230549713614,
            -0.551803011319355,
            0.9430224507257472,
            -0.4320270108963493,
            -0.6417823153695068,
            -0.9929949416816695,
            -0.9231848280166448,
            -0.5721925066096579,
            0.8975809739345613,
            -0.6539241778548176,
            -0.5824061950041239,
            0.9637228310911939,
            -0.20190053640521594,
            0.6578939956942363,
            -0.9827990418648164,
            0.7144730970882821,
            0.6536760260045519,
            -0.29288114422786904,
            0.5040915690327203,
            -0.8784521399649229,
            0.3768237503859419,
            0.1921205444562386,
            -0.7749382387363992,
            -0.03689717729789293,
            -0.18220792863658708,
            -0.9449963406335115,
            0.7635626137782066,
            -0.043647828636277225,
            -0.8950508275805569,
            -0.6008102487147631,
            -0.7250675848745239,
            0.6945045754962652,
            0.6604727977461097,
            -0.007374235832830344,
            -0.5887285411927939,
            0.22692452867906301,
            -0.38140738389631007,
            -0.17967786181630094,
            -0.37130919719923344,
            0.4153007102566952,
            -0.5209951635277529,
            0.5408474597037638,
            0.19025022666100477,
            -0.6729028867298569,
            0.37770966288215474,
            -0.851680946501013,
            0.9334598564365982,
            0.37715880614448677,
            -0.47332038381170444,
            0.0016533084389181122,
            0.08771659393312095,
            0.9593548722582202,
            0.47025495101918685,
            -0.5708349596032383,
            0.6410608819924305,
            -0.2263341762432161,
            0.13032940945361263,
            0.6594384294808133,
            0.3316506154811664,
            0.3285170540068198,
            0.5123335944335197,
            0.4793451351672082,
            -0.2605741993921372,
            0.7360437350271495,
            0.6237895044447602,
            -0.13491489979846924,
            -0.04160240541109294,
            -0.8683674147602619,
            -0.026449203343471936,
            0.5092247070827722,
            -0.3260138967496598,
            -0.5467645776345668,
            0.3804240708216067,
            -1.0202945529115501,
            -0.7092559328131396,
            -0.617271223391939,
            0.9126234265549578,
            -0.38618966954045403,
            -0.6064533069679444,
            0.5535766434200171,
            0.5854987596583894,
            0.7952169252342496,
            0.45234785233349567,
            0.8940495101033793,
            0.8505933971434627,
            -0.23948685944788617,
            -0.04217592329752158,
            -0.6503518527527705,
            0.8858863615177955,
            0.07563808372219002,
            -0.22157554695536555,
            0.48324402491007223,
            0.2329450086763496,
            -0.9752809191300582,
            -0.3062678823798668,
            0.05486635166752016,
            -0.011437476372749323,
            0.07282822385802142,
            -0.15788628162532947,
            0.9178626114892532,
            -0.8333431275683223,
            0.7710049942920497,
            -0.6375945724551693,
            -0.8153612707413338,
            0.06061686984281207,
            -0.8902826758005773,
            -0.89475160752165,
            -0.8281860340613045,
            0.4936394757350966,
            0.8381035766406788,
            0.5019294977242942,
            -0.786613745702266,
            -0.1009915269567572,
            -0.6194564811989087,
            -0.9088367456938373,
            -0.8379115514900916,
            -0.2295564520990521,
            0.7261840843021806,
            -0.7357278006916472,
            0.03594580408773762,
            -0.20968235588167208,
            0.8661827959488656,
            0.5105488360916683,
            0.828910525118449,
            -1.0071249426895288,
            0.11394825678750982,
            0.45999101975565043,
            0.19234743086199027,
            0.4582613132272525,
            0.6690943601028257,
            -0.7891877180004735,
            0.9399064391609069,
            0.37670075366301015,
            -0.7403380060495942,
            -0.038322046094296444,
            -0.05311589093724328,
            0.06957759900806772,
            0.19027094993408994,
            0.41145584904337457,
            -1.0066704656039513,
            0.11279647720204433,
            -0.6606871535748375,
            -0.20170116998387444,
            -0.5481469323537159,
            -0.09588339621561501,
            -0.8696987168137043,
            0.7068066196353499,
            0.9060149949453373,
            0.5994497229900773,
            0.40407039091179414,
            0.6520087616976521,
            -0.7182317156421592,
            0.7475212415439251,
            -0.28891047235378614,
            0.645233882285286,
            -0.3701361937715815,
            0.4120882932762248,
            0.7160712002457444,
            0.42584369611504264,
            0.47829324096132003,
            -0.26247773949180947,
            -0.6475305026868715,
            0.2271887466588665,
            -0.5049560275876697,
            -0.21119679789942483,
            -0.6852703816250715,
            -0.03972979181465271,
            -0.8013541262691015,
            0.2642409885257962,
            -0.7054739304503614,
            -0.6726353046551534,
            0.45081061221977353,
            -0.6596204553011762,
            -0.7459995784145639,
            0.11926082212174804,
            -0.484527945320396,
            -0.3488827834169918,
            0.6647940252625787,
            0.5241161325391966,
            -0.7704637252314165,
            -0.8672080278999754,
            -0.4312712417732677,
            -0.47732066151674035,
            0.5571816712386533,
            0.31306117255244614,
            0.7434948814851595,
            -0.037558573293435135,
            -0.11270668674626044,
            -0.7468973041573793,
            0.12781028618626608,
            -0.46276005847243645,
            0.890823814797713,
            -0.10952299729310033,
            0.042069979748404054,
            0.8866982433448121,
            -0.7190328261665717,
            0.2976627009883874,
            0.7654585253056683,
            -0.11393163460447842,
            0.8015260204016887,
            0.4873095630412752,
            0.6553632911291731,
            -0.7784324203394731,
            0.686449233409819,
            0.5565373690290817,
            0.6570150133779655,
            -0.100500439634438,
            -0.058323711136930925,
            0.30347983211066687,
            -0.04559738948173437,
            0.19126181324907693,
            -0.277385883520575,
            0.6311577246985817,
            -0.5068920752925152,
            -0.3187142673090777,
            0.8314044229375727,
            0.5613413499369607,
            0.19693063655153945,
            -0.6485964740067399,
            -0.706602523516789,
            0.36002551015972045,
            0.008440327276576245,
            0.727927723051921,
            -0.7564738952829533,
            -0.618932161609711,
            -0.1806276406898505,
            -0.7761429604002021,
            -0.05138704787664185,
            -0.8683514646256579,
            -0.1558098363048609,
            0.39008541773369015,
            -0.8641012162767735,
            -0.5288946363877218,
            0.28724053276030187,
            0.2443717361324071,
            0.169593097034968,
            0.11952303560703137,
            0.30751529842278785,
            -0.8141403414519122,
            -0.043308622460990646,
            -0.3505262033877461,
            -0.6478834879965881,
            -0.8474140981246003,
            -0.6657758003034513,
            -0.616803274555667,
            0.5478599956186707,
            0.1551401309716035,
            -0.13218712986541514,
            0.18126658333522772,
            0.03128232971164541,
            0.1118699157210741,
            -0.6924588090433956
         ],
         [
            0.7503064177153533,
            0.13790743013010043,
            -0.07235230582805927,
            -0.24390485694661718,
            -0.8167309945631009,
            0.38059142244987776,
            -0.301256651143046,
            0.46472393658332145,
            0.5278994454175141,
            0.596811508578617,
            -0.7454642434335861,
            0.827203480464249,
            -0.053803648267863054,
            0.3439127482962654,
            -0.44418159185050254,
            -0.2788517175013133,
            0.12480798487679019,
            -0.79106313269215,
            0.5959014739884938,
            -0.3399330760084506,
            -0.9123882348984025,
            0.8500494065300745,
            0.5419966347633438,
            0.3095750610812208,
            -0.8380375048160749,
            0.4406896485322097,
            0.6420045475432707,
            -0.0858465866933201,
            0.03078114431366112,
            0.3100248421113557,
            0.6254052875938962,
            0.7954282785690299,
            -0.1691550869565906,
            -0.2834268322061295,
            0.8323130750189107,
            -0.41464957345296166,
            0.43072063779858744,
            -0.3838060904993979,
            -0.938448829095743,
            0.9312700196768191,
            -0.6491705418971196,
            -1.0176965959468154,
            0.8519880767607687,
            0.949610712853509,
            -0.26104061672191653,
            0.3082193774287139,
            0.41769426140140253,
            -0.7727412577914249,
            -0.7614468109142684,
            -0.49718041821984393,
            -0.8999498081649031,
            0.7040619933532821,
            0.7450153992673285,
            0.682130783322511,
            0.21648610070910856,
            -0.7035993756115735,
            -0.42731919553303144,
            -0.25190548382401867,
            -0.9384115226845657,
            -0.5821399825957687,
            -0.7512543816622832,
            -0.6081649728155167,
            -0.9595367264951564,
            -0.34738090490591184,
            -0.03781739251623887,
            -0.5501495874961956,
            -0.06492899969341934,
            -0.03651144957506963,
            0.9547462165921755,
            0.259964368099812,
            0.903379511976913,
            0.5627021117258625,
            0.2169008516306348,
            0.5118058253389158,
            -0.19349014711423212,
            -0.46050754466064037,
            0.40260732580367553,
            0.37777696393296606,
            -0.36783801178142367,
            -0.306726692059802,
            0.9372331840792218,
            -0.21128198158030836,
            0.8155687746374611,
            -0.1511864270107524,
            -0.9843079968025006,
            -0.21990485246224467,
            0.26848715163190645,
            -0.26836505356816565,
            0.6010554631214086,
            0.07419376800532529,
            0.7327663118687222,
            -0.0175849768567802,
            0.5447906615140464,
            0.25943223805802096,
            0.5056398715502917,
            0.5971115523053717,
            -0.5422642710860336,
            -0.7856540320683018,
            -0.969655889629172,
            -0.5011214560336803,
            0.39456164848786146,
            -0.6756374069172765,
            -0.8046313195673678,
            0.06999766066856872,
            -0.8863515641804202,
            0.10302937215083052,
            -0.6141220835682076,
            -0.9618153125172983,
            -0.3620659426066365,
            -0.5349478506198155,
            0.5494385505993347,
            0.09650127664179198,
            0.6816693650171806,
            -0.4696525956542773,
            -0.5269009819428687,
            -0.6856090180984251,
            -0.0023374376454801202,
            -0.743720894286628,
            -0.05538733423918888,
            -0.15165240645476297,
            0.5432166683644756,
            0.8914780048548939,
            -0.056984931821927196,
            -0.6300289396994315,
            -0.9889549135433222,
            -0.0455160192965033,
            0.40855559218041976,
            -0.8375798393843206,
            -0.7931978072837012,
            -0.6662519633938769,
            -0.6499834862064789,
            -0.4163725593622151,
            -0.5397273995695205,
            -0.5922591906429431,
            0.8814868237030251,
            -0.29459392407728013,
            0.10882322231546226,
            0.6594178348416371,
            0.5957230284143117,
            -0.7710439428551354,
            -0.819124985133548,
            -0.5316761802943888,
            0.7367571297894003,
            -0.8947577934537518,
            0.773565493286104,
            -0.4703115963061905,
            -0.020158515111184275,
            0.4066845569112363,
            -0.2777365349637937,
            -1.004148818900289,
            0.4150213892729971,
            -0.47884739125723425,
            0.23316305427067885,
            -0.042270130623060405,
            0.4801258859166601,
            -0.6775804648391387,
            -0.6638601174544164,
            0.6573447422864054,
            0.04067672078573794,
            0.18274289155533477,
            0.18817808099058675,
            0.5065624592234433,
            0.38112384355068607,
            -0.8517574841823372,
            -0.6765948805662481,
            0.8894496882408611,
            -0.39261296929381007,
            -0.6502516451845052,
            -0.8606508488761153,
            0.922161764435371,
            0.15324224536400283,
            -0.38639793642592857,
            0.5236688662104428,
            -0.9912913031681633,
            0.1701625487995727,
            0.8599649745215543,
            -0.11327480576304759,
            -0.9672224100398393,
            0.1371600446050241,
            -0.5439054869839896,
            -0.6836866476667607,
            -0.5902168705315283,
            0.7169327656926903,
            0.4273325683844369,
            0.14672641047937376,
            0.14899968615421608,
            0.5527554331231574,
            -0.1375410531299269,
            0.190458138774877,
            0.012666696350527112,
            0.6222656126354826,
            -0.3912082312421252,
            0.3587504640641476,
            0.3021669805150796,
            -0.5279683945904199,
            0.6412779294975628,
            -0.8672020767396793,
            -0.18890918429368703,
            0.7067608503633213,
            -0.6723418306465897,
            -0.4364866267310835,
            0.12746844807475982,
            -1.0583276116920766,
            0.8985870418117156,
            -0.5599994130476927,
            -0.2483845259806969,
            -0.5551099004592243,
            0.8848916607032351,
            -0.6083135884516109,
            0.5882966228403534,
            -0.47598343810234683,
            -0.2111785268017595,
            0.15378559109886952,
            0.7538674576030099,
            0.30950489009247584,
            0.6528352325148359,
            0.987435047846467,
            0.5914679392015433,
            0.4675640914783239,
            0.7742369825544099,
            -0.6392723352440705,
            -0.9997691422977851,
            0.4986701150491425,
            0.4976759730104012,
            0.6423883790959121,
            0.6336532026514288,
            -0.9606737250621733,
            0.32551180750836034,
            -0.36482901906637516,
            0.3891550077704887,
            -0.004139731845994328,
            0.9483674623858314,
            0.013969221894919623,
            0.34771439808481336,
            -0.035018972730110454,
            0.8837177343996422,
            0.6913654159953808,
            0.49432490847656196,
            0.14501453718257265,
            -0.7920414373237182,
            0.7924335715615196,
            0.38564621977915103,
            -0.35318666964183243,
            -0.6316881560877253,
            0.6315218141057526,
            -0.032726438369959886,
            0.7082274428157013,
            -0.05567778686187657,
            -0.23298164114049189,
            0.8389564367330189,
            -0.5943782244563752,
            0.9480466088854067,
            -0.5036941599033684,
            -0.7828709514923475,
            -0.6064066822276486,
            -0.5061732912619616,
            0.9228317191548825,
            -0.5154222547731471,
            0.7839025649044014,
            -0.6961217051828926,
            -0.743231392382324,
            0.7440519839245696,
            -0.1326091493200397,
            0.99511952564244,
            0.13131189961915707,
            -0.5749203913814712,
            0.4024078860085796,
            -0.08724537806668828,
            -0.5273411952097505,
            0.5935153616160883,
            -0.025481757060253858,
            -0.15915529846159232,
            0.9696580643095531,
            -0.8546729732906173,
            0.16681162641403688,
            0.3613512714446937,
            0.331219913751398,
            -0.2136024538937335,
            -0.36185448796699926,
            -0.20225322830900205,
            0.6828247385031945,
            -0.40697040032219,
            -0.41007611318882076,
            0.08598439043884551,
            0.8322401322642414,
            -0.30233414896735233,
            -0.14268216105849937,
            -0.3390244579043402,
            0.7901657340976218,
            0.714245645060482,
            -0.7137234550893988,
            0.7175153012193829,
            -0.8417214899261733,
            -0.463211407846505,
            -0.47531976324663683,
            0.33905075424039144,
            -0.7402880123343368,
            0.720215567446208,
            0.5930913131226386,
            0.9248969715151821,
            -0.9235088483399753,
            0.7973003099437288,
            0.8830202303909849,
            -0.1195811750191876,
            0.05250193366244096,
            -0.948126804047292,
            0.6746149388378868,
            0.35854160629899945,
            -1.0087995657368851,
            0.6956753231980665,
            -0.9840619302067078,
            -0.6113565072561195,
            -0.6864588111198127,
            0.46074527797260156,
            -0.3885545401653791,
            1.0167172891643959,
            0.2850158520026375,
            -0.03993017027970654,
            -0.5990907287775793,
            0.3988272563553999,
            1.0655736793388169,
            -0.8351754262338194,
            -0.24329135142992733,
            -0.767801419679745,
            -0.18828005780349985,
            0.20680671644619522,
            0.9399694790445146,
            -0.2858769269538627,
            0.43718997070808224,
            -0.3106486540037186,
            -0.42942839274473843,
            -0.0733788058969176,
            -0.388397337937714,
            -0.7284416283590814,
            -0.04360823799783547,
            0.04287809335271792,
            0.24463500720252865,
            0.04800114308141217,
            -0.6453616267310757,
            -0.6629962320005806,
            0.5877261847268681,
            0.054386968652567126,
            -0.2610886090491948,
            0.3922894888078828,
            0.9239527619183742,
            -0.6411143115938711,
            0.05736431167010869,
            0.5087274894874931,
            0.9790020926837321,
            0.21437121169239073,
            -0.13377412976549188,
            -0.8354281289910845,
            0.25100600017419794,
            -0.6139627540213816,
            -0.751903605553369,
            -0.3987751028102764,
            -0.45313781159611705,
            -0.22838108806524068,
            -0.6356771872325384,
            -0.8427247123342894,
            -0.6796104518110654,
            0.37551055383889675,
            0.3019337145093185,
            -0.47249015445423304,
            -0.6288816658827858,
            0.35851987687890796,
            0.84791651362497,
            0.20507573887256553,
            -0.08659154362699757,
            0.09697843635575046,
            -0.5366011705832034,
            0.2780267448120331,
            -0.5416220000551385,
            0.28463322054461865,
            -0.6877281210489611,
            0.9859835436471815,
            0.6849360613817627,
            -0.4154204588671829,
            -0.688123170262843,
            -0.73971943499877,
            0.44663300621875385,
            -0.08016033317159746,
            0.7233720844321133,
            0.9106671232034665,
            0.6153867949087607,
            -0.07869833793617514,
            -0.05868895538392818,
            0.9097538301394448,
            0.8455070919533513,
            0.7530622089053257,
            0.016801634214271326,
            0.1708419928895888,
            -0.42679111026394356,
            -0.6343344825043169,
            0.8517176327646884,
            0.35928371847357016,
            -0.20974191406088816,
            0.9518698489173496,
            0.8425741522330322,
            -0.3595359632229672,
            0.9173414033080668,
            0.5120068252032045,
            0.3467481689437361,
            0.21161959532796146,
            0.7247627248564564,
            -0.9316517775301654,
            -0.6215063197601869,
            -0.15483800125796515,
            -0.7641369762129422,
            -0.08123295392299092,
            -0.15452096891627745,
            0.18797889743253426,
            -0.662253775637196,
            0.5135947568913234,
            0.5111978730447263,
            -0.046444252631700246,
            0.3001528511620892,
            0.5525601082801793,
            0.5149550793998029,
            0.9540544591328095,
            0.6180355917077618,
            0.17473387813159086,
            -0.3533243836650094,
            0.28504838924565323,
            0.18475807493765656,
            0.9921001807271406,
            0.15957523765650716,
            -0.896685245869139,
            0.26780366632605235,
            -0.21226671112903076,
            -0.5953988247858536,
            -0.816875225208207,
            0.9137898761900763,
            0.4998239391695604,
            0.18876299330778873,
            0.18232400668138757,
            -0.6620086911948686,
            -0.2207215134066843,
            -0.819615716874322,
            0.6873375200674304,
            -0.6089843504947885,
            0.8525671737598949,
            -0.7199611281870378,
            -0.5641128776759814,
            -0.9308520461170295,
            0.09153927481814046,
            -0.5372610254663536,
            -0.056827694044417947,
            0.15629433601079606,
            0.15368999499566122,
            0.8668284997013332,
            -0.1798079709487235,
            0.5050685773999839,
            -0.5379552324958616,
            -0.014645039570948114,
            0.4762414137507622,
            -0.7749937949432188,
            -0.6272840944872603,
            0.5489228472414945,
            -0.3268263727497644,
            0.15108511199979444,
            -0.6375804168496294,
            -0.4431892153145813,
            -0.8301904077036583,
            0.9572424590336285,
            -0.9521755465031602,
            -0.1523271586434345,
            -0.07598215534731607,
            -0.8420380001373142,
            -0.5002999325498904,
            0.350138461949221,
            -0.05406013521011894,
            0.1367279465366506,
            -0.11149473470332757,
            -0.03288258082911683,
            -0.845192998240779,
            0.43139767672303153,
            -0.9860549061253043,
            0.7845931998341095,
            -0.8672672496261195,
            -0.2712845551897393,
            -0.6108577160515437,
            0.6268734957488313,
            0.8569988358952024,
            0.7317431937884139,
            0.15994222032324065,
            -0.055342469878094054,
            0.1253732661009284,
            -0.3930085549030406,
            -0.9639356599273669,
            -0.6630136496305581,
            0.4641248738773611,
            -0.8403450720944444,
            -0.6764857876810887,
            -0.03814063794185675,
            0.9105708772720491,
            0.3195721174412469,
            -0.17369657451326342,
            0.5898923743256715,
            0.5799730620502006,
            0.24382505683760253,
            0.4639271906193321,
            -0.46740996142262364,
            0.701668901675432,
            -0.701352368602083,
            -0.8498230965001294,
            0.8739828429011912,
            0.48688794119032364,
            -0.9923552586245945,
            0.09676531212085385,
            -0.39350535914155754,
            0.9211352410549082,
            0.5426814818131789,
            0.8984515236831455,
            -0.29381434901184106,
            -0.3141250972457508,
            -0.04694248817534103,
            0.5837718988271635,
            -0.8667355101685352,
            -0.3587763883055734,
            -0.9059249527281562,
            0.29245344189120825,
            0.2710406298829273,
            -0.16409203237261497,
            -0.4237597604572095,
            0.17281295269931765,
            -0.10487041339231157,
            -0.5009760372850317,
            0.4394524499194792,
            0.4734052151082052,
            -0.5412837997452133,
            -0.3441788800167574,
            -0.7738646323247185,
            -0.06390948731376495,
            -0.754270045312356,
            0.2646905556200328,
            -0.7816614939848505,
            0.30533333289964004,
            0.623830317833874,
            -0.07774616925298482,
            -0.11074325452520713,
            0.10689466875912618,
            -0.0019864663286223586,
            0.595743303269886,
            0.7326596548046654,
            -0.4537651051341913,
            0.10367703383823211,
            -0.8978238777216169,
            -0.9867081400168157,
            -0.41097207029793176,
            0.7501444209959347,
            -0.520184269523864,
            0.34919604985124086,
            0.017343108920637087,
            0.7063705274507847,
            0.47864743912679947,
            -0.02432837842123916,
            -0.09391764567323424,
            0.4712006338325589,
            -0.9677034944929832,
            -0.80724677905391,
            0.3270007765501368,
            -0.16218126280727135,
            -0.5633829408184301,
            0.8112140762974093,
            -0.16044223723006185,
            0.15914409192888562,
            0.20046458340484688,
            -0.2880004359389609,
            -0.9565742553197025,
            -0.22220242892640638,
            -0.18260281853939284,
            0.7501231645022934,
            -0.2821409980767943,
            0.502212277979572,
            -0.7435414519598813,
            -0.7795227711137686,
            0.2179539156173792,
            -0.23464707869681023,
            -0.1673750452481245,
            -0.9523161056602105,
            0.8254247979607794,
            0.7637075872418019,
            0.5452477710939146,
            -0.02824338895426765,
            -0.5468479705529701,
            -0.049551450462897974,
            0.7425175576879279,
            0.29939073216208556,
            -0.6690021972385041,
            -0.765227411055604,
            -0.6832743070338403,
            -0.13156481856074348,
            -0.9535517482117254,
            0.8599298977029972,
            -0.8184037790226449,
            -0.5261013632128856,
            -0.5769203275601151,
            -0.5369455503936084,
            0.41688850928788473,
            0.024205801856553764,
            0.326809102753628,
            0.7728125861820487,
            0.4808463662903227,
            -0.9968363743983891,
            0.14223220486053786,
            0.748981241468124,
            -0.6371097460351134,
            -0.5849233540177399,
            0.1726671123586562,
            -0.89336097688148,
            0.5956674705490146,
            -0.015419043246230047,
            0.5560508837676089,
            0.24115692628178378,
            -0.6015365633190638,
            -0.7942722840103087,
            0.9455297385952233,
            -0.9863064299026522,
            0.40890619478202733,
            0.7296874731951213,
            -0.8558425537231852,
            -0.1241856662750571,
            -0.8334288666895381,
            -0.574673281151818,
            -0.9300727855334526,
            -0.12570860803406053,
            0.9945922672834718,
            0.39245379186609514,
            0.5941611461109408,
            0.188258621352956,
            0.2618344909049742,
            0.15102036208108024,
            0.08181184806920072,
            -0.6488638134551676,
            0.6222165605946303,
            0.10479018101006456,
            0.6765409704571927,
            0.10356310255185878,
            -0.08902447923748032,
            -0.18780851461049564,
            -0.5822740675141775,
            0.057386472420507935,
            0.5151245587613683,
            -0.369823947995357,
            -0.2605833471192834,
            0.48076785170174025,
            -0.7641128842642974,
            0.6790351776019654,
            -0.9261972571977578,
            0.47478738132931647,
            0.07392769401601301,
            0.5402568617244441,
            -0.8957554532856147,
            -0.29307216288362764,
            -0.12597326493731667,
            -0.27172687173471943,
            0.717606451609767,
            0.8870352447719292,
            -0.7264314668022144,
            0.15112028844714182,
            0.045873630328099574,
            0.91033878553146,
            -0.719963075498732,
            0.02133485370354804,
            0.8064379970145452,
            -0.6087115787211653,
            -0.09150506833016117,
            -1.0037528739693447,
            -0.01324698190897006,
            0.6760562974136389,
            0.8235503498870271,
            0.03072557326506234,
            0.5307366804536169,
            0.9747834707613496,
            0.7178571562927252,
            -0.9613723449420362,
            -0.05229783832094056,
            -0.0691933912297751,
            -0.6253188360852593,
            -0.7926042731493117,
            -1.0019907473788074,
            -0.998371765014622,
            0.014439617234514675,
            -0.765444318743988,
            -0.5509264627402842,
            0.9189074618066659,
            -0.14400840317819616,
            0.585486625432512,
            -0.7594713169511019,
