{
   "layers": [
      784,
      50,
      50,
      10
   ],
   "activation_type": "Sigmoid",
   "0": {
      "type": "Dense",
      "weights_size": 784,
      "biases_size": 50,
      "weights": [
         [
            0.18943342185629616,
            -0.5669490996404543,
            -0.22866472125972462,
            -0.8164381527875744,
            0.9575384359163335,
            -0.9657145303956747,
            1.008302154699355,
            0.5278436740785117,
            0.5646900684837863,
            0.6564846535679121,
            0.01137355931205815,
            -0.4159496335199424,
            0.4086243583211685,
            -0.3894417651430988,
            0.06943266028001657,
            0.409587904046097,
            -0.9629750461230431,
            0.49308562623705365,
            -0.5818499703600719,
            -0.8495617281694698,
            0.3910459753472404,
            -0.3047185863460087,
            -0.680935995749014,
            -0.5988176091507325,
            -0.8991060052709019,
            0.13123031408032307,
            -0.5714381049104138,
            0.131609732529731,
            -0.953843566554728,
            0.46272623466126017,
            0.22673803170051268,
            0.21401854800319095,
            0.3560712812292628,
            -0.4851530931425594,
            -0.3599840023303576,
            -0.6479490556127724,
            -0.34183120362723457,
            -0.21301858344255162,
            0.2871320861552849,
            0.7963571752192833,
            0.9792943945670651,
            0.6729471400007061,
            -0.29252058907130063,
            0.4178402825624321,
            0.447213416551267,
            0.4060467413237694,
            -0.7193084761876932,
            -0.747014282689646,
            -0.792767420370029,
            -0.6892024422533347,
            0.059207069556234365,
            0.6642326652137767,
            0.587824206013422,
            -0.46874874406972644,
            -0.08581568380882088,
            -0.23643755430204152,
            -0.44493255646921104,
            -0.4271367691575292,
            0.11206903542167551,
            0.7393895634519765,
            0.4672233576111414,
            -0.14767379912019038,
            1.0127536710747074,
            0.23042141452201567,
            0.8844402246576031,
            0.5580111020965846,
            -0.756465908778945,
            0.6618346059868361,
            -0.9024774416084959,
            -0.6454761318067516,
            -0.35091878373663826,
            -0.30598836039489213,
            -0.8944880961189386,
            -0.47075489205848964,
            -0.3923608508269853,
            0.6666532245232696,
            0.7490452919353732,
            0.47869218502124883,
            0.12795452456385603,
            -0.6047536710388803,
            0.610787015674848,
            0.6845209563003463,
            0.17596425301596938,
            0.8990297295431735,
            -0.8917252889833593,
            0.4080244285716923,
            -0.08881609198209064,
            -0.3702885796732902,
            0.6337750133616628,
            -0.2931691554497837,
            0.422766000686507,
            -0.24039509757597963,
            -0.6515574727425494,
            0.3550399127246989,
            0.4996403890205973,
            -0.953084869773683,
            0.9420255651249632,
            0.3398279941894367,
            0.062136380712602156,
            0.05065946778927551,
            0.46190417026895864,
            0.3300652531222564,
            -0.5031536266808112,
            0.5449300280408723,
            0.12064532808420517,
            -0.6357522494167194,
            0.6969285953497886,
            0.7127990885246787,
            -0.11363985909405866,
            0.1270427408640874,
            0.6278291619516804,
            1.0109603492760706,
            -0.584922342555136,
            0.16882065779253738,
            -0.6443437614241261,
            -0.31335153439832836,
            0.3602858243434153,
            1.003555966153487,
            0.31203730756875064,
            -0.8001218475093042,
            -0.3690715368016594,
            0.7345662183723886,
            0.5532324050447964,
            0.7568257325082092,
            -0.7062473612820669,
            -0.7106406290078517,
            -0.40929734171139226,
            0.2738209100299089,
            0.5630823935900086,
            -0.6318452230190664,
            -0.409790908112261,
            -0.7924257755989085,
            -0.7228325130670203,
            0.5724713927240543,
            -0.8844565329579633,
            0.7632188269632404,
            0.5778959603049681,
            0.5148426806502684,
            -0.520415226581342,
            -0.6491329489302375,
            0.3237312575188618,
            0.9400696029546953,
            0.23874809963092064,
            -0.9386908344719478,
            -0.7063208593456223,
            -0.2397848088393046,
            -0.26553371364114475,
            0.966721510693862,
            -0.6200181762701701,
            -0.9917134688399573,
            0.4146913553293319,
            0.3320703259663584,
            0.3690749215511441,
            0.08814886320594918,
            -0.432517114798548,
            1.1088057707396202,
            0.04329662277758916,
            -0.32663434216703147,
            0.2682265810309655,
            0.7868509723342519,
            -0.6477406233807049,
            0.06022336954927477,
            -0.012097757021113754,
            -0.895149201851571,
            -0.12078603080572237,
            -0.9448666689592606,
            -0.45218643131058595,
            -0.8016228593534478,
            -0.38452123639942815,
            -0.5977361971434023,
            0.5841184459044115,
            -0.22999925196919113,
            0.033448387517222795,
            0.22653420825557105,
            -0.4509927959170127,
            -0.7757173168177531,
            0.4091624353744704,
            -0.3191088536419906,
            0.4875160448795118,
            -0.5316299316623159,
            -0.2509570297019349,
            0.45549531123080683,
            0.5837980123519404,
            1.2674004869374262,
            -0.4710847233977953,
            -0.21429144712441342,
            -1.0497264460789524,
            -1.0440525753053662,
            -0.3779379508483436,
            0.4398981769915958,
            -0.547874304703422,
            0.17890681204463496,
            0.20666668400194785,
            0.5399416821197621,
            -0.14132109215844968,
            -0.903195338320328,
            -0.17367972633973713,
            -0.687559367772631,
            -0.2862121539364331,
            0.4512627569451613,
            0.7472583842507962,
            -0.2321171184544124,
            0.35028330477259517,
            0.09615103485953894,
            -0.20124270800204427,
            -0.04014812848468331,
            0.049221264852280316,
            0.17015539234670438,
            0.01331505523483265,
            0.203382116560771,
            1.4756139431175197,
            0.3850213623064448,
            0.22208758182476526,
            0.6874863051215903,
            0.17422637163634713,
            0.518856418179639,
            0.6914045613843602,
            0.47702253505794,
            -0.9393247344118467,
            0.27461793656924094,
            -0.3995328024198337,
            1.0395617152294918,
            -0.9693505417164474,
            0.5558981267599078,
            -0.8599990495253131,
            -0.7981195241997223,
            0.43413756988119856,
            0.47834007220536234,
            0.30082373352692715,
            -0.7176836221514397,
            0.763471269554107,
            -0.36330260813069637,
            -0.7821994619526144,
            0.5766404539680786,
            -0.6593746351393579,
            0.26561611382343997,
            0.2098512001206148,
            0.838234071036154,
            1.1170500658398523,
            -0.008401116603431699,
            0.7217680504843442,
            -0.9079579258621605,
            0.39007484639441686,
            -0.8564242173979367,
            -1.0304997695696954,
            -0.3449385727025363,
            0.37426535270742384,
            0.9280625165296897,
            0.7289250604714141,
            -0.2236116638225062,
            -0.6948864132112427,
            0.9093464829865134,
            0.8950601205366502,
            0.8987981862020478,
            -0.3884069310342878,
            1.0040297100215478,
            0.7682651735290086,
            1.0163327413070085,
            -0.664752215487821,
            0.389679525820524,
            0.7902031755617677,
            0.43646894391171914,
            -0.7727874000285213,
            0.5724887669319578,
            0.8264635862233195,
            0.878108843801779,
            1.1811415049506127,
            0.6102763012412921,
            -0.3060839318230673,
            0.2749888035629554,
            -0.6049837127879524,
            -0.023476414324821556,
            -0.5577111240383017,
            -0.5566737104541953,
            0.8438553542594249,
            0.9639004387515154,
            -0.2307841579744059,
            0.8551704163522748,
            -0.9576175322145786,
            -0.6880073918876316,
            0.3326924985711438,
            0.16977206864092131,
            -0.7968150016773339,
            -0.12542028689639345,
            -0.9219116720127711,
            0.7469043618001824,
            -0.4923083378970991,
            -0.04524502212926935,
            -0.12603013696178517,
            -0.024544632650153813,
            -0.6642890405635686,
            0.9565356529942012,
            0.5175124607038656,
            1.1106418885730882,
            1.2616929503283059,
            -0.5989957933212893,
            -0.19836282387011375,
            0.3639552269759253,
            -0.8821420702853675,
            0.8394286596761759,
            -0.051830395359792725,
            -0.3399118595301664,
            0.22667661304458614,
            0.6968233466936528,
            -0.5837465244257964,
            0.29704046020507513,
            -0.47136228815392095,
            -0.7124551544583719,
            0.011589669691366699,
            -0.7796257235456217,
            -0.5244072387251657,
            0.20285181789236675,
            0.6920388678331008,
            -0.19454714548955412,
            -0.2343591605492431,
            -0.12542167199185655,
            0.9524686284228693,
            -0.4071030595560803,
            0.3703820849757361,
            -0.46334309806992774,
            1.1726256505263306,
            0.32461471352241417,
            1.3084046508921683,
            -0.6391643740225085,
            0.275872455375162,
            -0.8477473249333688,
            -0.39248051223826697,
            -0.0475645384376888,
            0.4985351848392411,
            -0.3857214227808347,
            -0.18160482037011066,
            -0.526760723966609,
            0.7269297617292285,
            -0.0372649533729679,
            0.54922765368442,
            0.48126392569043075,
            -0.3551134477317457,
            -0.9136039811336217,
            -0.522371643586337,
            -0.12319433038277665,
            0.8252072186641806,
            0.452324681465471,
            0.5090262958878075,
            -0.8446687610802268,
            -0.519048084944584,
            -0.6236121563830155,
            0.685328219410513,
            0.4384565338399742,
            0.3633847421056018,
            -0.11077753083841883,
            -0.4139281645989135,
            0.588827512574115,
            -1.0239240785914814,
            -0.14297952231211605,
            0.6376244733811542,
            0.5730020396678526,
            0.6438304758050855,
            0.1572319571463143,
            0.25276026984166905,
            0.66553736059463,
            0.17542423420504913,
            -0.5951211397237468,
            0.2771795386209886,
            -0.8854091902674845,
            -0.5732967013276129,
            -0.33560916243427474,
            -0.8558830887525679,
            0.5233118600744214,
            0.1712555574305135,
            -0.8029012857882906,
            0.10229206674029973,
            -0.5004066817932563,
            -0.5793245159086637,
            -0.030480573122875044,
            -0.537006054795336,
            0.3906965065222756,
            0.23845737792452135,
            -0.44306917013320285,
            0.6458065585132453,
            0.2809770015916175,
            0.3087693263394717,
            0.07642959242703411,
            -0.9235027196780975,
            -0.6195699734434778,
            0.4502496269667097,
            -0.36031328332336726,
            -0.4577472007378474,
            0.15260473946032535,
            -0.7403434185449425,
            -0.8328146864724337,
            -0.5707178133071046,
            0.8039620872909152,
            0.18309284721849065,
            -0.8256014270927132,
            0.30869015992431653,
            0.7380537445520775,
            -0.4115211720655997,
            0.43314260919877307,
            0.4929920785000494,
            0.03201226119152865,
            0.07747437414583366,
            0.024534698396363578,
            -0.19934235229755887,
            -0.34678066206049457,
            -0.5703572950386696,
            0.4517778824719823,
            -0.09717535744075528,
            -0.8951790394248198,
            0.4928059004645613,
            0.38960837976738066,
            0.3496635137121404,
            -1.0779015004434584,
            0.05862683004256751,
            0.7765767116722752,
            -0.8056465462921254,
            -0.17769595985383574,
            -0.47994389693796286,
            0.6419928640864221,
            -0.16993527567395036,
            0.17165453642628417,
            0.7546920240752732,
            0.6797675157159078,
            -0.824569229707565,
            -0.11023700596657364,
            -0.9527840569475999,
            0.15877974535168396,
            0.7094831551572292,
            0.05781283562101193,
            0.12776729525094,
            0.7068841964202404,
            0.159413715847081,
            -0.6827359479053569,
            -0.8344027966854614,
            0.32288175229917354,
            -0.7108333085828117,
            -0.30166651180788095,
            -0.6171405344510285,
            -0.6213549445618312,
            -0.8647379684870141,
            -0.4249029850586428,
            -0.16497576332878125,
            -0.842101984478993,
            0.3734586125749842,
            0.07826300018939254,
            -0.6847980817302967,
            0.855522412395322,
            -0.5473005301808416,
            0.6548835882549912,
            0.3961799007320703,
            0.6647046355946291,
            0.2711741343127863,
            -0.05868664572190157,
            -0.7827674841450214,
            -0.08320643485407654,
            0.6752110363305325,
            0.7719337294334004,
            0.30375881126146104,
            0.7569438676924011,
            -0.1731302248992571,
            -0.31271952089382987,
            -0.48812613822496026,
            -0.0007889213409098821,
            0.5678726193814545,
            -0.8039526810510723,
            -0.391271263457312,
            0.18700552361782993,
            0.6718904800717433,
            0.5797888404825076,
            0.8058752799043534,
            0.8729900029686258,
            0.9124509408586196,
            -0.3038590468974626,
            -0.04609593465277665,
            -0.051141571649979414,
            0.763075443224708,
            0.5980112664319923,
            -0.40679209642545877,
            0.8079940091354982,
            0.8532861724382774,
            -0.7234276926034244,
            -0.3482342499815831,
            0.09092621430070383,
            -0.44735375828371593,
            -0.516928584179513,
            -0.17785318574905215,
            -0.9522242729977012,
            -0.83321459136942,
            0.611237328461951,
            0.5444549296261735,
            -0.9145031963626531,
            0.5505827426706166,
            -0.8990043260970022,
            -0.3749125941479839,
            -0.05333848087578938,
            0.419148184829697,
            0.531197345317578,
            -0.04754855441238294,
            -0.3054671841039016,
            -0.26263779728942616,
            0.38566815269902566,
            -0.29596410110007776,
            0.023715264430068547,
            -0.5906518541453325,
            -0.9780766600333789,
            0.8011268913307779,
            -0.21072308715434054,
            0.7661289666396186,
            -0.45708171513077067,
            0.8762941956486849,
            0.39662514991091957,
            -0.40126418200777153,
            -0.802193767646069,
            0.7647007675905596,
            0.09885313731945254,
            0.5396845527166627,
            -0.46241460249654986,
            -0.810335812292623,
            0.23043177580658644,
            -0.29901518597197335,
            0.4756008477163978,
            0.17272421723777265,
            -0.039045106848111404,
            0.29469730099570024,
            -0.6314570229242843,
            -0.6040392586517344,
            1.0484640916430918,
            0.7284060470972892,
            -0.7058941279182799,
            -0.6274530010303656,
            1.0155827159561222,
            0.6492248520739277,
            0.17935895256640538,
            0.7127347605288892,
            0.6277708401706317,
            0.8901656244127091,
            -0.419140987604035,
            0.8798815736490893,
            -0.6908505278939794,
            0.7441650712721162,
            0.08521139933992686,
            -0.7322586506193538,
            0.6844552634933474,
            -0.2980991386908986,
            0.615113932629684,
            0.508425573868118,
            -0.40599720505968995,
            -0.3757618492408471,
            0.18334062045068894,
            -0.07538418666619026,
            0.04955376184776843,
            -0.415210029118646,
            1.0566338986914643,
            -0.5533444920985573,
            0.5471260544144649,
            -0.3766903882603625,
            -0.1578620221398941,
            0.4976604566729263,
            0.9752960617884199,
            -0.4686154657712933,
            -0.6492548748967105,
            -0.6765949316391184,
            -0.971696713438891,
            0.7576907972429442,
            0.9244891487523897,
            0.9191154921130464,
            -0.20521009690293038,
            0.6804649644771643,
            0.5681715556784535,
            -0.6456658322907312,
            0.46865688503966374,
            0.710619223426186,
            0.10675672777770874,
            0.7947636641802376,
            0.21614368505762888,
            0.5880269473055171,
            -0.3147724700177748,
            0.34501280430334375,
            -0.4636624903083754,
            0.7778468940362645,
            -0.5419642987639381,
            0.07043749994864582,
            0.8344822775349545,
            -0.21394077156711813,
            0.5155316260627539,
            -0.711546455903133,
            -0.16217046083652917,
            -0.4328926112369758,
            -0.3043972869070761,
            -0.1447412093129347,
            0.3023953788792065,
            -0.2517752035113879,
            0.012709733816239731,
            0.6867495003255741,
            0.04187997686188403,
            0.5204371986482877,
            -0.4860264299161453,
            0.25258206000074745,
            -0.3191166191722464,
            -0.12082751264891568,
            -0.20124970003113676,
            -0.4545778703660388,
            -0.24169627599081933,
            0.8518061892347291,
            -0.06804609169244875,
            0.05068861088527632,
            0.5974412761419019,
            -0.41234154150052094,
            -0.40125544596556756,
            -0.6307208721377494,
            -0.9366790101878921,
            0.6830924449410628,
            -0.4348265361350184,
            -0.20183394341233157,
            -0.7767212246423297,
            0.7528166318100957,
            -0.5504822286632998,
            -0.44102765347527306,
            -0.5685104300229626,
            -0.6383782530723315,
            -0.1040999330619558,
            -0.5098816034051782,
            0.17772329129987083,
            -0.9359314756131457,
            0.8201832459632308,
            -0.00438906956757498,
            -0.5100134158494697,
            -0.39026294403304596,
            0.011579139790666023,
            0.552920639949858,
            0.4445881993419061,
            -0.42062976458875007,
            0.3720310871813565,
            -0.6801496778370273,
            -0.46690899957450416,
            -0.43574688674727025,
            -0.5202257496205134,
            -0.409773164480802,
            0.5795884409289814,
            0.5339538185459561,
            -0.05295049992577112,
            -0.0549217950933725,
            -0.9536075115636551,
            0.6623952808067478,
            -0.521186091520937,
            0.007655853391353528,
            -0.5510742079596098,
            0.6635121697617531,
            0.7890949280239707,
            -0.21796037960684253,
            0.30609333026791785,
            -0.39390534416140954,
            -0.7555784154333206,
            0.09669356551835284,
            -0.5348773770550409,
            0.5532618669074704,
            0.627957439302973,
            -0.8409793128029898,
            0.8734692911868712,
            -0.3968944713793605,
            0.6659451922230903,
            0.19914158882646654,
            1.0045480011635004,
            -0.7359494952460424,
            -0.6903007594160399,
            0.9964120034286371,
            -0.9876300316527024,
            -0.23702092208969805,
            -0.6154337270099618,
            -0.41075897707327613,
            -0.14902868223879298,
            0.43802886002434593,
            -0.773923660591509,
            -0.020364485051965756,
            0.5773935454160513,
            -0.2971596813888544,
            0.32221376147733916,
            -0.7973183400022305,
            0.5690137844883183,
            -0.09646467062262885,
            0.16714735057020233,
            -0.313394531325628,
            0.9409684354867377,
            -0.3775343113519961,
            0.5361602933018892,
            0.765865447932341,
            0.5430132188072129,
            -0.6059986132064993,
            0.4431381247135013,
            0.6662292128797068,
            -0.13158688842441593,
            1.0477574443959594,
            -0.741091868662172,
            0.06212283276905632,
            -0.42190894119650824,
            0.8529376189480656,
            0.3374885800904185,
            0.32294125130896384,
            0.091266260728613,
            -0.470160190802134,
            0.19888809397657345,
            0.7773970572613735,
            0.9088578180515776,
            0.4616899605512581,
            0.23909980937309006,
            1.0161135060864692,
            -0.5827237858074086,
            -0.462214013396366,
            0.2586581412780188,
            0.9063346393687373,
            -0.7664146599328955,
            0.15416790583996176,
            -0.2737777080985694,
            -0.6077476729315139,
            0.3122379046398888,
            -0.23159857847748178,
            0.9671465072753749,
            -0.015651011689672294,
            0.30997044559242504,
            -0.04821941921827257,
            0.5254972773743993,
            -0.3127343187249733,
            -0.4973526077507043,
            0.31802084934412667,
            -0.28875293722970624,
            -0.13162050683662027,
            0.7131461272347481,
            -0.8745620954694548,
            -0.7431880991508399,
            0.7893777670839008,
            0.6194194969367166,
            0.15444692918929967,
            0.7238721215608277,
            0.3183865719735192,
            0.5045774643835992,
            -0.9223549257531846,
            -0.04824441429129154,
            -0.15922615674999407,
            -0.7042061935314609,
            -0.3317219526280329,
            0.14428857915917853,
            -0.046961597331769904,
            0.819200143260723,
            0.9094713412389915,
            -0.6931229090472332,
            -0.4901429269363573,
            0.9064671886180266,
            0.7504261877554121,
            0.33564829457907125,
            0.6746337563446468,
            -0.4004508716436936,
            -0.35604532472834927,
            0.45760291317217305,
            -0.5477948536110233,
            -0.6268862927814125,
            0.013673050908856735,
            -0.10866292133002992,
            0.22210821442232118,
            -0.4306016006759523,
            0.6024278968108108,
            -0.6514087061537825,
            0.7378313255142508,
            -0.4381317783166775,
            -0.3924670376276669,
            -0.019571182107210244,
            -0.363227167942127,
            0.11359616499604222,
            0.3514964191901912,
            0.5299638040267594,
            0.9830503160000935,
            -0.7296566662314841,
            0.5069227148531618,
            0.5249402554740122,
            0.04829538096631399,
            0.11148112501435185,
            0.6066511805576102,
            -0.5331439922075779,
            0.4189780430745055,
            -0.9198318151662053,
            0.12203448911818457,
            0.7749575066620462,
            0.20422760312178076,
            0.6139313352518094,
            0.4719675527043742,
            0.8939043250003393
         ],
         [
            0.5716186230222455,
            -0.29182078355960134,
            -0.07038555826672818,
            -0.002157181668357807,
            0.6996435512198773,
            -0.01873155792809868,
            0.45758642427520074,
            -0.16327955241381342,
            0.7391689175343865,
            0.4933960782788845,
            -0.7649303168335755,
            0.03950287166183786,
            -0.6602185536130705,
            0.8013305115594567,
            -0.3406959754431352,
            -0.7122880903621975,
            -0.898363467202907,
            -0.0844355272786832,
            0.8121043728989716,
            0.22876104272008835,
            0.7754400287546879,
            0.01764525950296395,
            0.7453380814144086,
            0.21735878344233583,
            -0.1524737032257225,
            0.7424407443955781,
            0.8767709919909095,
            0.7970484458160534,
            0.16221760836037047,
            -0.179038856971088,
            -0.9008430772856404,
            -0.1746248275189245,
            0.6068807512985639,
            -0.13924984767910398,
            -0.15100664121744478,
            -0.5865091635616146,
            0.23284995145347004,
            0.5191815594842011,
            -0.487458035120037,
            -0.5103687387664717,
            -0.13140603586245744,
            0.2912456805542066,
            0.8431420971354896,
            0.3516233806456664,
            0.5009227740803877,
            0.09220456589711062,
            -0.8109718356339031,
            -0.28964943443855223,
            -0.7086251387362779,
            -0.5971531415423321,
            0.19454590429148155,
            0.11196279258778183,
            -0.5635191467736069,
            -0.27856023900982213,
            0.3522589785655372,
            -0.7595115836894606,
            -0.39891615839497235,
            -0.7695846203956138,
            -0.20889435341028367,
            -0.05665450297682227,
            -0.8862060961800928,
            -0.8217903944768277,
            0.906465956931994,
            -0.8988334808183607,
            0.6344011227153918,
            -0.0219024008250829,
            0.6914059169666068,
            0.06506737884066413,
            -0.3380948577747715,
            0.7350812371728619,
            -0.36377717722875785,
            0.8216013210219315,
            -0.84957463839028,
            -0.22973777057195338,
            0.47193497567661596,
            -0.985958567046395,
            -0.08205219939694236,
            0.018735010455751495,
            0.41932312448197206,
            -0.2733305084395154,
            0.7741458644430218,
            0.6173756464843374,
            0.7024453666376727,
            0.852356665495994,
            -0.4367943962634145,
            -0.20287161715917568,
            0.424741005236181,
            0.016386984322040915,
            -0.04513640909900922,
            0.04212312423864091,
            -0.8751643098569268,
            -0.33339486759544473,
            -0.4692496790999489,
            -0.23612118543404934,
            0.1599292204965262,
            0.7042271627688814,
            0.8103921180820903,
            -0.9667681405155559,
            0.8560077098327861,
            -0.7690181079037,
            0.275575870583958,
            -0.8294626965959686,
            -0.19141881021758006,
            -0.9122804319219069,
            -0.7562072960553436,
            -0.6324414767799554,
            -0.22154415532315658,
            -0.5459618214422768,
            0.23761912325155557,
            -0.6846625828325549,
            0.4418822769288839,
            -0.3302772565256103,
            -0.3824063979989641,
            -0.36834713984294204,
            0.3716374199531362,
            -0.22201329840171757,
            0.6944510175755703,
            -0.34153262288693303,
            0.45444594583812437,
            0.8496248679626208,
            -0.31048147606291404,
            -0.5899674928051577,
            0.8758195409846566,
            0.15387911926958941,
            -0.05251972321726306,
            -0.08174110644349757,
            0.23447796644929683,
            -0.9279440836842274,
            0.04526910436866026,
            -0.08415751620299261,
            -0.8861574150367012,
            -0.5210413453949042,
            -0.14951415427065376,
            0.7564294388394986,
            0.09647021792808477,
            -0.37047209977018014,
            0.17254035160021589,
            0.8285880487607128,
            -0.4297419543511651,
            -0.4049293895911454,
            -0.5104342898364106,
            0.41275246239643887,
            0.14878050882752542,
            0.2615523631862931,
            -0.41183165396239435,
            0.5161272593359564,
            0.6713760310639761,
            -0.8580087258174972,
            -0.256383345009939,
            0.35801067988826196,
            -0.8800493794262141,
            -0.13393314933985453,
            0.8166240691915692,
            0.48230171498181673,
            -0.9978834265130817,
            0.6152057752558201,
            0.54065276792307,
            0.3573193601742759,
            -0.8917712208944821,
            -0.550592535286986,
            -0.5602813119991484,
            -0.6070109016896383,
            0.23262882264620138,
            -0.47204215641358077,
            -0.5554684629316033,
            -0.16660315552014468,
            -0.6646718355262465,
            0.47343481628920797,
            -0.07609166656958882,
            0.8636344118612442,
            -0.1829163491442498,
            0.36370491225044166,
            0.9549652304230781,
            0.0025583799909098736,
            -0.5284242194832276,
            -0.7561812556678497,
            0.13190602826918232,
            0.13042919189172467,
            -0.5857236781134091,
            -0.9200435510521748,
            0.20780193835454747,
            -0.755437355826828,
            -0.6405358978523032,
            -0.3573372384124754,
            0.2769841117789096,
            0.5124472167314849,
            -0.1454759230888689,
            0.1996757538572631,
            -0.865038680667421,
            0.20868229541813516,
            0.5496023566402027,
            0.12499025511461323,
            0.23653212786845754,
            -0.24069293436247968,
            0.5482104856038649,
            -0.1692442385802989,
            0.5467317313418751,
            0.684748147173029,
            -0.8565570428789201,
            -0.6786833687345373,
            0.3938288434960305,
            0.8671390935381055,
            0.5898358287051596,
            -0.27698972691750634,
            -0.044668275056058755,
            -0.5953175116247859,
            0.7191063343822589,
            -0.5016943434865117,
            -0.03253345591316214,
            -0.669213693752688,
            0.4571326263276204,
            -0.003647906070813242,
            -0.09293418019746502,
            -0.15850037405616776,
            -0.0976834767469352,
            0.1332912829913631,
            -0.008487154526217792,
            -0.26360610542511487,
            -0.6915451991156722,
            0.3393494216781175,
            -0.964962860261212,
            -0.6129191936673363,
            -0.678447859679589,
            -0.7372931634629466,
            0.3788911324439403,
            0.2073804889333985,
            -0.9343352320937711,
            0.2420632303046243,
            -0.6979485142989981,
            -0.37201796321684305,
            0.5376965684393086,
            1.0045007785471567,
            -0.9168172913250613,
            0.4029281742929211,
            0.30219891444791563,
            0.19117328687307478,
            -0.9656896940927434,
            -0.7040204368587767,
            -0.10183324074792148,
            0.11236811340646469,
            -0.9156082128933565,
            0.06848824072384997,
            -0.049449613725922346,
            0.7647243362466167,
            0.07117165661844661,
            0.42448321126222505,
            -0.8425861470138613,
            -0.6960786124195046,
            -0.2523950807629134,
            -1.0220089095258211,
            0.9469546473434168,
            0.10308587627847798,
            -0.536504585602299,
            0.011152415919926224,
            -0.759416630956645,
            0.4756681683038964,
            0.562949212118086,
            -0.3189101253970184,
            -0.48015570268721625,
            -0.0786295078518333,
            -0.6457079908102676,
            0.30305490395184936,
            -0.7709105327067409,
            -0.5921240875919823,
            0.09738570291722086,
            -0.6333804199547782,
            0.7878332822506676,
            0.8948877490337487,
            0.16909734731696052,
            0.702187767588123,
            0.4608505476044323,
            0.44303302234329606,
            0.7480104841376165,
            0.9825324747113707,
            -0.32888579586445493,
            0.8298000578660166,
            -0.5768847199357019,
            -0.42999054931323794,
            0.7394779227020004,
            0.3377505039880549,
            0.43852831758821215,
            -0.7947546191188458,
            -0.3575334048071447,
            -0.06676055762757914,
            0.36601267330407594,
            0.5528238130912099,
            -0.7655202832227933,
            0.10115268214622246,
            0.2296518432235059,
            -1.040577677032353,
            -0.0926374133296879,
            -0.4371641196319338,
            -0.5847205189150473,
            1.014735414681262,
            0.9347988410919397,
            -0.25056025216622785,
            -0.592655708045194,
            1.0401540706013361,
            0.6625501107435949,
            0.4272605591160429,
            0.8910243176437456,
            0.1303850986255439,
            0.9632516740481741,
            -0.9012196281874258,
            -0.6855339056221671,
            -0.09884746240275563,
            -1.0031161294873037,
            0.5943211982735493,
            0.6218545857040944,
            0.27042862704206944,
            -0.5070340929932885,
            -0.42180750331097705,
            -0.5012219297338621,
            -0.8383261916477868,
            -0.8135278213071966,
            0.7561319154292486,
            -0.6919422647916765,
            0.1553624908513066,
            -1.077535810863577,
            0.6381406580354526,
            0.5943142085439638,
            0.6304695851473251,
            0.5732098292341103,
            -0.596379955825808,
            0.25849556754830877,
            0.7003305617167818,
            1.0368284506069338,
            0.4495024944912551,
            -0.5145033391787425,
            0.49792739080403875,
            0.7524187734328848,
            -0.572509758597614,
            0.1352634160302156,
            0.7987650582030245,
            -0.5729045306399115,
            0.036267848978307496,
            -0.44501415158218255,
            0.4465784748929283,
            0.7727133015283212,
            -1.0042136645563038,
            -0.6484307036698046,
            -0.7794682725932119,
            0.3609346668514271,
            -0.024932399329330276,
            -0.9301168296986936,
            0.579472189870916,
            0.8328851454664755,
            -0.720072279511886,
            -0.5153137902927777,
            -0.03550306828070477,
            0.45383946082921056,
            0.3939265290125338,
            0.12522366296278586,
            -0.5079818322693405,
            0.17619316741886615,
            -0.062145822545118704,
            0.03991916696892137,
            -0.7761909603563394,
            0.3176606946560774,
            -0.3400606621820154,
            -0.4024435704401776,
            -0.06082400309740935,
            -0.2691774710907782,
            -0.9286670401324997,
            0.6382977758552337,
            0.3769641660524156,
            0.45615189375227294,
            0.5281387833815924,
            0.14300479844745712,
            -0.11918886926113943,
            -0.9940572302660821,
            0.20948123733962243,
            0.3677950466894914,
            -0.38720641980321824,
            -0.8948930364119396,
            0.24070039508599694,
            0.16395381767086292,
            -0.8750100891129118,
            0.25362784233439517,
            -0.35912137143127537,
            -0.16421100248873002,
            -0.07455107979270523,
            0.525921997101684,
            -0.43484671667860353,
            -0.3808380716080702,
            -0.8153226929260238,
            0.26723024004587137,
            -0.8723945092455542,
            0.28867929630367345,
            0.5652620731029694,
            0.7725460983063845,
            0.38122027279529486,
            0.24545923544359444,
            -0.8361345604763694,
            -0.3478772037405352,
            -0.5312728986626956,
            0.2831491590263725,
            -0.9650684401176076,
            -0.5633528059678019,
            -0.8828054317572732,
            0.8062497929231122,
            -0.07756159722249181,
            -0.33482445929619686,
            0.8922083054509107,
            -0.6385091608296505,
            0.7382067277762157,
            -0.08281769158002371,
            0.03818702032839318,
            0.6232679996920394,
            0.4739807269343039,
            -0.7631081015622221,
            -0.05620347280217434,
            -0.35070933964762274,
            -0.04381118870295628,
            -0.5795051150195958,
            -0.82907255667667,
            -0.3451389703383271,
            -0.5110747304221097,
            0.2206743454725844,
            -0.9122683963147356,
            -0.3539164082648653,
            0.3156782697014277,
            -0.3646925601980529,
            -0.2833170415478057,
            0.5426650229069514,
            -0.04274577141321715,
            -0.2822862746217185,
            0.11690036361213554,
            -0.3799710790932783,
            -0.0777253651871475,
            0.7198743046991308,
            -0.01005023643780719,
            0.3228478253002674,
            -0.6797278714814567,
            0.23659166690305378,
            -0.1595937667161858,
            -0.1901080042932725,
            -0.2860259683685055,
            -0.12654489575203365,
            -0.04287939046473542,
            -0.10907270034791061,
            0.8807780808658588,
            0.22837964950275763,
            -0.3266138169484992,
            -0.8510640446111181,
            -0.49933292668371465,
            0.008209172071584184,
            0.42937997419810153,
            0.03828616870739243,
            0.011832034437209246,
            -0.7784276026550025,
            -0.7382670410656685,
            0.9089921610611363,
            -1.0447495447657564,
            0.1737848845810514,
            -0.5033170626889256,
            -0.5165455351387596,
            -0.22600739178615703,
            0.367666513331545,
            0.8799311546655081,
            0.40433448046882414,
            0.9288537420074388,
            0.3115034877189127,
            -0.46661842081588994,
            0.021964724269688835,
            0.2536303841014897,
            0.4123722966349109,
            0.10222942472077612,
            0.8903407429778748,
            0.17290071199444232,
            0.4617881360047057,
            -0.41835701907888545,
            -0.12548504169502103,
            -0.6697885706954899,
            -0.32982356853709,
            -0.620700504707197,
            0.7971115955947439,
            0.7075930375066084,
            0.7937909706563715,
            -0.9551682183757413,
            -0.7052227111624861,
            -0.5635053167743763,
            -0.41589952214169945,
            0.6926530561809926,
            -0.17157724136822386,
            -0.32311431848930283,
            0.2429006209737795,
            0.7213966038852859,
            -0.2375624999535212,
            0.966056416504839,
            0.8999852748640331,
            -0.6878673009654308,
            0.00964950878315056,
            0.6404691312515616,
            0.3423172420733352,
            -0.8984415039335019,
            -0.21847874092538772,
            0.2987576755883762,
            -0.050909011837042176,
            0.13291194317041446,
            0.8215197844073023,
            -0.6737854995587642,
            -0.12765819486716895,
            -1.0333684322561094,
            0.48315788924351116,
            0.2727866518317796,
            0.7503505294529963,
            -0.18591736730332525,
            -0.2996461974074328,
            -0.8802520523459884,
            -0.7663950367666512,
            0.5953543323059728,
            -0.7219208670480327,
            0.8366685283781408,
            -0.8987598653232498,
            0.2649294125773158,
            0.5153687501266996,
            -0.1353177040443775,
            0.5256697527181436,
            0.10727810471676756,
            0.8497055128996757,
            0.08559838235345778,
            0.2606149821691139,
            -1.0276476216532353,
            0.7010929122210404,
            -0.29511265601652115,
            0.8030132081546814,
            0.49237666541503206,
            0.06849811810319455,
            0.6602114729859653,
            0.07950633738517845,
            -0.8482939745952546,
            -0.1341884360993276,
            0.17133672193410274,
            0.06600408684288939,
            -0.10295363232506141,
            0.24397338543149047,
            0.4169670446645537,
            -0.4246984749151665,
            -0.3611447664184338,
            0.9681672116376218,
            -0.19937043880584382,
            0.6830502071325747,
            -0.0861707725449201,
            0.5818639537042111,
            0.8995193137302508,
            0.2720421316997953,
            0.7426386998790504,
            0.3486494356548184,
            0.4153920884877826,
            -0.636882231553278,
            0.8590641275734369,
            0.04237686289191111,
            0.07556116953160709,
            0.07365905442543319,
            -0.7296622695313958,
            0.9607643677414743,
            0.7161332412963232,
            -0.6936430889370803,
            -0.7332658289700597,
            -0.7712039085670193,
            -0.06057653188322078,
            0.4467970846934754,
            0.9764312828094481,
            -0.5206292170033902,
            -0.510459192611043,
            -0.5208846491138054,
            0.7916098480397148,
            0.6549050334264294,
            -0.8731756022473453,
            0.3956864501162704,
            -0.1312806987457278,
            0.5787852111640623,
            0.7754238219446821,
            0.5782645604086134,
            -0.8610822029432256,
            0.4538447195440537,
            -0.7923276867953405,
            0.0020498171781297564,
            -0.26075952290615906,
            -0.8144588518654975,
            -0.29531283186978546,
            0.02498584318111784,
            -0.94776237867445,
            0.5849844854217514,
            -0.28169088590434094,
            0.6473036731742952,
            0.48013971127083216,
            -0.21849714371428525,
            0.09506036404153712,
            -0.8568374731200669,
            -0.34199360885911495,
            -0.4092046133273395,
            -0.20472879572985314,
            -0.8696744755034581,
            0.10850741793567624,
            -1.007284763919889,
            0.6276954845082858,
            0.7703242948890909,
            -0.2653440507440296,
            -0.453101638991478,
            0.2839121701029813,
            -0.6039747085355704,
            0.3284306626733779,
            -0.7989161356257642,
            0.7167256627754884,
            -0.7732831866410785,
            0.4501439571620907,
            -0.18466074074986333,
            0.016784719382340496,
            0.5367633860663487,
            0.13444878896530382,
            -0.9229229658040182,
            -0.07821005733638518,
            -1.0046871905747154,
            0.8636974328406228,
            0.4677603086564233,
            0.23346015488496277,
            -1.0227692899802001,
            0.34316586666536725,
            -0.8215083474249525,
            0.9455202624747117,
            -0.1674318216200125,
            -0.37654513690068075,
            0.617732664997466,
            -0.5218990654481152,
            -0.7265103867669381,
            0.13675600434215593,
            -0.3930951056344142,
            0.4596714939114812,
            -0.36380130036538993,
            0.32219834237585293,
            0.21897485505075445,
            0.47827072253064146,
            -0.823334461734294,
            -0.5727270895072605,
            -0.8805196603396195,
            -0.7938132262025374,
            -0.6783940772342165,
            -0.2294630163915929,
            0.5005796819096888,
            0.2725082572852277,
            -0.830498893568506,
            0.4037599090021807,
            -0.25454559642573177,
            0.6070085636605367,
            -0.31854437481881287,
            0.6295232647243418,
            -0.2992594291144937,
            -0.09048882481355726,
            0.028007211209307048,
            0.8245342407166723,
            0.29620208622783195,
            0.5705057129788446,
            0.13175696254698488,
            -0.3384059679415797,
            0.17628966560523265,
            -0.3868386174272891,
            -0.8315711385175646,
            -0.01728493621747557,
            -0.5882893423813855,
            0.0823859738411362,
            0.4423631479114941,
            0.7324019804591421,
            -0.045062928443601824,
            0.44044164721231266,
            0.6826178329593396,
            -0.8216960342609623,
            -0.15190654080879168,
            -0.12191497319880432,
            -0.019710779978156234,
            -1.0055584117338439,
            -0.3835040605835605,
            0.3593598776266373,
            0.050941670103534537,
            0.5716234893505312,
            -0.08849534660259054,
            0.6011808750121378,
            -0.474886338512853,
            0.6149182669561745,
            -0.2611472300371546,
            0.5318841708873472,
            -0.07352464894219815,
            0.6091279739161949,
            0.1293225502233466,
            -0.2754150054628286,
            0.5682247780128878,
            0.042303031897237775,
            -0.5090002479957049,
            -0.989860188099969,
            0.937313158060421,
            -0.6818721851653962,
            0.7506013461403307,
            0.3964189445546262,
            0.7076250054159725,
            0.2290686558197006,
            0.22464652000244126,
            -0.7628997145239321,
            -0.01376926209492798,
            0.7533735428074457,
            0.3348484127200841,
            -0.28091335441343906,
            -0.5974933178811865,
            0.9107659990574104,
            0.9313563769097751,
            0.4696392245739137,
            0.4019248519728344,
            -0.00042266628893193733,
            0.6860592438192599,
            -0.35721578179116553,
            -0.932965628335832,
            -1.0431686557779563,
            -0.6703260615195206,
            0.29129859370045263,
            -0.46832386050008307,
            -0.5027809058164353,
            0.38907728295516325,
            -0.5551737921802926,
            0.24333314697112293,
            -0.5991958011829682,
            -0.6472800648588083,
            -0.24764757812104668,
            0.5602641696804423,
            0.9204618801766273,
            -0.013413067645705854,
            -0.34143567728956853,
            -0.6125863799900557,
            -0.7130618273505096,
            0.007818437898224128,
            0.8862524411783868,
            -0.1901126029406487,
            0.812004596328161,
            0.8678167943424153,
            -0.2019559971659954,
            0.015895706415545906,
            -0.0956456484073705,
            0.24332843769629536,
            -0.7331725109295999,
            -0.40230471232372894,
            -0.4069663260214986,
            -0.047040694210029814,
            0.2175483564342789,
            0.4760818166926146,
            0.62294467301365,
            0.2015671291223873,
            -0.15556366126883914,
            0.4798840176507243,
            0.6119059680276266,
            -0.282853293293407,
            0.0888455417585349,
            0.7412010551556268,
            0.7350985605650182,
            0.8440152774993481,
            -0.996683443991246,
            -0.30850733644765455,
            -0.271019199149597,
            -0.03808279933612414,
            0.4164459587032953,
            -0.6086583070261722,
            0.6409547946936118,
            -0.40018497823450155,
            0.2776825614110368,
            -0.8680833957933601,
            0.9361322292691837,
            0.0786888571963004,
            0.045682961984395976,
            -0.7273837612723554,
            -0.6257433348696332,
            0.40638668776365966,
            -0.6694488358450458,
            -0.019893574646767033,
            -0.5089144084270223,
            0.33430598955474294,
            0.6703233684559836,
            -0.9193416487268933,
            -0.44391502606502015,
            -0.773253293075453,
            -0.9135673066299428,
            -0.5304801643269151,
            -0.03936219656587246,
            -0.1574838447428456,
            0.38974983657389245,
            0.9215606114325134,
            -0.17486528770863308
         ],
         [
            0.139836888079981,
            -0.32391998922191706,
            -0.4600669502685733,
            0.23376714036018684,
            0.24042093875815432,
            0.23071542633862327,
            0.4598247110172236,
            0.07709554188513068,
            0.011815702232607852,
            -0.7626184020363878,
            -0.159178403462548,
            0.25553343211412954,
            0.3330374331882881,
            -0.13774498161697565,
            1.0045870617408295,
            -0.605156962609587,
            -0.871001613690441,
            0.20924728059428646,
            0.5610905121686327,
            0.4362526939626373,
            -0.21895525373436395,
            0.5402743198356332,
            0.7790549040506212,
            -0.26455337224431646,
            -0.05804396403650902,
            0.3419660304856483,
            0.8291006607104328,
            0.3058465930806646,
            -0.14744088708566053,
            0.348971490102251,
            0.7345461771374484,
            0.31825503704149,
            0.8498454556359478,
            0.8682608577233066,
            -0.7614839420659729,
            0.9561252798947645,
            -0.5738937107339184,
            -0.5476374816493882,
            0.33504297077022216,
            1.0713303682071547,
            0.29692152678910805,
            -0.08946501946532312,
            -0.6011859013153831,
            -0.5957320793979837,
            -0.11910765729106235,
            -0.8309878124684468,
            0.492883092802726,
            0.072330270796821,
            -0.6754575644117121,
            0.8636634183916616,
            -0.3195167330600402,
            0.20339362847077005,
            0.21917022993585736,
            0.26797283788787424,
            -0.752801941127847,
            0.3209856180307828,
            0.2741608198257513,
            0.5087419913499793,
            -0.2167382809300176,
            0.6369225090996669,
            0.6442379503715332,
            0.2095316391280916,
            -0.22301767375648265,
            -0.33735551882263753,
            0.9311820174704989,
            -0.3560036596949735,
            -0.5652680021599901,
            -0.24163085796685047,
            -0.28413881706503197,
            1.077243390054177,
            -0.29647799778589434,
            0.8078191804231755,
            0.7414529579887217,
            1.0636930874711295,
            -0.5555254196898576,
            0.6918494333605779,
            -0.8995265234616633,
            0.20495756880021707,
            -0.8674500852644642,
            0.9609755343812224,
            -0.5290099949348388,
            -0.65626356362843,
            -0.17242665483753525,
            0.9271368979066892,
            -0.8552785980499646,
            -0.2983180280132249,
            0.8593120874112752,
            -0.5629127229797984,
            -0.43918846890128665,
            -0.3769278152314784,
            -0.2914863635621065,
            -0.28673563865864415,
            0.8361020374698407,
            -0.06627303119894905,
            0.9255289068686131,
            0.7087480405421117,
            0.22162511654260303,
            -0.7628618207363888,
            -0.8802999983881663,
            -0.28058982602743454,
            0.6730827067330027,
            -0.9396659117678527,
            0.10034460122578695,
            -0.3801173157972333,
            0.004636975393086846,
            0.2363839306120878,
            -0.3246126265881575,
            -0.42261116110426566,
            -0.6736020990726549,
            -0.8686754143972598,
            0.8348786687664175,
            -0.4233510835183654,
            0.9323250025677403,
            0.458844820280849,
            0.6374708488267112,
            0.27538577062762004,
            0.3242689659208288,
            -0.46564073437423104,
            0.5042243520716978,
            -0.6269657918129001,
            0.9071000844253396,
            1.0831746154222233,
            0.5272508432265665,
            -0.4783167490599135,
            0.41461220569509977,
            -0.10145580676418192,
            0.0703314588346838,
            0.45250472804235,
            -0.5630289685839248,
            0.6496125394338641,
            -0.43873618682863824,
            -0.15427486746322694,
            -0.8939688710761203,
            -0.9486335444284141,
            -0.696691970793182,
            0.6033931683192976,
            0.927555233331123,
            -0.37588914920573874,
            0.2562917308139275,
            -0.8728241311284857,
            0.6537683224744855,
            0.8413632947089862,
            0.8476993542524125,
            0.898107955313259,
            0.7967941601302894,
            0.043262594182864704,
            -0.25850232216639013,
            0.10121640949155045,
            0.31062229039179223,
            -0.18395711850192642,
            0.5707351506820327,
            -0.8357676691161616,
            0.24061450062984382,
            0.8972400442239157,
            0.17585172025279341,
            -0.3802101475823538,
            -0.2736452825981954,
            -0.22641364781365314,
            -0.43533934661254614,
            -0.41821663489259087,
            0.26396576701262237,
            -0.16205119194056378,
            0.492221321694681,
            0.9428553042605112,
            -0.5335753609413276,
            -0.3667923713246393,
            0.7247523965624958,
            -0.5343232230822657,
            -0.8614306434985497,
            -0.08406832646694948,
            0.8555314800567608,
            -0.18535291154528677,
            -0.5345493989798745,
            0.9778334772943548,
            0.07093716870885867,
            -0.23315464854122503,
            0.13326774162523133,
            -0.6531088892189543,
            0.005659732701611694,
            0.2626633980891145,
            1.0364568990728824,
            0.09425870418647239,
            -0.12234095072200132,
            -0.659489326389358,
            -0.30679442013871333,
            -0.7424207628409472,
            0.25722822790221717,
            0.15426609284933332,
            -0.12447459146082034,
            -0.7222579114945128,
            0.9787019789794092,
            -0.36754225740317625,
            1.0050078113825787,
            -0.3063167699223518,
            -0.13399036572070172,
            0.22500413085184454,
            0.17992856091944384,
            -0.33996321144873803,
            -0.8604116000726632,
            0.016297540430752263,
            0.6226179412436851,
            -0.33041431332420906,
            0.26485459267741013,
            0.865565021854533,
            0.5347920509757116,
            0.15491231152436122,
            -0.7314662519822916,
            0.8804949081833213,
            0.4510115374876945,
            0.8538975469096843,
            -0.7542943266677696,
            -0.9683130485736352,
            0.8369539759362937,
            -0.2176185724667051,
            0.61124051133944,
            -0.8248107307233242,
            0.396433047110514,
            0.941217669124275,
            0.05041022072284152,
            0.9548888188430343,
            -0.35156260310406184,
            -0.6713515180472694,
            1.082478046428253,
            1.0684688102864053,
            0.8323681993251324,
            0.011051881138553472,
            0.8524636331806114,
            0.6842831423640863,
            -0.18663837436751962,
            -0.23232054711160707,
            1.0320029788555567,
            -0.1408911762835106,
            0.7864884689934083,
            0.10824634789521854,
            1.1533743771289322,
            0.12453949351662838,
            0.8081217532991559,
            0.6813713071868281,
            -0.12828445727834456,
            0.6983665525369024,
            -0.7900655954910782,
            0.16767166645967926,
            0.953028671284446,
            -0.18948271535297237,
            -0.4281334115455638,
            -0.8912920544469803,
            0.7588420231770187,
            0.985336192443821,
            0.9235224705579544,
            0.07594494347315706,
            -0.771044184412817,
            0.7620925127903231,
            -0.5302862830420891,
            -0.3030521660323789,
            -0.6450757128093818,
            -0.8057852943547905,
            -0.36318182883260897,
            0.19697142916465152,
            1.083565730055302,
            0.7348310388618725,
            0.39765449549493154,
            0.41033120125616646,
            -0.48834889500721845,
            -0.10274748315085148,
            -0.6118634229439073,
            0.39344573016873025,
            -0.9329998131397647,
            -0.3051847280215303,
            0.526531517350844,
            0.738468740227073,
            -0.5420853233498425,
            -0.49638323639242077,
            1.0320552206894447,
            -0.44910278726098873,
            0.8900840442473384,
            0.4086131634161528,
            -0.3518676718611674,
            -0.17014255825787222,
            0.6117968627156819,
            0.9643295492487804,
            -0.1646158445554778,
            -0.7734220805599837,
            -0.5618749479286401,
            -0.7225564556263193,
            -0.7831412659050172,
            0.9753972936973162,
            -0.1973017050318112,
            0.2909083515947226,
            0.6205411206688826,
            0.3369475493595626,
            0.7776628591173466,
            0.9889988198100562,
            -0.3875467091241848,
            0.031187601060183895,
            -0.6284253088874698,
            -0.24453965435568528,
            -0.3744341053270641,
            0.10732986423858304,
            1.173967531846459,
            -0.09846298021677088,
            0.9149675995181461,
            0.02344072511525428,
            -0.6193115586688764,
            -0.16634023078338825,
            0.7544132602705116,
            0.18234607911530928,
            0.705114589286828,
            0.9368808839656994,
            0.12459112343044154,
            1.0858967654011513,
            -0.08130423568421138,
            1.0745760834555733,
            0.09882868779874228,
            -0.22062199817463843,
            0.7999114004680941,
            -0.4731526730940207,
            1.225524330043423,
            -0.31380615662067796,
            0.9105914300013164,
            -0.475534800019076,
            -0.3513272766633153,
            -0.6420808447438168,
            0.9717594410079734,
            0.5945543076019958,
            0.9066267359292667,
            0.2572296722799598,
            -0.5504079505218197,
            -0.7556909436254889,
            1.0884428982136938,
            1.0060677084133478,
            0.10364605293291962,
            0.48843968576250035,
            0.1914417099086049,
            0.43249310748377834,
            -0.4051883319259729,
            0.5100462916682295,
            -0.40704289797217535,
            -0.5106643358762604,
            0.5966711465981986,
            -0.7754846294897342,
            0.2676863709575696,
            0.4595041951448582,
            -0.3578917527751637,
            0.41226967243545176,
            -0.7524311529537738,
            0.7177077744138832,
            -0.37113145037364415,
            -0.04256583816728636,
            -0.22800250191644233,
            0.994315622173937,
            -0.09939719086730128,
            0.8081644977313912,
            1.0263803300525791,
            -0.23365120798073405,
            0.8971689254198881,
            -0.617229650356366,
            0.09510513488509519,
            0.6994350418828507,
            -0.2703274049792229,
            0.6776849720736834,
            -0.3433370305179315,
            -0.366847952045862,
            0.40810047802304233,
            -0.3603457268047973,
            1.0568902016253912,
            -0.03519401851607948,
            0.45775970968983587,
            -0.03157530480001066,
            0.5408728873811096,
            1.0469779865952433,
            0.9728439104420696,
            0.925046727521883,
            -0.8432274172705526,
            -0.5538307976942002,
            0.6084589542469936,
            -0.030651848003051565,
            -0.8281502886499053,
            -0.2099368324061991,
            -0.33203573861656893,
            0.3835695491730762,
            0.6453648565312426,
            -0.1512155405420634,
            0.9457004720895715,
            -0.32119906234862866,
            -0.2655187617241655,
            -0.7126983937783263,
            0.5079731217840919,
            -0.5907095708616956,
            -0.14189656094155004,
            -0.5362720979010225,
            0.13050654204093232,
            1.0993730463104026,
            1.0055396148086677,
            0.1899512709479008,
            0.5808811454456076,
            0.19248552373496608,
            -0.5380444855878211,
            0.43998312647335497,
            -0.9142010703909764,
            0.4000420754598799,
            -0.7059117934414064,
            0.5211518231223161,
            -0.5319449477864032,
            -0.8947802045906224,
            -0.9478184513622524,
            0.7021805691326994,
            0.6241060542191651,
            0.8349728748701727,
            0.09525305568439985,
            0.15369860180213996,
            -0.44978309837249775,
            0.03502988277193649,
            0.6923195046717795,
            -0.34524246503601397,
            -0.15068892214276122,
            0.541970854593087,
            -0.32332346145245977,
            0.06260468494427597,
            -0.7252332692733423,
            1.0929377694079836,
            0.7710112960555606,
            -0.23745239477506716,
            0.3023659415597415,
            1.0970949869467186,
            0.009462254380987833,
            -0.4599320230185544,
            0.7311837277575219,
            -0.24433658993277066,
            0.8476786933437701,
            -1.1073052253685929,
            -0.8893433706176244,
            -0.8391206168851669,
            -0.38807182318517824,
            0.8050747852230861,
            0.8657953987623269,
            0.7519333823923708,
            0.7929660821443079,
            -0.8949418268537583,
            -0.9381210604945623,
            -0.6099389984486594,
            -0.5115858878535093,
            0.11618250477065761,
            -0.9074799892066876,
            -0.3802260883261826,
            0.4660181396001955,
            0.3886342721365067,
            -0.18885893551464386,
            -0.17400709746258142,
            0.4360219971731531,
            -0.33563982984840496,
            0.2733175993284205,
            -0.13807278220716654,
            0.619463128410645,
            -0.1255983705400687,
            -0.07273533806768341,
            -0.35994637363672755,
            -0.7033793274222012,
            -0.4389120314755142,
            0.7193534447563087,
            -0.714988766207975,
            0.09404439825669522,
            0.6170801337735805,
            -0.5401674202800094,
            -0.45084778844539414,
            -0.5291350510288289,
            -0.7614547989604246,
            0.5817974961566661,
            -0.9084204196448117,
            -0.24792400616554344,
            0.0693379126965897,
            0.5002149414298991,
            -0.5328018771493586,
            0.5572252188615081,
            -0.5930552763454515,
            0.572393992808402,
            0.16367334219787424,
            -0.5435207392859784,
            -0.8585277256499306,
            -0.808502767490436,
            -0.5470167717824663,
            -0.7133953382501991,
            0.4482284237220842,
            -0.4089192814742248,
            0.07508906853818169,
            -1.0087826446662747,
            0.6919432006280786,
            0.3593196427278202,
            -0.45860593207549605,
            0.6878577380642263,
            0.40165283185478323,
            -0.07641536599308858,
            -0.6024149836250526,
            0.04299000481402838,
            -0.9286038591419454,
            0.3293709162995828,
            -0.9180453134498314,
            -0.29758344734787695,
            -0.25520711216137776,
            0.319292858528175,
            0.9683753315119243,
            0.1789789063097277,
            -0.21960768641896497,
            -0.11046515080677821,
            0.49442071099195195,
            0.48592915558549715,
            0.3469398855903226,
            0.2394607504612078,
            -0.5688493565339822,
            -0.5313605762707719,
            0.49725011019458415,
            -0.2607301013008847,
            0.7677629037273314,
            0.9043897897626384,
            -0.2572156089416266,
            0.001880256382069563,
            -0.1875628629871953,
            -0.19464363256313102,
            -0.20537382759868678,
            -0.4575922065512571,
            0.8241864119261847,
            0.7512289144218028,
            -0.08067033976065954,
            0.8429574493460686,
            -0.722101004829026,
            0.44440840873569554,
            -0.09996280999383661,
            -0.13353511288073008,
            -0.17103722242970076,
            0.5855901336198076,
            0.3750578556980544,
            -0.6978220160176442,
            0.8760904411021544,
            -0.781830097063015,
            0.16800663553686276,
            1.094251505304789,
            0.9104337033492269,
            -0.24462430404162955,
            -0.6061013034475645,
            0.5303039707947605,
            -0.31608316409057535,
            0.7291949043729586,
            -0.3378203612723817,
            -0.7162479398909435,
            0.21286804031112755,
            -0.11826974841751527,
            1.0386879667612727,
            -0.39512823010270587,
            0.5012081964316628,
            -0.8714836259071147,
            0.8410763626493283,
            -0.8478186429077463,
            0.8812712041294138,
            -0.7671318612282831,
            -0.5517647975929368,
            -0.4148145338198575,
            0.3076984011259413,
            0.3993139244563257,
            1.007496731821353,
            -0.22961504542158828,
            0.30862383792046455,
            -0.32029000747093955,
            -0.4598724411158052,
            1.0307026381928397,
            -0.9220170152488368,
            0.4710288364608225,
            -0.17661993920646696,
            -0.4352501801788435,
            0.1540236743442765,
            -0.5045514347563814,
            0.8087601110692976,
            -0.25123177375317113,
            -0.0626245401205584,
            0.23242324838949688,
            0.27766149121417133,
            0.30724301586495384,
            0.3172140627094551,
            0.4937061213181291,
            0.35115133958073813,
            0.5968782355841051,
            0.9133161715531743,
            1.0755829762518316,
            -0.1200139501223156,
            -0.3145700340662494,
            0.2461793640797042,
            -0.5976347897700671,
            0.876042141857541,
            0.08455941331049321,
            -0.06779093283222723,
            0.7784174387845599,
            -0.1888372140503227,
            0.5221898823799968,
            0.24487207963508575,
            0.9007645504052215,
            -0.6099398596924018,
            0.632438297145172,
            0.3219499891521777,
            0.365705347976389,
            -0.5039939448258418,
            -0.37688651854059085,
            0.6493394820082433,
            -0.8250531412893529,
            -0.650240421435205,
            0.8818742906190661,
            0.5673978437338609,
            -0.21280208380981738,
            -0.03979475764068062,
            0.02140191666497188,
            -0.5429672171962979,
            0.32594586843583817,
            0.5413120655572687,
            0.606329032179424,
            0.7470670721196015,
            -0.3611650934425909,
            -0.7685193272617469,
            0.6229765105401076,
            0.1697181116665725,
            -0.2008210283059715,
            0.19840408206546498,
            0.916199434027948,
            0.8990242515550413,
            -0.486363497021075,
            -0.2967588378768226,
            0.6219790010785933,
            0.552887819979496,
            -0.28719857777358027,
            -0.7202245365110163,
            -0.4244438411662142,
            0.6579560798417536,
            0.1971750919148875,
            -0.15616733654545337,
            0.5136341702217913,
            0.5118507977422895,
            -0.7529250777571381,
            0.53340719624385,
            -0.8338978794988272,
            0.35071332788023313,
            0.02669812981282594,
            -0.2948269668699295,
            0.7394683228798681,
            0.18276587046878523,
            0.24658991161777843,
            0.052867692268197826,
            0.1909434511172761,
            -0.2563751179823992,
            0.28080293811290674,
            -0.4673554749538498,
            -0.6467558312279471,
            0.8782198522554259,
            0.2332470345444427,
            -0.7216601463780128,
            -0.7852819268352534,
            -0.5563409757513547,
            0.6067369307328363,
            -0.7068473903347231,
            0.1461847646460202,
            0.0647722052981466,
            0.8027243985523113,
            0.5433092821638811,
            -0.7115533938551817,
            0.40136775194872054,
            -0.45460234203007865,
            -0.7641398867343011,
            -0.6976652930547754,
            0.5013929537539863,
            0.16988589768118653,
            0.1322713526997515,
            -0.49227378829886886,
            0.4270220924757119,
            -0.5011355055624045,
            -0.05167905582792365,
            0.6368332200000801,
            -0.5451979624043375,
            -0.4809475242807914,
            0.8137218541155733,
            -0.3450768373604807,
            0.7843467047280864,
            -0.117927235209937,
            0.6447841605105094,
            0.6843203882124198,
            -0.0563922675016058,
            0.9718958305973878,
            0.2248912609290351,
            0.5391934678852063,
            -0.5711146661567427,
            -0.11464939577405964,
            0.9213694987184545,
            0.7798151152118743,
            -0.625937853632632,
            0.6741117080763797,
            0.03295885270846368,
            -0.030706405556627462,
            -0.48675214221945834,
            -0.4585698499887528,
            -0.01975351084815242,
            0.1523056775275803,
            0.9883945113036582,
            -0.17196899921844777,
            -0.4814884468360889,
            0.9428515775432984,
            0.48087355004668547,
            0.6007925148695783,
            -0.7174183113870074,
            0.9292678335246856,
            0.6669915460310198,
            -0.11124318563983646,
            0.26155929223209545,
            -0.8780855724946891,
            0.7333551112036525,
            0.0045126807155023065,
            0.4183694961868052,
            0.6001256907266361,
            0.7013531621703376,
            0.47785381284337974,
            -0.18560454619190678,
            -0.7713094152371305,
            -0.3143158627115164,
            0.8154692095655266,
            -0.2298096457823397,
            -0.20850045106633203,
            1.006602998965816,
            0.14644453130176455,
            0.5692005328813572,
            -0.621112464703321,
            -0.19916644257010543,
            -0.8147728711097315,
            0.4996976751159561,
            0.46697337618799145,
            -0.037207333575577775,
            0.8406596514841034,
            0.2719046377161752,
            0.1563303799075644,
            0.7607817022269245,
            -0.4631878584079729,
            1.0556483255377136,
            -0.14993469744212265,
            0.8009777316563713,
            -0.29861985068247626,
            -0.4846527563336746,
            0.33789372804898216,
            -0.46487270476978787,
            0.5516107180835079,
            -0.22948568097032565,
            -0.8019384868894801,
            0.05469793791223212,
            -0.8077125750789078,
            1.07430401755578,
            0.21431700856932448,
            0.1377456328219922,
            -0.08220090524662155,
            -0.45582260122702056,
            0.056725992270205874,
            0.27163608150231455,
            -0.681034698807834,
            0.4184794260893127,
            -0.6192692117552299,
            -0.8029131500569124,
            -0.5938074752138838,
            0.2303453342296,
            -0.0599076221164852,
            0.09068585870754489,
            -0.31512087763624447,
            0.19087871828902828,
            -0.45688273352775277,
            0.4867056433359803,
            0.819846037402197,
            -0.8153480042278063,
            0.2707717163234359,
            1.0353797764000234,
            -0.09445645025636672,
            -0.28171867136132017,
            -0.45148285418883044,
            -0.7530191464727766,
            -0.35833473462965865,
            0.5791893423079573,
            -0.5188216935257313,
            0.9784993850618393,
            0.39966134681112975,
            0.6289168108973515,
            0.8388108590892933,
            0.45434421562483945,
            1.0063816825324843,
            -0.5697769472263756,
            0.6645133020097456,
            -0.17207298927655781
         ],
         [
            -0.008458174477242156,
            0.41047459629610794,
            -1.0597159460165049,
            -0.6988021490210462,
            0.5068425187460938,
            0.07251058058756432,
            0.3797657808061625,
            -0.29861911679362096,
            -0.6335747636297676,
            -0.9433035387939729,
            -0.8909017993787537,
            -0.2713657013941825,
            -0.5538058236941282,
            -0.7622128965161118,
            -1.0896349025313232,
            0.5507414303810082,
            0.5356048254429694,
            0.15984383337335606,
            0.5183521063855333,
            0.5215888141804329,
            -0.6051958661390774,
            0.46539010208201415,
            -1.0583418333074328,
            0.5109104077483716,
            -0.23256192666772846,
            -0.9216911739496826,
            -0.6687096697000022,
            -0.735430584323162,
            -0.07252853197036521,
            -0.8639243758744045,
            -0.03555505409519137,
            0.5208820480034916,
            -0.2568539550759734,
            0.14942498557968908,
            0.7832394279378622,
            -0.12535520195704122,
            -0.8180853100365494,
            -1.1460687440101793,
            -1.1475244085318486,
            0.4420418037459194,
            -0.00651535330549275,
            0.1285648349966865,
            -0.19230818395514798,
            -0.2952550546628102,
            0.4263570681101756,
            0.10265530603037437,
            -0.8653307621904104,
            -0.26296286885138576,
            0.4532639787945031,
            -0.14450716071304232,
            0.4804788702534758,
            0.3953283686235639,
            -0.6247172934596891,
            0.18179060993122725,
            -0.868618799705622,
            0.45967938499652927,
            -0.8210941233372714,
            -0.06985585454259388,
            0.2652765092294821,
            0.25750222849272264,
            -1.0442598917643657,
            -0.3365897617377681,
            -0.3069971737065559,
            0.26752799059087473,
            -0.2973720003442284,
            -0.07727411105104445,
            0.22613005102954473,
            -0.35185589839291403,
            0.49455781330754617,
            -0.2922903824783862,
            -0.4113978437321011,
            -1.1143563611303982,
            0.24293033728452798,
            -0.4969151396575547,
            0.3430017494567098,
            -0.9231909205080445,
            0.10959767808768815,
            -1.018207291118085,
            -0.40741127364639057,
            0.3160141153681809,
            -0.9628753470461352,
            -0.6421414019617578,
            -0.4188918211233682,
            0.09043509401142955,
            -0.8579840962580615,
            0.457682929846395,
            -0.6647852921001515,
            -0.6056239947835235,
            -1.0202329717609282,
            0.6948497168336826,
            -0.9391345010225108,
            -0.05078835318524259,
            0.08219960354547598,
            -0.8137081202828981,
            0.7558408229309674,
            0.6285493908299673,
            -0.31765260469478773,
            -0.026171685381202143,
            -0.7476161990807535,
            -0.666177639913669,
            -0.47326778359597943,
            0.5809799942697182,
            -1.0147992358665603,
            0.7826847740157665,
            -0.24919941675297136,
            -0.831497790202173,
            0.5917146180958718,
            0.717962868271342,
            0.4446228436033703,
            0.5194427479540132,
            0.3362014696092171,
            0.3837062728454138,
            -0.10620997527418638,
            -0.37765288300980737,
            -0.1706575389458811,
            0.782270605311307,
            -1.1245035083935124,
            -0.8061212078482338,
            -0.7619215766349563,
            0.4190673914531118,
            -0.5678138305462646,
            -0.6465436472199046,
            -1.0066283808372312,
            0.19379741057720842,
            0.4466382491590127,
            -0.8574725411484939,
            -0.17882229087263932,
            0.8033245206806099,
            0.19660829558757595,
            0.7368337640889451,
            -0.031898592250375224,
            -0.07599521056485617,
            0.7804657039513063,
            0.721424322477929,
            0.32001602038521376,
            -0.4837605331913771,
            0.6860636604721054,
            0.027818851470252225,
            0.2273342411004356,
            0.47605126266225983,
            0.479882825490652,
            -0.1409675154259798,
            -0.817656640675117,
            0.37536798527183757,
            -0.020254197721658755,
            0.5936657457472525,
            -0.34080421978579467,
            -0.7751844509874357,
            0.47201354196803413,
            -0.9774781099805296,
            0.5761122147998682,
            0.22191583761278746,
            0.6625194147044756,
            -0.32116381066813704,
            0.12821480366813465,
            -0.7401954250384419,
            0.4763886840128025,
            0.3687219278582265,
            0.6453546095358177,
            -0.16690208881452248,
            -0.13039468979992241,
            -1.215547199363042,
            0.7231536435351384,
            -0.6032388832579064,
            -0.7884438331278715,
            -0.6545529398803493,
            0.6635128334770845,
            -1.000434064661334,
            -0.573758000159288,
            -0.679478383362531,
            0.42899678415919207,
            -0.15396275872963894,
            0.7470354034898475,
            -0.6111615247058719,
            0.13981161486131338,
            -0.8545315111876077,
            -0.7673263216398843,
            -0.7084229415976708,
            -1.0179930404077981,
            0.8853493244426355,
            0.8160962922160067,
            0.2972887024077947,
            -0.16962699422854133,
            0.17802635451193288,
            0.4470566520820799,
            0.24183724348683694,
            -0.8500276003459677,
            0.8135376108818629,
            -0.6763372806178067,
            0.6675172569228892,
            -0.7036594866388511,
            -0.23702526667169474,
            0.4308733325834938,
            0.12029540926313684,
            -1.109840588697986,
            0.06493661716141562,
            0.203643461483553,
            -0.11520133584405748,
            0.6792032274294494,
            -0.858733795748146,
            0.002340392962999844,
            0.316768199631341,
            0.545524468941021,
            0.40932136310864503,
            -0.06777088976820546,
            -0.2522104937009731,
            0.677370881553059,
            -0.8933716107470756,
            -0.8910515636692735,
            0.5992065034235243,
            -0.35147930571520125,
            0.6651466451177485,
            0.5475617277241511,
            1.0049448803789829,
            -0.4536660187527676,
            0.7440358530433028,
            0.22471525425825545,
            0.44334481045085533,
            -0.7871098512295146,
            0.2281990105038569,
            -0.9279793414474806,
            -1.1761261785343449,
            -0.14612990175000765,
            -0.3215057318467731,
            -0.4594615871685701,
            0.41496370891651246,
            0.07268131317121485,
            -0.37129907916113675,
            0.71711354572707,
            -0.49539471870067914,
            -0.7295476680789678,
            -0.6685467842782843,
            0.06585614569423628,
            -0.8865791756496179,
            0.0007940258415690894,
            -0.227013852049877,
            -0.22334912817083521,
            -0.8692928136341185,
            -0.5548915604289746,
            0.32499485566124037,
            0.8832721616059489,
            -0.18761613388705645,
            0.37003167513471263,
            0.516547937259373,
            -0.36742690979433273,
            -0.3417942041315019,
            -0.5811200575898502,
            -0.23555918128091632,
            0.11993866631084282,
            -1.1769612550539874,
            0.6598471219152364,
            -0.9179740192988531,
            -0.16499779480906274,
            0.16907898267965205,
            -0.21329991756520472,
            -0.6413059884657413,
            -1.0299144610357853,
            -1.0309216273558632,
            -0.32736041153379086,
            0.6828690285365242,
            -0.47875144319036245,
            -0.08269417375559955,
            -0.580837056506837,
            -1.1621315188833907,
            0.5316029405704128,
            -1.0687964242539085,
            -0.24009686750339385,
            0.18131300983656778,
            -0.21374724699198783,
            0.2272960149165347,
            -0.381127281116538,
            0.16016148206638536,
            -0.7966576398531977,
            0.11204517222934315,
            0.6677489494203304,
            0.866471269527971,
            -0.5105118653715152,
            0.6624059529046833,
            -0.3506508703648397,
            -0.5583999472143707,
            -0.8595728654870963,
            -0.753073875639415,
            -0.9306704087612558,
            -0.8999465555083934,
            -0.2879941643552202,
            0.8468336367755362,
            0.15462643959645542,
            -0.09116964337159016,
            0.6087512251827705,
            0.388281020053103,
            -0.28879238230757326,
            0.6270651204580199,
            -0.10224949379310218,
            -0.5950843370869467,
            0.7365126009925493,
            0.13386812677192397,
            0.5792867431143844,
            0.633035195756837,
            -0.37179763528551374,
            1.096760183038768,
            1.0371838131283229,
            -0.757746826172605,
            0.3558863524427761,
            -0.4957893133752396,
            -0.4291660322874976,
            -0.4582543543846142,
            -1.12163894318164,
            0.7846993368833516,
            -0.3326305326098208,
            0.5819489585396344,
            -0.37358420524448277,
            0.5880392151914126,
            0.5349433617719879,
            0.8423752279670885,
            -0.3225315541800204,
            0.12026024542862558,
            0.08091983808991261,
            -0.9659523393708571,
            -0.6692064958407595,
            -0.4944131403455786,
            0.4344502984291874,
            0.5626338342932551,
            -0.5146807421436598,
            -0.49756357012936475,
            0.7235522217520166,
            -0.1055184587960102,
            -0.6453297507902432,
            0.9764572869027123,
            0.7649410506366585,
            0.871408498713439,
            0.956375307228095,
            0.9101888033171092,
            -0.41156216149032404,
            0.40626172614848693,
            -0.8515598986624033,
            -0.7465107155799563,
            0.43963675272602365,
            -0.4218383937952311,
            -0.5794213615260292,
            0.4814012174915113,
            0.7830615750843829,
            -0.6949963396806134,
            -0.7716169666342283,
            -0.6031850645994389,
            -0.20776104711107407,
            -0.22579925309927124,
            -1.0227712401708204,
            -0.3579443468768307,
            -0.37612629402578024,
            -0.4249007296814615,
            0.8121028663040467,
            -0.23519413713930826,
            0.7520727975197001,
            0.0650855111537552,
            -0.07214909770532019,
            1.0098090698173112,
            0.7098084393623598,
            0.46982612056100787,
            -0.7185322116088952,
            0.12700571371810898,
            -0.5790345792429917,
            0.2658598596058671,
            0.46951657546487435,
            -0.7599092913684379,
            -0.051487562455407684,
            -0.19866748388477912,
            -0.006643978247240415,
            0.33948991748176954,
            -0.004076777280974856,
            0.8244302647751447,
            0.32478592457856775,
            -0.8849521086112674,
            -0.24066723215507013,
            0.24372355741096394,
            0.1322171130205617,
            -0.9018873714575696,
            0.9955867025418399,
            1.1071858027642756,
            0.8317493310361899,
            0.4738944969422485,
            -0.8367392547388138,
            -0.08798585448047384,
            0.31242195636825004,
            0.4730854153795021,
            0.1914655386841276,
            0.7199170720114668,
            0.44406565191535174,
            -0.5302724617922631,
            0.9169807142889026,
            -0.4751181645317492,
            -0.44236173961838376,
            -0.8429013909255144,
            -0.17826920483247927,
            -0.007883982272861233,
            0.12383921227594467,
            0.32310603598360144,
            0.4844245946451683,
            -0.1739016536345744,
            -0.03546081884801321,
            -0.9074414126733423,
            -0.4558016244160142,
            -0.26928084348375797,
            0.5622909175294285,
            0.14617598940724116,
            -0.7532764682741604,
            0.8168367099105449,
            0.8937944221709114,
            -0.20799994736053926,
            0.3443910872263375,
            -1.0452722619830956,
            0.177154926979414,
            -1.0777065183834376,
            0.7616774065705183,
            0.7278537409836755,
            0.42249853973290513,
            0.5877409755006782,
            0.5514882887592562,
            0.2819914062456768,
            -1.0071075881107068,
            -0.709043399794376,
            0.44116380461744187,
            -1.0413336268437048,
            -0.6641893548491141,
            0.814683626541232,
            -0.6652514123490373,
            0.24488561922576632,
            -0.7798642635374747,
            0.8252180377051296,
            -0.9691449269422577,
            -1.1603045921340884,
            -1.0913547332247309,
            0.755477529454686,
            0.3832890898522545,
            -0.42469031147555997,
            -0.2089128071034244,
            0.1254340801371828,
            -0.38301883943258164,
            -1.1804429496776647,
            -1.011524538747776,
            -1.0055440652194216,
            -0.7287544619532726,
            0.16697324431900984,
            -0.8401725670553296,
            0.45891269411008556,
            0.617522838045195,
            -0.8788480722956412,
            0.7827403793734632,
            -0.6254627058902134,
            -0.18041470407259025,
            -0.6620848301076031,
            0.13052339212626066,
            0.3375625064574597,
            0.6356922058545914,
            -1.0243864558748452,
            -0.3949779317611717,
            0.7421023575955232,
            0.05968415840884633,
            0.29652850777244494,
            -0.2456741389444987,
            0.050041769862771444,
            -0.6253613936829396,
            0.2670917554430456,
            0.7280043317047475,
            -0.050828414791335395,
            -0.7119565603603056,
            -0.3363278857364317,
            -0.8048166144209561,
            -0.6670134835556052,
            0.7666504811114624,
            0.23332368110584253,
            0.6667469182187992,
            0.8624522673180942,
            -0.5640276918892148,
            -1.1107899833253885,
            -0.4785658642296412,
            0.4450818333814614,
            0.034403173425607864,
            -1.114218163728495,
            0.4701113801729601,
            0.7966371437399158,
            -1.1016735710607495,
            0.6280305879200417,
            -0.9455311825114375,
            -0.5648655780640999,
            0.2212537002267446,
            0.506486568563275,
            -0.9720171181956623,
            0.1556369078561875,
            0.21142798050723752,
            0.8170987524207439,
            -0.7576143899171174,
            0.424867185850831,
            -0.015087212038080276,
            -0.9485732136656662,
            -0.4235477657029665,
            0.0932995013121865,
            -0.344489139674922,
            -0.35167432603538223,
            -0.4325300653948596,
            -0.41182524918064295,
            0.1559221809843236,
            0.43781476838527633,
            0.5694585359910466,
            0.41408898044701664,
            -0.999392002267515,
            -0.6498528551848838,
            0.07898081267487676,
            -1.0163966642241113,
            0.22029213218459234,
            0.19118375643020583,
            -0.4946757728779339,
            0.3469831259794794,
            -0.6258746269562449,
            0.6911870739407376,
            0.864930359101159,
            -0.15107997669498627,
            0.504703010177505,
            -0.3543622984451072,
            0.3300755170200957,
            -0.32888431807945245,
            -0.4318668329362549,
            -0.3974534000385961,
            0.8282193149905915,
            -0.21413383001161004,
            0.32074281167495466,
            -0.813879544605579,
            -0.7216880599516294,
            0.22787363230634772,
            -0.738462273849287,
            -1.0186228620731457,
            0.2810220669379151,
            0.33809776010108944,
            0.5651899774844972,
            0.31143644127864145,
            -0.1365934485186121,
            -0.45028474108769073,
            -0.3385825346256088,
            -0.969539399747249,
            0.61998113383371,
            -0.9377318742873574,
            0.748058555848732,
            -0.15272275943333793,
            0.27355455501612,
            -0.4697190101812242,
            0.21541649336127622,
            0.23191608714188547,
            -0.003944188805593154,
            -0.10479068524763209,
            -0.7998162952075163,
            -0.8211958738367182,
            -0.4977270850276645,
            -0.15116937609291753,
            0.5615476682828718,
            0.17902918109736754,
            0.22232705752029064,
            -0.4959280573612374,
            0.662675621612088,
            -0.641735809799287,
            -0.545816117803698,
            -0.315279970622378,
            0.224745426473336,
            0.5602814938157074,
            -0.45441745332901357,
            -0.9376821227554256,
            -0.3856390643549739,
            -0.17468026175816648,
            0.8836180870019473,
            0.7534333692287885,
            0.042596299710214676,
            0.28625220904090404,
            -0.10184009299133738,
            0.6020003790863971,
            0.9206576565777996,
            -0.5476967928532115,
            0.012979432006266705,
            0.6881886361657273,
            0.30782792213476473,
            -0.33679998050941423,
            0.9920201551981463,
            0.9944702133712959,
            -0.44151185355393735,
            -0.5811052694458522,
            -0.8291327810345382,
            0.5355963404807536,
            0.11761142059418472,
            -0.379817181164825,
            0.4733693063716237,
            -0.3834739479303605,
            -0.15420496175663279,
            0.09995703471976841,
            -1.0337971277107536,
            -0.9585608417713609,
            0.3171207028065511,
            -0.008925455562733078,
            -0.06951000160226183,
            0.8692217796062497,
            0.28908894706355753,
            0.6466232584655149,
            0.44174101503766955,
            0.09801368192725755,
            0.11304685646235813,
            0.4413193528777196,
            -0.6132339995803787,
            0.5615795523008372,
            0.04829421057381825,
            0.8837997040174755,
            0.2962821669555449,
            0.6413740350212271,
            -0.6092080069437664,
            0.42445086531776255,
            0.45992267175945706,
            -0.7051161127396791,
            0.2211342512327526,
            0.12425747821015022,
            -0.20807551852679293,
            -0.8189884724401252,
            0.19962802823873382,
            0.3534802779100513,
            0.5776322776056231,
            -0.9892067970224879,
            -0.2753657405833844,
            0.27997190326192134,
            -0.5465179130385023,
            -0.3458378073255412,
            -0.8818560067862197,
            -0.09054517831947075,
            0.590080001009465,
            -0.4242986609438341,
            0.9571919254151582,
            -0.6074602540529765,
            0.2076214020923807,
            -0.8235483284412064,
            -0.46710138380554717,
            0.2572294901375145,
            -0.37593211916980673,
            0.8380327464932045,
            -0.37500658366863177,
            0.11951274542625023,
            0.1635252763552522,
            -0.3153214649565115,
            -0.6019819759085374,
            -0.046724157979918905,
            0.5945119518289291,
            -0.3132399402881523,
            -0.1143243974039144,
            -0.22186061087899378,
            -0.3770822837050355,
            -0.6410080554178302,
            0.7058372024808771,
            -0.7186475083374018,
            -0.3394104971938183,
            0.2871272051825792,
            0.6717333113130622,
            -0.5484861125567964,
            0.2761518557135929,
            0.8878985641730328,
            -0.7249039024937499,
            0.30847602607879293,
            0.6007120686826171,
            -0.15630797182251602,
            -0.1715271777146337,
            0.8676289963974414,
            0.15282647808144154,
            0.7543592422850924,
            0.05614362684031817,
            0.8511213001428478,
            0.7299678172132188,
            0.7771703713817438,
            -1.0433522392734245,
            0.14291900895138837,
            -0.8060225066203043,
            0.08656270557543644,
            -0.9317749947515533,
            0.7655415531651611,
            -0.8024042135383477,
            0.047300402595711485,
            -1.146419461124531,
            0.4600173907149999,
            0.2939681774197212,
            -1.1115846896417247,
            0.7071279644631283,
            -0.26743032631325114,
            -0.1288249520776615,
            0.39411181981734555,
            -0.3975129041203124,
            -0.0616711348294046,
            0.5471625300059225,
            -1.1081992397334994,
            0.343805017390349,
            -0.8543457123716931,
            -0.594507340064874,
            0.7074946933864872,
