{
   "layers": [
      3,
      10,
      10,
      10
   ],
   "activation_type": "Sigmoid",
   "0": {
      "type": "Dense",
      "weights_size": 3,
      "biases_size": 10,
      "weights": [
         [
            -0.26899240916913475,
            -4.055777831771552,
            -3.002762213179327
         ],
         [
            1.6457019830099067,
            -0.21865481946172963,
            -0.36114655772581983
         ],
         [
            -2.466489806354624,
            -0.27955666149036423,
            -2.5282039947284485
         ],
         [
            -1.603407978098091,
            -1.4380812626388262,
            1.197904594410167
         ],
         [
            -1.9680655188446858,
            0.5926548515283154,
            2.8802621950504643
         ],
         [
            3.034627335078433,
            -0.9065223495468273,
            -1.6975762197803177
         ],
         [
            -3.769362194312371,
            1.2296786382496339,
            -1.1842470327564816
         ],
         [
            -0.6630932194924372,
            -1.347719028997342,
            1.7723986709836366
         ],
         [
            -0.5079198413667106,
            -4.2587313878071456,
            1.4193157360821955
         ],
         [
            1.606493151003566,
            -2.8144945521960456,
            1.0275367605360681
         ]
      ],
      "biases": [
         2.3916791886402295,
         0.12704631505901642,
         2.199302128865349,
         1.0338852138446302,
         -0.45662942687654345,
         -0.2592140796831269,
         2.06020761400325,
         0.35599524871004806,
         2.1868100372709387,
         0.07914322051457191
      ]
   },
   "1": {
      "type": "Dense",
      "weights_size": 10,
      "biases_size": 10,
      "weights": [
         [
            3.5572635696376973,
            -0.6124718540398011,
            5.01465856125182,
            -1.186763326386055,
            -3.2939197033820933,
            0.5067000906408293,
            3.6551126574210047,
            -2.014036549634754,
            -2.5559083076882487,
            -1.7497172223419477
         ],
         [
            -4.150660192795886,
            0.7320783446595269,
            -3.5140952478798404,
            -1.2709674972002076,
            1.1774655779240284,
            0.8408734721263813,
            -2.4463372233195733,
            0.8811511165728587,
            -1.3218521900389961,
            1.5861233650001698
         ],
         [
            6.269505647058344,
            1.104135988448191,
            -3.587990024606945,
            -1.4276644363085302,
            -3.8890995725169977,
            2.2802921738175432,
            -6.111527834366408,
            -0.929752694432247,
            2.7833084848826273,
            3.5743678213445347
         ],
         [
            -4.638784852053191,
            -1.681482380427873,
            -1.7505617997721743,
            1.447495710494766,
            3.995838190385416,
            -3.3537698207560274,
            0.5395161198624944,
            2.0241322497059384,
            0.06812414219487471,
            0.5734786945146573
         ],
         [
            -2.423715703851592,
            -3.0531092403811835,
            1.3972131777395693,
            1.8736801561995977,
            1.884308643823294,
            -5.580378404318517,
            3.714873484564092,
            0.6401057411179354,
            2.3081336298951745,
            -2.1730623056607024
         ],
         [
            2.4260408970545786,
            1.1700569452799527,
            2.486461651744951,
            -0.8839450653348866,
            -2.480579830730557,
            0.6846270337845255,
            2.672778295551374,
            -0.8600345585899808,
            -2.3097065429699395,
            -1.1360798135367272
         ],
         [
            -6.457625987512812,
            0.6614636529397571,
            -1.5759330338223991,
            0.2823416606948023,
            3.3167767708302867,
            -0.4589609975163675,
            0.24952106588058018,
            -0.13040920515647328,
            -2.262405320846269,
            -1.2383652618899395
         ],
         [
            3.899681047127468,
            0.7917744472364222,
            -2.370541245979826,
            -0.035729152446863206,
            -2.5295286977569167,
            3.8619063864532746,
            -4.21963465340077,
            0.6492999992129723,
            1.638991539819615,
            2.4010916142830525
         ],
         [
            -5.557538135896722,
            0.8159524315085418,
            -2.6308496813482294,
            -2.6476906239914024,
            1.124924116762995,
            3.2312294281995695,
            -2.5412750649775133,
            -1.5486514436395373,
            -6.607778400348211,
            -0.8556910250676067
         ],
         [
            3.0560445493609016,
            -0.7499368703609126,
            0.5849972421384722,
            2.217859275243658,
            0.052088728652380976,
            -1.556841032021444,
            -1.1075914735743648,
            2.7325585759806983,
            4.829091106164445,
            2.682573718367931
         ]
      ],
      "biases": [
         -0.09671209462983835,
         3.480297321491865,
         -2.4453562798263357,
         -0.3484572885233105,
         -2.348370530055405,
         0.1087108982293097,
         2.0481089924675824,
         0.5358100838567534,
         5.539083791943193,
         -4.92494029119892
      ]
   },
   "2": {
      "type": "Dense",
      "weights_size": 10,
      "biases_size": 10,
      "weights": [
         [
            -0.5351845177618524,
            -3.7323209495991154,
            -4.634008834389497,
            -0.11858135805440936,
            3.2878578979921476,
            -0.9269139852566036,
            -5.246204933306725,
            1.650628148286737,
            -4.0035137125557325,
            2.7676043712785527
         ],
         [
            -4.364131516151599,
            2.9359176131817413,
            4.422637349517416,
            -3.6695709636705502,
            -2.0710586161585662,
            -1.3235107965573263,
            -3.973569780825903,
            -1.0899665429611682,
            -0.8445484928471684,
            1.1062259678186053
         ],
         [
            -5.366634752093269,
            1.0709007483744097,
            1.890258946359662,
            0.9417351790791334,
            -3.4174997424834705,
            -5.302070868391648,
            -0.9125677157678678,
            2.1517735601976375,
            -2.2634260067485994,
            0.4298198868083247
         ],
         [
            4.791354197655714,
            -3.5054455571920755,
            -5.727457890078183,
            -2.3934323078302833,
            -1.3766873930090382,
            2.5319573006453973,
            -1.5941174403562457,
            -1.7486259297056348,
            -5.239986140780387,
            -1.420404961772805
         ],
         [
            0.5921157805976839,
            1.491867809109416,
            3.556212743113174,
            -3.798038085032853,
            -3.309825443443772,
            -0.16166803835263824,
            -2.2794323665978014,
            -0.39758932097739424,
            8.128050211664867,
            -7.998641969695858
         ],
         [
            -0.34834355753565416,
            -0.3867876997787046,
            -8.486165213822622,
            -4.03766324626673,
            -4.385563682814563,
            0.8863216366393789,
            -1.227995818240256,
            5.0746295663692775,
            0.8628889181709791,
            -2.461370582090959
         ],
         [
            0.6654830770854259,
            -4.31799646108237,
            3.583807002262917,
            -3.845127432751314,
            -1.5879089892038762,
            1.0195305830684531,
            -3.584649815292173,
            -0.3114252904826313,
            -6.008001571432367,
            2.0865960930425125
         ],
         [
            -4.183622398762953,
            1.2657609647302228,
            -4.30487946036242,
            1.7350303307217025,
            -4.731973457916529,
            -2.6104433223623102,
            4.738691948413001,
            -1.7521064546113538,
            4.857887543821253,
            -2.67258351381194
         ],
         [
            -5.17737925326946,
            -0.40131967074168823,
            -3.8969522567619546,
            1.6608760756982406,
            2.9863150891947927,
            -3.3848064691683737,
            2.637865743571949,
            -3.812766129675764,
            -3.3314797329894463,
            -0.6383690563052203
         ],
         [
            1.9588034654578346,
            -1.4408958160229233,
            -2.8534612101413726,
            1.213033048567289,
            3.154825185724256,
            0.5137625993103744,
            1.8432440107534307,
            -5.7596778574948875,
            1.3113974739877154,
            -5.510299681532729
         ]
      ],
      "biases": [
         -2.087941979334199,
         -2.3427353097394272,
         -1.3212790743543545,
         1.0756576995836031,
         -3.433954721152402,
         -0.2667114010199211,
         -2.137466247079917,
         -3.167092381394788,
         -1.8589232435312653,
         -3.305729954178819
      ]
   }
}