{
   "layers": [
      3,
      10,
      10,
      10
   ],
   "activation_type": "Sigmoid",
   "0": {
      "type": "Dense",
      "weights_size": 3,
      "biases_size": 10,
      "weights": [
         [
            -0.23902161499295782,
            0.6916135866471587,
            0.953068316906782
         ],
         [
            -0.9930995906254201,
            0.8100569334108039,
            0.6824794005749142
         ],
         [
            -0.5858076625362352,
            0.4878745144037351,
            -0.24937177757051732
         ],
         [
            -0.3941375157528544,
            -0.6391916594154523,
            -0.8543012448234757
         ],
         [
            0.14559261326345818,
            -0.28725466859087345,
            -0.2160943125043533
         ],
         [
            0.8038363930789123,
            -0.5670896759683186,
            -0.14295797844297153
         ],
         [
            0.5618793248565865,
            -0.9448158074383024,
            -0.32368975147303924
         ],
         [
            0.862302102686993,
            0.07606742780589637,
            0.9691331449367753
         ],
         [
            -0.76034329550231,
            -0.8644469298429902,
            -0.7885595991485341
         ],
         [
            -0.08884289364752118,
            0.011432516992957886,
            -0.3582704250262727
         ]
      ],
      "biases": [
         -0.97262694099291,
         0.8777885130603507,
         0.2467877028939871,
         0.13982286303827296,
         -0.928156025894441,
         -0.5039765948874486,
         0.4154596641644037,
         0.5447306081298149,
         0.17082895706845735,
         -0.4204668833124101
      ]
   },
   "1": {
      "type": "Dense",
      "weights_size": 10,
      "biases_size": 10,
      "weights": [
         [
            0.967914117128547,
            0.8148288766973439,
            -0.3580020392289296,
            -0.9827751184341629,
            0.9011300485817948,
            0.038035975773235586,
            0.38022913894206467,
            0.004381461723056201,
            -0.6655141885240057,
            0.016388925244257724
         ],
         [
            0.7421240120513002,
            -0.23801983895892675,
            -0.5396472620590314,
            0.8360663551997012,
            0.5825810296140215,
            -0.14238155446864398,
            -0.4217711935174635,
            0.8616429800552268,
            0.21001832882583749,
            0.8921189651588681
         ],
         [
            0.4164555786287327,
            -0.7346465192103602,
            0.5215830032109392,
            -0.4760312331775496,
            -0.3974516237561141,
            -0.9060952788271766,
            0.06284701417366367,
            -0.9547086728710974,
            0.46475589479058455,
            0.5749216548073537
         ],
         [
            -0.5911818004140355,
            -0.3939213042590015,
            0.9849284433091032,
            0.24143825910771843,
            -0.8708777726295214,
            0.9348466172114547,
            -0.18640176801357677,
            -0.5328168226779437,
            -0.7048591203732077,
            -0.4982621583199933
         ],
         [
            -0.5755299762840465,
            -0.5634029119725918,
            -0.9795465636240974,
            -0.6155148000240984,
            0.08466637957918421,
            0.7226521102173087,
            0.7538187738301521,
            0.9663617799493673,
            -0.08072127756505654,
            -0.44815852374006915
         ],
         [
            0.807537851129752,
            -0.027737693887300408,
            0.16248598897448052,
            -0.6509447886531963,
            0.931576324268669,
            0.84672343751401,
            -0.8781872846791081,
            -0.3564178405874858,
            0.6948536447781011,
            0.7263825278866671
         ],
         [
            -0.12197713672889132,
            0.99255562702606,
            -0.14670659696417832,
            -0.5015751549110641,
            0.6544204682407986,
            0.754815129766407,
            0.9697200492452323,
            -0.08170328808328065,
            0.9917162015889369,
            -0.3763049327353458
         ],
         [
            0.35794765249205596,
            0.677590880576004,
            0.03327194474311268,
            0.9624116405295964,
            -0.4024343685234695,
            0.8086430947545018,
            0.20265943627533312,
            0.01650760646377636,
            -0.1916330467711449,
            0.5994062425040962
         ],
         [
            -0.12714048699142566,
            -0.6755278274889265,
            -0.49208579114292883,
            -0.626570572394374,
            0.5870390918471777,
            -0.8654716112594012,
            -0.6872463543768466,
            -0.6233333751506724,
            -0.3649493319437538,
            0.8613689816772412
         ],
         [
            -0.6204516321040732,
            -0.1264046460690813,
            -0.4420761379229432,
            -0.5532404633935213,
            0.739392294132434,
            0.8246446730094015,
            0.035604454489424064,
            0.7834634371335822,
            0.6289489496016769,
            -0.024240134127435642
         ]
      ],
      "biases": [
         0.49372885243617826,
         -0.1392681442902055,
         0.5538458345169859,
         -0.16325392936304883,
         -0.744947228389401,
         0.4990198533086252,
         -0.9422482889466082,
         -0.37909619961548846,
         0.25004356459810473,
         0.8766133118984407
      ]
   },
   "2": {
      "type": "Dense",
      "weights_size": 10,
      "biases_size": 10,
      "weights": [
         [
            -0.1321109324344314,
            -0.6802908375712367,
            0.2273791133086871,
            0.5529778213436085,
            -0.9275034086342107,
            0.6302289631409301,
            -0.11639647649170914,
            -0.09491271313717631,
            -0.8987486466807613,
            -0.3145301292774698
         ],
         [
            -0.12131449278131679,
            0.7889286148097112,
            0.7891119398516049,
            0.7202134166673739,
            -0.5103206507653499,
            -0.4050558581417585,
            0.6306825523999504,
            0.1839948693431963,
            -0.36279259592848057,
            -0.09784250697729924
         ],
         [
            -0.1993740008997864,
            -0.8865328437882629,
            0.6997908012326357,
            -0.45755030643575023,
            -0.6099258913239245,
            -0.49799226186278966,
            -0.8799798169480819,
            0.17321620509183755,
            0.49143728194903424,
            0.30047789614100595
         ],
         [
            0.8027318186873962,
            -0.4603518138077096,
            0.9028366690036005,
            0.3658498202274685,
            -0.725502725840325,
            0.09200717913921874,
            0.3830533631801911,
            -0.6678296836731881,
            0.3157257564928315,
            -0.2181151615055843
         ],
         [
            0.9810851546048933,
            -0.018349003851748202,
            -0.3729345026192714,
            0.045838794760193036,
            0.7179133892028895,
            0.10336622293236397,
            0.33959678973130814,
            0.7335452953283759,
            0.9318881657216309,
            0.15747548866895866
         ],
         [
            0.44395979956371345,
            -0.2769004855172179,
            0.08313988879569312,
            0.6833429276002392,
            0.985168226418832,
            0.9841457185686189,
            -0.41538206261037347,
            -0.823744767380304,
            -0.7456938761861192,
            0.5723661076528854
         ],
         [
            0.13244035781195573,
            -0.6759322180650604,
            0.09225899174646557,
            0.4823785760229997,
            0.5606356073467076,
            -0.5730230892030848,
            0.13040164157275447,
            0.1776623883335413,
            -0.16082455638150228,
            -0.3972887602654813
         ],
         [
            0.7928609934837882,
            0.5531831948413695,
            -0.21446118104199852,
            -0.48140235004669796,
            -0.533005051019227,
            0.1530834606554936,
            0.995137322545504,
            -0.47745967142209755,
            0.21246067591188966,
            0.9042780524810035
         ],
         [
            -0.5204566948100746,
            -0.7219735152779843,
            0.1989323786067425,
            0.004675566631574979,
            -0.7812147436620775,
            -0.36466314101186215,
            0.44341419039472507,
            -0.22511640015761514,
            -0.4889145458649278,
            -0.01458522107385063
         ],
         [
            0.9110897361892267,
            -0.07068123503783852,
            -0.48450031388024795,
            0.5192384682178983,
            0.3537523613822844,
            -0.3714553155627065,
            -0.8893102711923477,
            0.8074999199126611,
            -0.06932352912913053,
            0.9689773707734795
         ]
      ],
      "biases": [
         -0.7095033405766664,
         -0.08850716700947192,
         0.6010208023973636,
         -0.8356475599446722,
         -0.9247311666272706,
         0.8023082038915121,
         0.4792031138585202,
         0.8999346904664254,
         0.0943723315237357,
         0.30081933956567997
      ]
   }
}