{
   "layers": [
      3,
      10,
      10,
      10
   ],
   "activation_type": "Sigmoid",
   "0": {
      "type": "Dense",
      "weights_size": 3,
      "biases_size": 10,
      "weights": [
         [
            1.2986678913248082,
            2.156357876661517,
            -0.37471239224413794
         ],
         [
            -0.7092088353311382,
            3.4135668541453326,
            -4.152730184655351
         ],
         [
            3.4216890976840855,
            -0.8652376391303828,
            0.002865124491276609
         ],
         [
            0.7605985302037809,
            -1.1042455125244501,
            0.5576586511159022
         ],
         [
            4.3547396773276,
            0.26860744460088176,
            3.365422747464009
         ],
         [
            -3.318387753075623,
            4.3328343323584635,
            4.69324299216623
         ],
         [
            -2.422405779316226,
            -3.5117723428978387,
            4.0468736165377015
         ],
         [
            -1.7605211573873178,
            2.2666267034690066,
            0.5013333160486338
         ],
         [
            2.6436669572444327,
            -1.0019014222035354,
            1.0733647949475045
         ],
         [
            -3.625366436618426,
            -0.348403746855842,
            -0.784622203773009
         ]
      ],
      "biases": [
         -1.2971015453458645,
         0.10430020667934622,
         -0.645907504742505,
         0.01522984772006809,
         -2.30159577057152,
         -3.1122918765742016,
         1.6590766757692965,
         -0.9752484761048091,
         -0.7020796011149372,
         1.63689642607169
      ]
   },
   "1": {
      "type": "Dense",
      "weights_size": 10,
      "biases_size": 10,
      "weights": [
         [
            -1.012983332305688,
            -5.741582310020017,
            -0.5911537131330675,
            0.2774961512767722,
            3.7590865665577016,
            7.337545806703744,
            5.494102647959823,
            0.8750940265076383,
            0.5873746523278026,
            -0.860747046711965
         ],
         [
            -0.1798216923657861,
            3.1914485173730793,
            1.198179190022705,
            0.11141649450479556,
            -3.943119421492676,
            -7.347165458654658,
            -1.189065201958065,
            -1.640303808284756,
            0.056239772096354605,
            2.473196935381785
         ],
         [
            -0.8602631291451415,
            -0.3779013003105563,
            1.4457721170737567,
            1.5097467533779272,
            -0.6131607986352386,
            -5.400588159353156,
            0.7475776814896293,
            -1.56989706992511,
            1.4708638522765363,
            0.7881251736214197
         ],
         [
            -2.475538784409695,
            0.8600601604123616,
            -5.455599961162279,
            -0.9187160274093927,
            -7.334735015016801,
            4.647931155935633,
            5.768163942916544,
            2.258897888313637,
            -3.6977302141213584,
            5.924587830237756
         ],
         [
            -3.350594198142951,
            -5.756773422842357,
            0.5037232385347974,
            1.5316757072310199,
            -0.07927644312504314,
            -4.060934645037824,
            6.236665351049115,
            -2.982462033518665,
            1.2488722947675839,
            0.49959376531476674
         ],
         [
            0.7555458213471296,
            -3.562035871501186,
            2.563347877421441,
            0.6982113893493163,
            5.204140961696232,
            -1.0468947184321136,
            -3.6715682600303454,
            -1.544699456161547,
            3.0089789265278677,
            -4.529217120933959
         ],
         [
            -0.9420790506630905,
            -0.2856840394674248,
            0.7103225273173878,
            1.0490093652454666,
            0.19934544291612663,
            -1.1570826025921443,
            1.922991098909612,
            -0.13893274423977361,
            0.6357366241608337,
            1.1587823097228063
         ],
         [
            0.7486654310424359,
            3.0483304738438473,
            -1.7236175869114194,
            -0.5897891635743344,
            -1.8317671377197462,
            1.6483743064015046,
            -2.130626218650815,
            1.6052579636322177,
            -1.762575177116998,
            1.1985173591416072
         ],
         [
            -0.03725280572666342,
            -2.957735028480275,
            1.2720945307250273,
            0.004679945186878305,
            2.8915388349212026,
            1.5709026608105596,
            1.2072632832633616,
            -0.9535152758255617,
            1.7515526188267654,
            -1.8371280227748448
         ],
         [
            3.228209572738665,
            4.369931670626778,
            0.030990750081690503,
            -1.7040584211445975,
            0.9828728991971507,
            3.77344060949783,
            -8.732941678907068,
            2.303488598247967,
            -0.6175672596169165,
            -2.219203482936743
         ]
      ],
      "biases": [
         -3.276771166434701,
         2.921094045406815,
         1.332351820206377,
         -1.5531309208491977,
         -0.8885811601492276,
         -3.0777652726118045,
         0.35169559933147854,
         0.04952628999107647,
         -1.5610228781070992,
         -1.8673055528436946
      ]
   },
   "2": {
      "type": "Dense",
      "weights_size": 10,
      "biases_size": 10,
      "weights": [
         [
            3.9199483493783096,
            -5.587527594219364,
            -2.5875937545710794,
            2.2691137494994695,
            -1.1623371429619946,
            -2.84007355124741,
            -0.47477395897056296,
            -2.456530725378661,
            1.9037934301291595,
            -5.060100470282457
         ],
         [
            2.863761647716784,
            -7.8366860662847,
            -3.6079592229133195,
            -4.481881345625383,
            -2.06014197240561,
            -7.437096269734285,
            -2.369755818150632,
            1.8739871542316024,
            -1.7582500120469737,
            4.68412073474713
         ],
         [
            0.9791377581303531,
            -1.8072932643135584,
            -0.2518844810408511,
            -3.403381368146419,
            3.4419378850040765,
            5.9350951555124,
            -1.3529868362837603,
            -3.4019665128614114,
            0.705078202721386,
            -7.2364647785373
         ],
         [
            -3.694853593716448,
            3.2682139571555986,
            1.9259880820720334,
            -8.052427287658988,
            -0.41268194422315213,
            -5.335462244644301,
            0.7283899273081328,
            -2.352383131749424,
            -1.4302827656183823,
            -7.9177940916145575
         ],
         [
            -8.106959234152617,
            0.7446282734376106,
            2.2932859583881697,
            -3.585130554895401,
            -2.972419716415753,
            6.8876595445420685,
            -1.39243800775091,
            -3.6956078871043765,
            -0.454853888991865,
            1.7286030577453644
         ],
         [
            -5.374011825185113,
            -1.2661406058004878,
            -5.710244010584193,
            8.24718799289853,
            -2.6908162503167117,
            -4.438923843683439,
            -3.10543017853186,
            0.03183012592133894,
            -3.1216945335182373,
            5.230807260231709
         ],
         [
            -4.181953695243838,
            2.749649641925379,
            -1.0065853805255107,
            4.820799009366722,
            -6.154871768238392,
            -5.376084053945516,
            -0.17618771876455408,
            0.8082942974161053,
            -3.470391123907454,
            -9.078524956184625
         ],
         [
            0.8725526276956277,
            0.030148114906303217,
            -0.11715919170889513,
            3.4044027658792895,
            8.41496608587296,
            -5.063699057516659,
            -0.9347981166560237,
            -3.965613122644674,
            -3.2743448268231985,
            -6.797096478836616
         ],
         [
            -5.940129764819433,
            4.166060341397191,
            -0.32356686047095884,
            -8.15958360373416,
            -3.3903004054308563,
            -4.167798300635921,
            -1.9233402370709771,
            1.1979644181145628,
            -4.182102094286946,
            3.8723594950738573
         ],
         [
            4.115479837377362,
            -5.499903384673247,
            -3.777636911300177,
            -3.9138522607134103,
            -2.712705661287418,
            5.3965642039531625,
            -2.8412717605944393,
            -3.722680323705892,
            1.8817292874119997,
            1.9487897529451266
         ]
      ],
      "biases": [
         -1.3541258780339922,
         -1.0381331276763417,
         -3.063275920815997,
         1.160956483691128,
         -3.68698651886102,
         -3.8554426153850536,
         -1.211266262496728,
         -4.308958050303041,
         -1.9945923303301412,
         -4.260173935517385
      ]
   }
}