{
   "layers": [
      3,
      10,
      10,
      5
   ],
   "activation_type": "Sigmoid",
   "0": {
      "type": "Dense",
      "weights_size": 3,
      "biases_size": 10,
      "weights": [
         [
            0.9593384966798159,
            -0.413351818320438,
            -0.7090556201916108
         ],
         [
            -1.2082455203523856,
            1.05947134103297,
            0.7842949141593445
         ],
         [
            -2.0790048263895686,
            -0.7627779460916032,
            2.049193560125119
         ],
         [
            3.292889232438046,
            -0.38935652833231044,
            -2.58359807164563
         ],
         [
            2.266512372537762,
            1.3494610319764082,
            -1.6993690812739295
         ],
         [
            -0.9778205986531349,
            0.8221541950718653,
            0.24733776814870112
         ],
         [
            1.9574736887294781,
            -0.8302831165610894,
            -1.1530551714020834
         ],
         [
            -1.8152507302863725,
            -0.9521603529714068,
            1.648712839704357
         ],
         [
            -0.7827154897499987,
            -0.7511801381642037,
            1.3461434130809835
         ],
         [
            -1.0968499167195958,
            -0.8338880089794901,
            1.1923985015546825
         ]
      ],
      "biases": [
         -0.2704498614568732,
         0.3169378392470929,
         -0.5110568398554928,
         -0.23259550423465075,
         0.34127879749123013,
         0.442757998175751,
         -0.6263150194945017,
         -0.25154664925059517,
         -0.3320946496601779,
         -0.1674890056019885
      ]
   },
   "1": {
      "type": "Dense",
      "weights_size": 10,
      "biases_size": 10,
      "weights": [
         [
            0.14984523097222502,
            0.40485024950095566,
            -0.2633002277245823,
            0.039546438550652284,
            0.1438133993183795,
            0.4752062972121803,
            -0.3688378414839758,
            -0.4510900222207092,
            -0.05968484965837533,
            -0.605232684829265
         ],
         [
            -0.8463135783008897,
            1.0212867911723282,
            -1.8907738378763725,
            0.31160690503072636,
            1.5858776057241417,
            1.2161433528211982,
            -1.6551643024616778,
            -2.0239251828393643,
            -1.9511435819761704,
            -1.607349979883781
         ],
         [
            -0.9416175299577367,
            1.3128625529360112,
            2.6672161043998193,
            -3.6728850720165847,
            -2.0993674273181933,
            0.67775706772093,
            -1.9721472274876177,
            2.4162496074941706,
            1.3247330838265632,
            1.8841925197514535
         ],
         [
            -0.4215827683838464,
            0.3204517469011408,
            1.3672387522353755,
            -2.664673662451576,
            -3.0120289869520183,
            -0.02581677700725272,
            -0.838254324813619,
            1.5987359677567863,
            1.2419415023229667,
            1.1761988964954937
         ],
         [
            -0.22961167943932684,
            0.5450230433233759,
            0.15282270830220082,
            -0.15338074137809368,
            -0.8618141713071827,
            0.023679792834939463,
            -0.5669722322614797,
            0.5759139128132416,
            0.3861343695907411,
            -0.14730344788597197
         ],
         [
            -0.6964921833336041,
            0.9158468753349663,
            1.2823719206930415,
            -1.706464631864404,
            -0.5624216039899264,
            0.8276286006024477,
            -0.7562016732065948,
            0.22256920365697966,
            -0.05392370784995602,
            0.20124131247008598
         ],
         [
            -0.7756658172138995,
            -0.03652457734901539,
            0.06492715429026905,
            -0.7317685159014026,
            -0.5052616003356949,
            0.02739421081345599,
            0.007366582212451528,
            0.4839427793336327,
            -0.055396134981995915,
            -0.3368030030676519
         ],
         [
            -1.6096565296667114,
            -0.44191563369319314,
            4.067461377181746,
            -4.953779922559584,
            -5.7090982942902535,
            -0.5881884670026687,
            -2.333348424598923,
            3.2490824718689426,
            2.1711789759188336,
            2.266814668883034
         ],
         [
            -1.6643695527910105,
            4.266803161613738,
            3.343005109235031,
            -5.595289128826229,
            -1.0606415811614864,
            3.4072501730085736,
            -3.993933155198577,
            2.9075575193934475,
            1.2883481591174084,
            1.5127899183228048
         ],
         [
            -0.7107859574256519,
            0.2286933760707503,
            0.26228185966978573,
            -0.48446059189864127,
            -0.6829265390318127,
            -0.694273531214994,
            -0.7042545059121432,
            -0.6077824922234807,
            -0.44652911654516303,
            0.12864498999056256
         ]
      ],
      "biases": [
         -0.38605290372056694,
         0.20892478488228558,
         -0.44264188086436684,
         -1.7485248973537888,
         -0.8670385237478516,
         0.20133701832979894,
         -1.005606071391955,
         -2.5254295712876265,
         1.9245163671561638,
         -0.5209497581448962
      ]
   },
   "2": {
      "type": "Dense",
      "weights_size": 10,
      "biases_size": 5,
      "weights": [
         [
            0.2967717723780543,
            3.432231130982027,
            -5.451645787411971,
            -2.562646465393569,
            -0.9018661699485491,
            -0.5659141394566924,
            -0.696915649164104,
            -3.6288282644066654,
            7.412451517089909,
            -0.32120350313527485
         ],
         [
            -1.1982786626632027,
            -3.4916356439287424,
            2.4490416694901764,
            3.1171705424490708,
            0.013161897714899784,
            0.49133150893861366,
            -0.12937215095345408,
            6.987974585528038,
            0.19064390147239435,
            -0.2996585706249551
         ],
         [
            -0.0022933360427431,
            -0.23492448998145846,
            -3.0082504300754063,
            -1.4928844778928638,
            -0.8439372992430842,
            -1.697935918402237,
            -0.8253719034822496,
            -2.1024626980887438,
            -7.783248323087403,
            -0.8336776979497987
         ],
         [
            -0.5695380665855458,
            -3.4698368755756728,
            5.72928682302566,
            -2.582001931041057,
            -0.3524719267818084,
            1.594925454265143,
            -0.09810402715045807,
            -8.351623577961753,
            4.126039396912132,
            -0.04563980917289429
         ],
         [
            -1.2144834584917952,
            -0.8309787629348746,
            -1.868218864335123,
            -1.006783114223218,
            -2.2532477431627185,
            -1.4971706269549805,
            -1.043111454238046,
            -0.8583795333850633,
            -1.5970266728034896,
            -0.9808351831433699
         ]
      ],
      "biases": [
         -5.03516062040411,
         -6.843305978734558,
         4.668639245317055,
         -5.29238693509809,
         -3.4008810257186877
      ]
   }
}