{
   "layers": [
      3,
      5,
      5,
      5,
      5
   ],
   "activation_type": "Sigmoid",
   "0": {
      "type": "Dense",
      "weights_size": 3,
      "biases_size": 5,
      "weights": [
         [
            0.3726930941571143,
            0.2720096981431215,
            0.054918523232484764
         ],
         [
            3.9019525185344883,
            1.9586796468641012,
            -2.8087953385767155
         ],
         [
            2.2318978681235797,
            0.5149617805301995,
            -1.5710768074319
         ],
         [
            0.08227446059874947,
            0.6030720176831311,
            0.8866918084818017
         ],
         [
            -1.024119962541775,
            -0.7225055208225721,
            1.0439096319001486
         ]
      ],
      "biases": [
         -0.1888917469312501,
         0.3924665657281313,
         -0.04726751524341447,
         0.8554059591708305,
         0.2555690966234229
      ]
   },
   "1": {
      "type": "Dense",
      "weights_size": 5,
      "biases_size": 5,
      "weights": [
         [
            -0.23124687182407838,
            4.534474923805226,
            1.933469759077918,
            -0.8787130772166907,
            -1.8395439605164212
         ],
         [
            0.11880246439336066,
            3.3899654290809944,
            2.0489530129677576,
            -0.8146389563198045,
            -1.3898000305661267
         ],
         [
            -0.18701716759190246,
            6.015276004842162,
            2.9353468972987504,
            -1.0053487520982824,
            -2.390484541944706
         ],
         [
            0.10392752583498223,
            4.560678677111532,
            2.716599166101614,
            -1.6939873524866467,
            -2.1367855638143145
         ],
         [
            -0.26217203635514846,
            3.002791489361268,
            1.0322958319086362,
            -0.5569006229809007,
            -0.9190947259737897
         ]
      ],
      "biases": [
         -1.6722299566309196,
         -1.246356122802414,
         -2.1193014775538512,
         -2.2424178520993534,
         -1.0897631809516817
      ]
   },
   "2": {
      "type": "Dense",
      "weights_size": 5,
      "biases_size": 5,
      "weights": [
         [
            -2.1355353212924655,
            -1.958072443012432,
            -3.5736596476210964,
            -2.341844504210858,
            -1.3388309823267364
         ],
         [
            -1.5233923923778283,
            -1.7110738777918604,
            -3.0664514318231406,
            -2.442807234625537,
            -1.024269090170921
         ],
         [
            -2.7346024293598803,
            -1.2783868079646081,
            -3.7522707436310245,
            -2.23969864842134,
            -1.3835342680261435
         ],
         [
            -2.64615125519358,
            -2.0103181614051056,
            -3.9614850598694944,
            -2.529198299026624,
            -1.0195390695755602
         ],
         [
            -2.278358923771054,
            -0.8809364921542687,
            -3.6219714374650147,
            -4.185348600197568,
            -0.5219092353919953
         ]
      ],
      "biases": [
         2.1394387211696553,
         2.0183837275447964,
         2.23024873401696,
         2.430938997670644,
         7.025011471676636
      ]
   },
   "3": {
      "type": "Dense",
      "weights_size": 5,
      "biases_size": 5,
      "weights": [
         [
            -1.9089398228521246,
            -1.0904627976396801,
            -1.6134338736623832,
            -1.4462282961967978,
            -1.0114703873263013
         ],
         [
            2.5805723089655004,
            3.185288099541044,
            3.522571598349686,
            3.561955923615523,
            1.5558250373834726
         ],
         [
            -3.399108766479787,
            -3.815211080602902,
            -3.7882297813722823,
            -4.194153833077459,
            -6.7937857164353845
         ],
         [
            -3.6224214300993163,
            -2.1032940669750277,
            -3.163133481311625,
            -3.6146516558123047,
            9.5056429652987
         ],
         [
            -2.089300009321448,
            -0.7438767212767012,
            -1.759220939201396,
            -1.1576821700353266,
            -1.568731331563622
         ]
      ],
      "biases": [
         -4.998303228768416,
         -7.121518016009582,
         4.028172719794826,
         -4.002825797794562,
         -4.976452003534802
      ]
   }
}