{
   "layers": [
      3,
      10,
      10,
      10
   ],
   "activation_type": "Sigmoid",
   "0": {
      "type": "Dense",
      "weights_size": 3,
      "biases_size": 10,
      "weights": [
         [
            -2.693951577784805,
            -2.0374630299534493,
            -3.009878228196641
         ],
         [
            0.19600199059524662,
            0.9032477153212188,
            -0.3229015777285461
         ],
         [
            2.163308498294219,
            -2.5392370628039,
            -1.6752763792208867
         ],
         [
            0.17087869917794885,
            2.983998494175161,
            1.2549530062977903
         ],
         [
            -3.780145374419274,
            -0.9577141247755498,
            3.9907926812231658
         ],
         [
            -0.9492513079981467,
            -3.1896692694478044,
            2.693271410643066
         ],
         [
            -2.7279531167570292,
            2.358000381004304,
            2.0746216792540992
         ],
         [
            2.1386005639232786,
            -2.733947166727638,
            2.4018555243917783
         ],
         [
            -0.6670262907605631,
            0.33514474432250346,
            1.5183380155275923
         ],
         [
            3.0946783207415525,
            -0.3580186918084507,
            -2.2511269192367624
         ]
      ],
      "biases": [
         3.822247859326965,
         0.2551026910792687,
         0.9819920756067393,
         -2.2590859589747696,
         0.21146597071927534,
         0.8540885502692637,
         -0.8005420336936377,
         -0.4705087719064378,
         -0.9150916119973891,
         -0.1828104921177205
      ]
   },
   "1": {
      "type": "Dense",
      "weights_size": 10,
      "biases_size": 10,
      "weights": [
         [
            0.945866281561305,
            0.5438755797713966,
            2.1192679171083153,
            0.5344196038044648,
            -3.3219334624445835,
            -0.6757725751101247,
            -2.9102856912213717,
            0.5196692113526233,
            -1.366365132560932,
            2.44176727788218
         ],
         [
            7.122871152208986,
            0.5713252340539446,
            -0.6495416789019306,
            -1.444007701903184,
            2.7710746774933437,
            1.1792928324037961,
            3.2789357011904214,
            -2.978229695410212,
            -0.5540889854569523,
            -3.2680607468754355
         ],
         [
            -7.282003902773889,
            0.30590361178110226,
            0.09669599285206906,
            2.3319283392230794,
            0.1334128068984785,
            0.6541137861531711,
            -0.5311218954794076,
            3.8537949898251727,
            0.19604646284340452,
            0.6507561739607716
         ],
         [
            -3.560853766572733,
            -0.2719254425791693,
            -3.157428649176389,
            1.2181522692757643,
            3.8275073546426723,
            1.3699375946801615,
            2.235952456819766,
            0.4607750614874961,
            0.7023190934438854,
            -2.1031222521879327
         ],
         [
            -3.1117299222594306,
            1.9287259413223632,
            0.9574607239265767,
            1.6931873006091707,
            -3.285485312108628,
            -1.9248857617327457,
            -0.11052058655218742,
            -0.8803180599223136,
            -0.7719992343646761,
            1.9725236186725081
         ],
         [
            0.9087263664673133,
            -0.9756066943027579,
            -0.48366729461899466,
            -1.9397673828779178,
            4.157225093318804,
            2.873514698353257,
            -0.24237629572126365,
            -0.16753072190915233,
            1.082708999653877,
            -2.7200948244426355
         ],
         [
            -1.0825718266469135,
            2.2022459558121583,
            3.6085690284317,
            1.0865842507549257,
            -6.609600834187042,
            -3.8382857854201915,
            -3.4254594070526903,
            -0.12977980525759594,
            -1.1737728048791107,
            6.094769540901928
         ],
         [
            2.384738901123179,
            1.1441617192621656,
            -2.381112620175647,
            1.7805964849291085,
            -3.9545926761096593,
            -6.667142133184944,
            2.17528308345608,
            -6.713043414495446,
            -0.6793750661856967,
            0.44525193656685425
         ],
         [
            7.864902008177034,
            -1.1824339432488735,
            5.465992275210968,
            -7.097378135237087,
            -1.8597647743711636,
            2.247884017222768,
            -5.561943829149223,
            1.1777885967731812,
            -2.4656641678086597,
            2.5497522899480414
         ],
         [
            3.6769096574092908,
            1.260630455831279,
            -3.624823994047809,
            2.4597397413574638,
            1.8545668465716532,
            -1.8855804398260885,
            3.6805753847307607,
            -3.944625253613041,
            0.6067879339743949,
            -1.9005268677284444
         ]
      ],
      "biases": [
         0.744045609239474,
         0.05477578970115303,
         -1.046264613194601,
         -0.03324138041521467,
         1.5512962279324813,
         -0.7104853209138359,
         1.6254173455327905,
         1.6451696565135308,
         -0.12084981175647046,
         0.2615906500717078
      ]
   },
   "2": {
      "type": "Dense",
      "weights_size": 10,
      "biases_size": 10,
      "weights": [
         [
            0.5384616504560907,
            2.3654150330327757,
            -6.111072310135725,
            -5.64365966710607,
            -1.0826788433949681,
            -3.4972332271069915,
            3.3236708617665216,
            2.9863767070860963,
            -0.5384832503273522,
            1.78785760495378
         ],
         [
            0.4043159325067553,
            -7.0555214214287565,
            2.5607724234033946,
            1.2906701665737912,
            0.83324480296709,
            -3.039200419764759,
            2.7575666046915086,
            -4.723610708716815,
            -6.708150605615368,
            -5.096273688988596
         ],
         [
            0.3664740594161283,
            -4.238073008641227,
            0.005612212248371679,
            -4.0417750109386406,
            2.2781213700993783,
            -4.485183218877458,
            3.3782174761212045,
            2.240006846686551,
            -2.8149325112495753,
            -1.083013080182485
         ],
         [
            0.8424535662492127,
            -5.781507054158852,
            2.08607046783517,
            -2.494152362792921,
            0.22041862560210754,
            -1.3250742385269398,
            0.8963833020557851,
            -3.1368215629661376,
            5.305231707281503,
            -5.531506852731085
         ],
         [
            -2.6700983887000826,
            1.5903947313084215,
            0.009468579462767683,
            1.5454573208935882,
            -5.296998267452198,
            2.1717522662984097,
            -6.400850629047578,
            -3.6581305666126385,
            1.6285746365204412,
            -0.6550518617127158
         ],
         [
            -0.8735964983243331,
            2.327038901084329,
            -7.1696854033875566,
            -3.4119505310138254,
            -2.4012228608662007,
            -0.38214345881342765,
            -3.083589856876534,
            -4.78307424283807,
            3.13361957677512,
            4.48505317634518
         ],
         [
            -2.8594175230994905,
            2.0719338458284295,
            -3.3165797283259213,
            -0.586819382942319,
            -3.5102730399661297,
            0.061646284212579276,
            -4.604398045350454,
            3.7206072237490586,
            -3.9585805979955926,
            3.5560897850656685
         ],
         [
            1.1061375855206355,
            1.5120190927470551,
            -4.067411426735319,
            -3.9234627125419452,
            -2.361528849436246,
            -0.338627307863363,
            0.8663814255332718,
            -3.447551465821212,
            6.321195220622723,
            -4.423458703443217
         ],
         [
            -0.1641431772169637,
            3.379099596883965,
            -2.2948869750741294,
            0.719645022687319,
            0.9108239041350283,
            -2.721098755426917,
            1.7184876714563782,
            -7.232133109001448,
            -6.684866131353124,
            3.0412020440468397
         ],
         [
            -3.7279271441294894,
            -1.6947434666672037,
            2.893111866105089,
            2.5308048753740153,
            -0.5856737350694788,
            1.1114134214143416,
            -5.387802808537,
            -3.2643588355031046,
            -6.923643972972031,
            -0.6647874578871236
         ]
      ],
      "biases": [
         -3.663697654383345,
         -0.9297003254498681,
         -1.988092118846723,
         -2.737529842812776,
         -0.8445871614854413,
         -1.46391061528395,
         -2.5345229046856548,
         -2.69151061980594,
         -2.6185235213159443,
         0.3036014533284146
      ]
   }
}