{
   "layers": [
      3,
      10,
      10,
      4
   ],
   "activation_type": "Sigmoid",
   "0": {
      "type": "Dense",
      "weights_size": 3,
      "biases_size": 10,
      "weights": [
         [
            -0.4862812887725248,
            -1.5584911861854063,
            2.194685102884506
         ],
         [
            1.4038851301960897,
            0.5467004987398729,
            -0.8209278585747875
         ],
         [
            -0.6402629114240199,
            1.4197584320133945,
            -0.14839057933455244
         ],
         [
            1.9507124887263267,
            1.8057255313529899,
            -1.7510390247401402
         ],
         [
            -0.26388072157205233,
            2.075549940575586,
            -1.246397387357737
         ],
         [
            -0.5579519254670154,
            -0.5437336314386517,
            -0.3452751051891775
         ],
         [
            0.6670985142959284,
            -1.0567409374018806,
            0.41026753017206585
         ],
         [
            -1.4934247083836583,
            -0.7312819230169554,
            1.8507228645174034
         ],
         [
            -1.3930147189648385,
            -1.6973578815046888,
            2.2486886801017265
         ],
         [
            0.711448627033662,
            -0.8221882633558302,
            -0.021550043863678134
         ]
      ],
      "biases": [
         -0.524500628304517,
         -0.20330249407999046,
         -0.14199954582511148,
         -0.1121708067277112,
         -0.10548763378269896,
         -2.050803086170543,
         -0.13747169560130876,
         -0.25389801695536507,
         -0.3375970035937438,
         -0.06846208676798954
      ]
   },
   "1": {
      "type": "Dense",
      "weights_size": 10,
      "biases_size": 10,
      "weights": [
         [
            -1.164119745769985,
            1.617981211425619,
            -1.3730985349798663,
            2.04675386748075,
            -1.1184457035491158,
            -0.5481836409498237,
            0.5836465178393431,
            -2.4412560371238805,
            -1.5735123344755433,
            1.3279017530735986
         ],
         [
            -0.08902673456692643,
            0.5077380837705715,
            -0.6109599325638011,
            1.3031061234368353,
            0.46547862005564505,
            -0.15363028365436365,
            -0.4729686094458357,
            -1.1390505436240606,
            -1.382207069359635,
            0.13341712960232624
         ],
         [
            0.9609844570220134,
            0.4944775018478203,
            -0.7590613736319809,
            0.6626301636957459,
            -0.915737287364562,
            -0.8993560190484102,
            0.8205521451909055,
            -0.22806072408814082,
            -0.2743536402012516,
            0.25062864730534545
         ],
         [
            0.08658439850682824,
            1.2055360399157156,
            -1.2173922097412266,
            1.115928045930559,
            -0.7794530815983254,
            -1.0453579150763326,
            0.6753785091719438,
            -1.1729576512206201,
            -1.4230630270530937,
            0.6686803933666939
         ],
         [
            -3.358844325070077,
            0.8618988278423201,
            1.3366058645699423,
            2.1592723033380006,
            2.6032614144382897,
            0.05277573020215614,
            -1.6905731985918144,
            -1.5184293194839729,
            -3.113249627126253,
            -1.5703408039461098
         ],
         [
            -0.21528337241756507,
            1.685936418473935,
            -2.0016898140086683,
            1.8683874047773699,
            -1.732654568629405,
            -0.674943746902378,
            1.032583886908481,
            -1.5769696911798776,
            -1.0735026461957935,
            1.1950051817372962
         ],
         [
            -1.154508664017853,
            1.3716740234676985,
            -0.563962312785569,
            2.4417804252610043,
            0.2963460825662124,
            -0.6407006557294547,
            0.8971488818891167,
            -2.7082920905029355,
            -2.241259986004517,
            0.7892148619811674
         ],
         [
            3.1565501759527743,
            -2.3717952149669035,
            -0.6992182061678112,
            -4.281001634978189,
            -2.264785807517159,
            -0.6339088351665667,
            -0.5070974908514934,
            3.016539736548798,
            3.7036571767815882,
            -0.7717046564241795
         ],
         [
            -2.1319166522174435,
            -0.12738513616688293,
            1.8118526169140354,
            1.6548552263263339,
            2.6956442809983505,
            -0.6443611133576297,
            -2.287581377067522,
            -0.9853528302840764,
            -1.8053259569532527,
            -1.365935089175191
         ],
         [
            -1.824978534732338,
            2.042109873540233,
            0.8494760754926916,
            3.021101279810406,
            2.287938553397749,
            -0.5153669210435134,
            -0.5454165706168883,
            -1.5497245569827764,
            -2.462618468463674,
            -0.03679072819545143
         ]
      ],
      "biases": [
         -0.25173113605636543,
         -0.3816750206613375,
         -0.6396692963987748,
         -0.4732454671494374,
         -1.0526670859442468,
         -0.7128528445556969,
         -1.031848634658165,
         -1.7915828758976722,
         -0.43843577508497883,
         0.8746777463464414
      ]
   },
   "2": {
      "type": "Dense",
      "weights_size": 10,
      "biases_size": 4,
      "weights": [
         [
            -0.12863753468895137,
            0.608477625517211,
            -1.8940296803081336,
            -0.3771084911268434,
            5.266495739400015,
            -2.0407321240291223,
            1.07636886249727,
            -4.214043806896797,
            4.183556011524661,
            1.6185530389594218
         ],
         [
            -2.108287671458085,
            -1.938649462475159,
            -0.0481420216913235,
            -1.0999164853813863,
            -3.3075204095009045,
            -1.6038290602263692,
            -2.820665026793044,
            5.04422448405581,
            -3.1321463272959047,
            -3.9022285913648695
         ],
         [
            3.378915992977637,
            0.2242723146021074,
            0.7696248771451546,
            2.2985889739726213,
            -4.221874131967389,
            3.3204918887148374,
            2.1396813548369367,
            -5.898273941553089,
            -4.3422675099802035,
            -0.057744659447242885
         ],
         [
            -3.443122280121117,
            -1.060982308250617,
            -0.9103864650403816,
            -1.664412848839775,
            -2.808061425187113,
            -3.2026228413214044,
            -3.8075644603525993,
            -6.574199559371582,
            -0.26499093745976793,
            4.9538566283995635
         ]
      ],
      "biases": [
         -5.374975289097679,
         1.2004389001387095,
         -3.5508393942612666,
         2.0878040974477745
      ]
   }
}