{
   "layers": [
      3,
      10,
      10,
      10
   ],
   "activation_type": "Sigmoid",
   "0": {
      "type": "Dense",
      "weights_size": 3,
      "biases_size": 10,
      "weights": [
         [
            0.6055171419035825,
            1.6564057980068552,
            -2.77754165533869
         ],
         [
            2.4150318975962675,
            -2.5808276018297587,
            -1.8385816655417189
         ],
         [
            1.30943882962261,
            1.31764445599667,
            2.442351713896988
         ],
         [
            -1.0511149890270657,
            -2.2633006225474817,
            1.7722603818020997
         ],
         [
            -2.0842259319880143,
            3.152256336383233,
            1.717199650470365
         ],
         [
            3.3131440179825553,
            1.6603411978183769,
            -0.4663751737923547
         ],
         [
            -0.46281480063381714,
            -1.9296758820933195,
            -0.5962584606039791
         ],
         [
            -1.203099306367786,
            0.6827090912810071,
            1.1384352577477272
         ],
         [
            -1.9478368927647225,
            -2.812997945239623,
            1.7008861494425065
         ],
         [
            -0.8737755115493356,
            -1.5183717532499879,
            -4.025514923353324
         ]
      ],
      "biases": [
         1.6041490642841978,
         1.7482839115902817,
         -2.5930412286837465,
         0.4868548171118694,
         -1.974628044252859,
         -1.6173813698850559,
         1.3412164649228882,
         -0.5201275936945375,
         0.6345522320429149,
         3.954115675357494
      ]
   },
   "1": {
      "type": "Dense",
      "weights_size": 10,
      "biases_size": 10,
      "weights": [
         [
            1.2158847263484762,
            -1.8013507162284732,
            -4.20201891521765,
            1.451766992279805,
            0.10703584785611561,
            -5.6129521174846895,
            2.0908982509206795,
            0.7036220514967488,
            1.9684994783200662,
            5.247397700786671
         ],
         [
            0.5100951117689361,
            3.0618062395867645,
            -2.873171604235074,
            2.3220983200752636,
            -5.86539130487981,
            -0.8715917551463306,
            2.3665950428791347,
            -2.5182178260617314,
            3.0946178237872197,
            4.936112364471241
         ],
         [
            -3.955826084950242,
            -0.8598121526894926,
            -0.13718270961011872,
            2.6833760009525087,
            0.4467984837666727,
            -3.87367588784364,
            1.6645774406349019,
            1.3904659198765466,
            4.528616566305469,
            -1.1767550310560617
         ],
         [
            -1.0517559397609724,
            -0.8497651200796486,
            6.018228264285441,
            -1.2838927430535525,
            3.3257918866456087,
            3.511701058157963,
            -2.237466203979076,
            1.1997214696946068,
            -3.265547985307854,
            -6.606482556465228
         ],
         [
            6.293188528700513,
            3.7467157244243765,
            -4.3919253690867075,
            -2.8612586494102303,
            -2.3259231431648066,
            0.27095511078069706,
            1.5026680531375194,
            -1.6966829966844266,
            -2.932526453000542,
            7.969664596438616
         ],
         [
            1.0350041944664847,
            -2.3231889599191917,
            1.1371925862481331,
            -0.7965519516204891,
            3.226392492355251,
            -0.20802679849713654,
            -1.718064051312713,
            1.3445491188786725,
            -2.1536004058496863,
            0.3809651479843905
         ],
         [
            -0.8429075084730048,
            -6.06374937792934,
            2.4397512377286614,
            1.3472576715458802,
            6.683017361456101,
            -1.148087819624049,
            -1.4714157576414737,
            2.5281563109901395,
            1.2301632166781202,
            -4.413938370660359
         ],
         [
            -0.4395857051767974,
            1.5896538797964592,
            0.5825402832395008,
            0.46097636248606033,
            0.11690373383593451,
            0.5430663399557365,
            0.8742888793313958,
            0.8253170479530939,
            0.31109657266470225,
            -0.09270974191771841
         ],
         [
            1.5080020741456408,
            -2.4224656695323588,
            -1.6891309940360297,
            -1.677658801146166,
            2.240892589861715,
            -1.1165859716448499,
            -0.8655786345846245,
            1.0128412002926594,
            -0.76972308218532,
            2.314597606182551
         ],
         [
            2.710795750112959,
            -1.0757954611456926,
            1.0371974804441617,
            -4.493349752086121,
            1.073288729553042,
            4.555375125397533,
            -1.864451351571803,
            -1.2777661689620987,
            -3.994370505183133,
            -1.3888040254582992
         ]
      ],
      "biases": [
         -1.0774085813566945,
         -1.336851116597674,
         0.6249600104201202,
         0.7341036139667738,
         0.3022314016278825,
         -0.021725988950022965,
         0.35451075972747337,
         1.2843303143085107,
         0.07194269632641555,
         -1.2145601899955594
      ]
   },
   "2": {
      "type": "Dense",
      "weights_size": 10,
      "biases_size": 10,
      "weights": [
         [
            -3.8421336086487274,
            -4.389592359468346,
            5.694065040880671,
            2.753741192832173,
            -4.7692575170051414,
            -0.8594172691653463,
            1.5841350169690156,
            -1.3067560926547164,
            -0.9296187828557828,
            -4.2972951462166105
         ],
         [
            4.0165744335745694,
            -0.2463920056552499,
            3.0183971759618506,
            -5.4469675281875585,
            -9.258143046519574,
            -1.8356770904196051,
            3.7454746891695594,
            -1.6261145045426761,
            -0.7671552891690431,
            -1.9693794684061
         ],
         [
            -3.266167987740456,
            4.073917846349826,
            -4.018731346005159,
            -1.9285015019072,
            2.472679851929109,
            -2.5252056446472637,
            -5.243028667476581,
            -1.3772719308123729,
            -1.136725434813752,
            2.238704111355342
         ],
         [
            -3.9807329933431976,
            -3.915693435897213,
            -6.2945481187971435,
            2.8812319696742072,
            4.343268459052661,
            0.3017130729624929,
            -1.6525231809084497,
            -3.1033445519387075,
            -0.12545241917866531,
            3.0034063614748026
         ],
         [
            0.8125447068082344,
            -5.562853857253416,
            -0.7530616819796896,
            0.1774128065179144,
            5.5849778229083595,
            1.1513553505333618,
            3.103670442512857,
            -4.108582013161299,
            2.2394662248689783,
            -3.965429010736616
         ],
         [
            -1.0545522566458343,
            2.3577289661449403,
            0.8420640843326153,
            -5.8349837007831935,
            3.6911808755772526,
            1.367650850196745,
            6.33022560144423,
            -4.105802822924204,
            -0.2715053958180318,
            -2.244151606477223
         ],
         [
            4.505105417275001,
            -0.9811940725565084,
            -5.796254418742866,
            -4.052157327866016,
            2.7104650199144578,
            1.410002628384674,
            -1.2151455283826094,
            -1.8687277568253886,
            1.9787671096243034,
            -2.1449833533625413
         ],
         [
            3.5183299470418405,
            3.6529714040163856,
            1.4574045662315267,
            -5.059983919059044,
            -0.2889122764632826,
            -4.020537938970406,
            -4.532694008906046,
            -1.6618752260864431,
            -1.1955526254608309,
            -2.3370574841173237
         ],
         [
            -4.070787616618682,
            -0.16518206112704767,
            -0.5335243809861224,
            3.6756273044517127,
            3.6543007143033743,
            -1.824176423405578,
            -2.3903013686888626,
            -0.16311109385006195,
            -3.8773665008369846,
            -5.4390578137263415
         ],
         [
            -5.69168468148309,
            -4.9852396643218215,
            -2.9998675185893027,
            2.909178407089958,
            -4.495140906189483,
            1.6553364413131315,
            2.9119449632315195,
            -1.073664322553856,
            -2.0164271613713973,
            1.7338471734408667
         ]
      ],
      "biases": [
         -2.31295869683875,
         -1.4933645134891702,
         -1.6484049977182644,
         -3.344006219953502,
         -3.736624006892201,
         -4.825615594750019,
         -3.0479291280802783,
         -1.8933427781740357,
         -0.4839683909917486,
         -2.194883162858818
      ]
   }
}