{
   "layers": [
      3,
      10,
      10,
      10
   ],
   "activation_type": "Sigmoid",
   "0": {
      "type": "Dense",
      "weights_size": 3,
      "biases_size": 10,
      "weights": [
         [
            -1.8149071325290036,
            4.938754791675087,
            -0.9366997037042748
         ],
         [
            0.4120288483179749,
            2.871786283300264,
            -2.8242402098605446
         ],
         [
            -4.088615639946727,
            1.1404704631246085,
            0.9151862998892829
         ],
         [
            0.1263677759634732,
            1.9461029916718646,
            -2.7420873243794124
         ],
         [
            -1.9137611927599267,
            1.3020751711503922,
            -2.0757704883780956
         ],
         [
            -0.37046983657239857,
            -2.9047458626500804,
            -2.689201537627999
         ],
         [
            2.64708155433518,
            -0.8846680200283155,
            0.11156226245897934
         ],
         [
            3.446055750434808,
            -0.49643367939988803,
            3.09197723299818
         ],
         [
            -1.1513375940549921,
            -2.408627041919799,
            2.3310511207392324
         ],
         [
            -2.473775375234312,
            0.491545333391612,
            0.910404013319715
         ]
      ],
      "biases": [
         -1.3461823327435565,
         -0.47998562100370323,
         -0.3060464946395423,
         -0.08105766917739834,
         1.234518816590085,
         3.3167954719723447,
         -0.09280074609197354,
         -3.026976975489788,
         1.2846936915270537,
         -0.01723075016141813
      ]
   },
   "1": {
      "type": "Dense",
      "weights_size": 10,
      "biases_size": 10,
      "weights": [
         [
            1.0136769242376211,
            3.7027244938623802,
            -4.152818467809439,
            2.5349981452032404,
            -0.501235485725254,
            -0.5046194300884316,
            1.2882148689527135,
            2.666869325077522,
            -2.813206105314428,
            -3.2354165808678808
         ],
         [
            2.9203953087285686,
            1.4177364392163825,
            4.718545983604832,
            0.3130172927303577,
            3.2254871552992124,
            -0.09333703213529984,
            -3.576886045240606,
            -5.297710889178668,
            -0.7653959077008191,
            2.1525472274522137
         ],
         [
            2.686983031356172,
            2.2385425106199857,
            1.1220196676844623,
            3.8469019005796277,
            4.124961497639007,
            4.5816725525934885,
            -2.144488472849384,
            -7.765887270695906,
            -2.991535915169868,
            -1.3235741845997262
         ],
         [
            -1.0299541029160142,
            1.2158275093920294,
            -4.106363854401973,
            -0.04653731452919651,
            -2.3567125775368285,
            -2.17529729794944,
            3.6348135127669274,
            7.313702273939906,
            -1.2563812785349329,
            -2.0665190070118773
         ],
         [
            -7.194135543000153,
            -6.04490438352544,
            -0.09573101317064252,
            -4.020416343922122,
            -2.599842310265034,
            2.5166986384032177,
            1.664241873131563,
            1.2942734343348903,
            4.347080079970843,
            -0.017525948834397752
         ],
         [
            -0.20690824446784437,
            -0.09443713542555199,
            -2.0135667530354775,
            0.20766707130014547,
            -1.343214354738587,
            -1.5445281896224001,
            1.3863552004029194,
            2.3899865317776485,
            0.6259839997562564,
            -0.8953457959046724
         ],
         [
            6.471438997172005,
            0.4744118633112982,
            3.0630912132950456,
            -0.07022241460728766,
            -0.829679265413928,
            -8.325333070227654,
            -0.8810461249975371,
            3.5916127410921663,
            -1.2954616722172712,
            0.964853111730916
         ],
         [
            0.4823381774918596,
            0.5764243473803567,
            0.21942031400783255,
            0.5369209817800603,
            0.36957952708262526,
            0.8137778810162979,
            0.5590356988077421,
            1.3642447062924523,
            0.8696342201060445,
            0.27972685820299337
         ],
         [
            3.60727335157682,
            -0.6952495641301348,
            3.1956210541913572,
            -1.1156315298352906,
            -0.3407966961143455,
            -4.131526071566855,
            -1.7320320412233101,
            0.8835799428630616,
            0.7019513031952468,
            2.7023398577651063
         ],
         [
            -2.0514565287009985,
            -4.754452453605169,
            3.0905849535446746,
            -2.8741677831800385,
            -0.44131560853855034,
            1.8576436734661226,
            -0.8593809794879009,
            1.238048181816441,
            6.347292481577292,
            2.2682959624505474
         ]
      ],
      "biases": [
         -0.09422661753158518,
         -2.1527951322809717,
         -1.9708339885156134,
         1.9086610455632946,
         0.535663055977766,
         0.3866581030280642,
         -1.0549677525565397,
         0.982000209176128,
         -0.32622248447608865,
         1.0545610308724962
      ]
   },
   "2": {
      "type": "Dense",
      "weights_size": 10,
      "biases_size": 10,
      "weights": [
         [
            2.9982778150158795,
            2.839417639270704,
            3.690361312065103,
            -3.192205214589031,
            -3.4406393813824128,
            -3.349347784179707,
            0.4219004164304137,
            -2.1063441906025866,
            -2.4574396636949007,
            -4.9977911401273385
         ],
         [
            -3.5924236659521607,
            0.16396878161676468,
            3.556182175546697,
            -1.3974113455656032,
            -0.7303449608830906,
            -0.235523229976269,
            -4.522742358711078,
            0.10409230249791349,
            -4.654257502832958,
            2.2522865655433137
         ],
         [
            -0.42013464438023435,
            -5.182386205423647,
            -6.110179082860895,
            1.183941505792746,
            4.4597421537101996,
            1.99612120185804,
            -2.3594447939445717,
            -1.431073777082731,
            -2.8145100357433486,
            -0.370490371636899
         ],
         [
            3.0970067868205757,
            -1.9632393372827448,
            -6.654196080195217,
            0.9109191399734909,
            -4.800604070308639,
            0.0660485223577543,
            6.874033771588006,
            -1.3242211444326775,
            0.3332895540559492,
            -4.131796326365183
         ],
         [
            -3.4550305606393126,
            0.13393429233620407,
            -2.6087505896495795,
            -7.15397576142952,
            5.685206735733015,
            -3.4651999616171674,
            -2.612099042290487,
            -1.128810019182143,
            2.223688698722742,
            1.0651622810632442
         ],
         [
            0.9174668213986523,
            -1.616809124008892,
            -3.990371087943248,
            1.8772640401021188,
            -8.267820708016176,
            -0.9750322551064787,
            -5.629400887318687,
            -0.983080333291015,
            -1.8341552398671863,
            4.541655384107527
         ],
         [
            -2.5727861831431342,
            1.051864099854603,
            -6.695338343038025,
            -0.25989791162207204,
            -6.253975332739675,
            0.44836839889341956,
            3.460704838644243,
            -1.5286485183681087,
            2.7884437933250164,
            1.3984984573487875
         ],
         [
            -6.778320052323745,
            -7.500913245020279,
            -4.327808319881675,
            4.402709809860459,
            1.8290245412866017,
            0.044258868949990274,
            2.3160218946919597,
            -1.7150939870388737,
            2.0070024796669976,
            0.517707207851735
         ],
         [
            3.542005990313345,
            -2.6708864414111795,
            4.079048955845512,
            2.9781859912904407,
            -3.191842805109899,
            0.02625926128605588,
            -2.2603294295297998,
            -2.5790809457807518,
            -4.311360225952207,
            -6.692736742248122
         ],
         [
            -4.198411955140027,
            2.1245169247112075,
            3.411126385949289,
            -4.942541306286205,
            -2.8713366728787695,
            -2.1305466584672117,
            1.6139012002178041,
            -3.1871828389785133,
            2.6340612426865317,
            0.9416574960820948
         ]
      ],
      "biases": [
         -1.558931248538687,
         -0.37245624776311553,
         -1.9392392033152215,
         -2.8648613771006004,
         -0.6722188020368273,
         0.2594123277820466,
         -2.8094714613621306,
         -2.1994439415762295,
         -2.2661182307060095,
         -3.246361720702893
      ]
   }
}