{
   "layers": [
      3,
      10,
      10,
      10
   ],
   "activation_type": "Sigmoid",
   "0": {
      "type": "Dense",
      "weights_size": 3,
      "biases_size": 10,
      "weights": [
         [
            -3.891816820929832,
            9.301090286537605,
            4.2689594016988694
         ],
         [
            -1.6694777902013629,
            -1.777483491704696,
            -6.33631877015167
         ],
         [
            -4.033185913621591,
            1.570915087070818,
            -0.29530594249411607
         ],
         [
            0.6156106895733129,
            5.264827592961851,
            -2.218478325692678
         ],
         [
            -0.5904346191823707,
            -5.544676869143388,
            -0.6980543485561644
         ],
         [
            -3.907775403063707,
            -0.30382242195455333,
            5.707078038395544
         ],
         [
            5.263597379726291,
            -1.5717835113891065,
            -3.9705619341776033
         ],
         [
            0.36348514872746635,
            -2.5280192247643636,
            -5.700831139589402
         ],
         [
            3.885065984595358,
            3.569587872144587,
            -4.741564712712254
         ],
         [
            3.8252514491667493,
            -7.573737140266184,
            4.948095146759957
         ]
      ],
      "biases": [
         -4.459856851894049,
         5.005124106480116,
         1.3833307432919715,
         -1.1185153292867904,
         2.260628825856804,
         -0.20387680459241772,
         -0.09596907578279743,
         3.6585765070696072,
         -1.4147643811769746,
         -2.2043917502223316
      ]
   },
   "1": {
      "type": "Dense",
      "weights_size": 10,
      "biases_size": 10,
      "weights": [
         [
            1.441878485434359,
            -1.2779970721007055,
            -1.3012989500123129,
            1.8115259635266976,
            -3.9056580030009584,
            -4.553245050919877,
            0.5294587291980373,
            -0.2935775186408979,
            4.830201681755766,
            0.00509597539210669
         ],
         [
            -1.2627421490493662,
            -6.268785902583152,
            -1.8149847712096039,
            -4.935763675235019,
            1.3247770448358978,
            4.4070109264130055,
            -2.8273528372689785,
            -4.284152062918728,
            -6.32412309825168,
            8.51849503677853
         ],
         [
            -0.6929058209364608,
            2.306858759948377,
            -1.247459816545248,
            0.5445026914847038,
            0.6625621642201593,
            -3.0707090290271144,
            2.1779364765423423,
            2.7962973626027026,
            2.51141633947545,
            0.02302543203375338
         ],
         [
            7.915085342450317,
            -1.9095997051060727,
            0.0006387555272967469,
            6.359749004481535,
            -6.66191997392876,
            -0.9150147757060746,
            1.4379389678232,
            -2.933762228676851,
            6.307474362449317,
            -4.109376771035882
         ],
         [
            0.3787904312230314,
            -4.416729052839227,
            -1.4015780051387323,
            -1.7483747404847625,
            2.5686147845650056,
            4.102011281383143,
            0.44705748065136347,
            -2.6620373389439407,
            -5.0633726661544705,
            7.351853663426323
         ],
         [
            -1.8070959337203116,
            -0.20039417480821967,
            -0.19969842795757478,
            -0.3129881617569424,
            1.1472211027794146,
            -1.4073774374184993,
            -0.21869510795265915,
            0.3474980345979844,
            -0.9499708760385953,
            0.9558896077587362
         ],
         [
            -0.16037570781398547,
            4.0262664589158765,
            4.9215194862031435,
            -2.4221990524039416,
            2.5907299373133905,
            3.59508507255421,
            -6.079510649103479,
            1.7893733128017617,
            -5.283884180079245,
            -4.342266772872596
         ],
         [
            6.978964929064734,
            -6.512223590632312,
            0.31439430734603746,
            1.1921459225694475,
            -1.8225553098852176,
            5.994037645935184,
            -1.5127643567442715,
            -5.973545240325111,
            -3.8860005127983626,
            -0.3154875600586595
         ],
         [
            -8.117252958562386,
            4.255197110372778,
            -0.8215074548776597,
            -1.899362521730265,
            4.634943037426996,
            -1.699427950780581,
            4.021528246113186,
            4.201361182390542,
            -0.5405154091971828,
            3.859597007365839
         ],
         [
            1.2668914174656007,
            5.071077588887814,
            4.339021241920915,
            -0.5830995890717371,
            1.0668228883069546,
            2.1553335953949104,
            -5.227835817991662,
            1.5392359039466734,
            -1.1267193542981435,
            -5.0590314289117595
         ]
      ],
      "biases": [
         -1.5752711792269696,
         -1.4186357039806825,
         -2.6580201240136163,
         2.618553009929655,
         1.821602898379657,
         1.2326037795690274,
         -1.8258858461236425,
         2.739477087942582,
         -0.15469629805287394,
         -1.229163828871856
      ]
   },
   "2": {
      "type": "Dense",
      "weights_size": 10,
      "biases_size": 10,
      "weights": [
         [
            -7.6572598054123855,
            -1.2155602528680676,
            -5.471079173624116,
            7.509085129220909,
            -5.903730524771202,
            -0.8754621204072084,
            -3.284424276943904,
            -4.245488764280794,
            5.133012210471737,
            3.6251561482733456
         ],
         [
            3.6587014888757907,
            -3.313543218193736,
            1.1506757689178897,
            -0.18204968265413826,
            -5.3800348958497555,
            -1.9362686891359313,
            -2.2811862205466817,
            -7.151860424159663,
            -6.003467154456671,
            5.640614246553449
         ],
         [
            2.4023612228215976,
            -1.6138281464190591,
            -0.6523702964397878,
            2.092672476251174,
            -5.327974770949707,
            -1.3716412734329702,
            -5.865060542349824,
            4.364924935252769,
            -6.578653564461996,
            -4.640857931976237
         ],
         [
            1.0758632088304887,
            -0.944942004929825,
            -0.15349308218227264,
            3.319753717909623,
            -3.28320848600456,
            -0.7130595052599528,
            -5.414035601270437,
            -5.923998442174312,
            4.714449168586304,
            -7.505674890852424
         ],
         [
            -0.6099178962324748,
            7.958988625561604,
            -2.63023418759728,
            0.8580107588058241,
            2.6141938654286103,
            -0.07489175877540154,
            -1.2729027274173825,
            1.0603836108159457,
            -4.193314845051982,
            -6.584655391833285
         ],
         [
            -0.2686389676959924,
            -1.8512386147688986,
            -0.31204334519122423,
            -4.317793240585007,
            5.889933158045504,
            1.493681237666425,
            -6.090240489569894,
            -4.087219282367655,
            1.3419478219630934,
            -2.567432879549719
         ],
         [
            -1.489164255135021,
            -2.6965757352928375,
            1.1603239986968759,
            -9.720073536421896,
            -6.515570745219176,
            -0.6159525656321585,
            4.3049190524014165,
            -4.1714628007275545,
            0.7675106492404612,
            2.7382681121718777
         ],
         [
            -2.112428586803892,
            3.1114656283338995,
            -4.34475740342381,
            -8.203505617220245,
            1.7383316466408045,
            -0.2845670804771222,
            3.101486331130108,
            1.8340126298244195,
            0.3507511387676209,
            -0.09549822096978483
         ],
         [
            -2.77879723709743,
            -10.597450565085222,
            -4.02580068317988,
            1.5854909777407367,
            6.3281186863350305,
            -0.1223714283554296,
            -1.217051690874388,
            2.0634575425904904,
            -2.8334881524073863,
            0.33985316391262615
         ],
         [
            -2.417062362880235,
            -1.432503968956572,
            -4.164048822054549,
            0.04139498642058533,
            -6.906572745204412,
            -0.403913281141605,
            6.1357246704123645,
            2.5611298259921904,
            -3.69248013522652,
            2.3259266541452446
         ]
      ],
      "biases": [
         -4.04510614411077,
         -3.479861783432667,
         -2.196862440855542,
         -2.728149692686421,
         -4.955368100349021,
         -1.4399877046429141,
         -1.2132131295893005,
         -3.5965683541157754,
         -4.663871003438034,
         -3.028969287914409
      ]
   }
}