{
   "layers": [
      784,
      64,
      64,
      10
   ],
   "activation_type": "Sigmoid",
   "0": {
      "type": "Dense",
      "weights_size": 784,
      "biases_size": 64,
      "weights": [
         [
            -0.6265647317545945,
            -0.017250468042016437,
            -0.15963823334650848,
            -0.37165681645157356,
            0.3588322179559461,
            0.12730720413131044,
            0.7874954067637651,
            -0.5307176867386866,
            -0.09818513234429482,
            0.937407624579011,
            -0.6227599092051678,
            0.11993503042667383,
            0.8777445951112689,
            0.672279239253727,
            0.7057806621854311,
            0.5285108151424381,
            -0.8026666877235961,
            -0.5389907946571414,
            -0.3745842817779411,
            0.1318949545888797,
            -0.8232485897141116,
            -0.5958685860788332,
            -0.8217905219065843,
            0.8636254710681804,
            -0.004620257029569456,
            -0.36355684575941616,
            0.43113356996248575,
            0.451595962595729,
            -0.12000215661287765,
            -0.5909051358178862,
            0.6420145337052247,
            -0.2578326438650327,
            -1.0442929995435055,
            0.7810438185794252,
            0.4052100382494108,
            0.48008749180392196,
            -0.18668920812609574,
            0.18855669953134352,
            -0.43220636705380305,
            0.7218917336952358,
            -0.3303334153841896,
            -0.09800670561121119,
            0.029397481510074933,
            -0.6263848090072045,
            -0.12778019100352,
            -0.9768244928683696,
            0.35532674470644465,
            0.07497517275076507,
            0.11843078107579111,
            -1.049147518543667,
            -0.3142599115656284,
            0.21645135208764063,
            -0.42923028070073077,
            0.49957028450295715,
            0.18431522257889096,
            0.6474629330945539,
            0.4289048214940626,
            0.27657722905078763,
            0.10277220540674625,
            -1.0308287199664399,
            -0.81025587811913,
            0.8806702061580445,
            -0.25710033870986826,
            -0.3312892982145761,
            -0.65014582292098,
            0.5144328826707142,
            -0.9101619680934772,
            0.30280853710517885,
            -0.48571760222745997,
            -0.24380384650524012,
            -0.31238602792709497,
            -0.4423935806057901,
            0.1841649562757785,
            0.8414247244742193,
            -0.38427706600712425,
            -0.6211456558984753,
            0.3190073059694344,
            0.8148456515089374,
            0.06320735299654213,
            0.5185346902360514,
            0.852900924677393,
            0.1331261780881278,
            0.20845909366947732,
            -0.8562729517398066,
            -0.4271120372810765,
            0.01842038484908311,
            -0.7835107472856001,
            -0.1686329555807718,
            -0.8374232076225818,
            0.5189124528373161,
            -0.41516888793217,
            0.08474654385612433,
            -0.5232024839413333,
            0.7857494069893258,
            -0.9366896323065379,
            0.8398096359044535,
            0.6059873861074173,
            0.9399876744366722,
            -0.8419803753053877,
            -0.5083315724404249,
            -0.20293229229189214,
            -0.47193479742121464,
            0.29968485351224255,
            -0.46691524461113165,
            -0.2113516630763259,
            -0.9758452680409745,
            0.61652171747587,
            -0.6387602790164896,
            -0.23326247686387733,
            -0.129839168754505,
            0.20833601367031637,
            -0.4148329518916659,
            -0.5433698319077246,
            -1.0086317400322085,
            0.49786795422254315,
            0.5972311475589099,
            0.16494716068935442,
            0.4733137864384035,
            0.6836895467580355,
            0.9006525727274894,
            0.12731511257719016,
            -0.592841010637194,
            0.8512247969366954,
            0.15358393254225788,
            0.3931046061939037,
            0.9606793614196325,
            -0.4999801587859215,
            1.0235537590910928,
            -0.21283318875860496,
            0.8633564071613249,
            0.5027498984066674,
            0.03367944468051387,
            -0.9016005049296132,
            -0.3002237539607958,
            -0.8814268007427686,
            0.6171554049795148,
            -0.6922639372176976,
            -0.3841474066456444,
            -0.3127779060944216,
            -0.27109174997034136,
            0.5351336750929351,
            -0.018648114378618873,
            -0.0647285364098866,
            -0.07096948597472623,
            -0.7207624720200851,
            -0.9142200974425844,
            0.6571983216907906,
            -0.17811507586113282,
            -0.09125694066166222,
            -0.6095842339821779,
            0.1696279521077692,
            0.7569523198946332,
            -0.9841044256228809,
            -0.016404136734753844,
            -0.15586688589084866,
            0.15962391031270545,
            -0.3991253946379237,
            -0.525269553839085,
            0.9509569434937115,
            0.9406922031314415,
            0.6606830701456747,
            -0.8856905285078549,
            0.15721002086922115,
            0.5828472068886369,
            -0.2400536883701706,
            0.2991268394967952,
            -0.9287532955105594,
            0.19925700956892264,
            0.7417695092932496,
            0.4669521771491577,
            0.767223143121126,
            -0.5709117036287326,
            0.5246617356668012,
            -0.5951183308330339,
            0.1761095788786037,
            0.8345647011618237,
            1.0216431653025204,
            0.9310049661504682,
            -0.12059096357380672,
            0.6728033152810721,
            0.9684242636159218,
            -0.023242411070710293,
            0.6490462474193447,
            0.39692630692981834,
            -0.1574164194827094,
            -0.8847614824116241,
            0.4899706199858136,
            0.627423025315302,
            -0.42774052942261775,
            -0.804012780641265,
            -0.33369465577218255,
            -0.1197331071181336,
            -0.44579559567068927,
            0.6986820443246891,
            -0.658971441027605,
            0.31862706408516783,
            0.9038544359691277,
            0.4801948007522502,
            -0.13868877116893916,
            0.20802290115091798,
            0.6126130054086633,
            -0.1698099965527492,
            0.268909762446218,
            0.28118406528284284,
            0.2347223814391626,
            0.23417885711131034,
            -0.5700880837511089,
            -0.1503373462556833,
            0.35271061963274486,
            -0.7473094177107903,
            0.3685365324439444,
            -0.5713812581923919,
            0.16197971758582225,
            -0.2205713922256116,
            -0.3372309318083103,
            -0.2828680967762235,
            -0.8543355018380797,
            0.13603257323855544,
            -0.989816954440981,
            -0.7210613927257622,
            0.031146634492021555,
            0.5126353638845939,
            -0.383062208540208,
            0.4282807786851581,
            -0.6477818048967984,
            -0.8369120139501857,
            -0.3457022885279064,
            0.6466776248429825,
            0.8447057593318136,
            1.0407302046962144,
            0.4635104713913125,
            0.5733809820670636,
            -0.5963144949101336,
            0.5637387176562572,
            -0.6743410010552107,
            0.14904251016559747,
            0.04466727268094538,
            -0.7677603658352291,
            0.5308089464834999,
            -0.39771456059106636,
            0.4058947277881124,
            -0.5086495555390944,
            -1.1445997739714786,
            -0.3617129889361147,
            0.11768454303091785,
            -0.957024938113335,
            -0.8982929935433188,
            0.6494549076768499,
            -0.4781165124655786,
            -0.32137503534857387,
            -0.23969955482092783,
            0.1477920262837973,
            0.14107475699484534,
            0.25706759914598165,
            -0.3875103101136892,
            -0.28542242534758366,
            -0.6835188377758079,
            -0.006736447155519025,
            -0.10652705939627773,
            -0.44269075814453157,
            0.5058469288547629,
            0.11786608133273861,
            0.7973818116294444,
            -0.214070349940757,
            0.7021098155609662,
            -0.36205462880924044,
            0.10451766161766284,
            0.24160364243226343,
            -0.5811906318982148,
            0.2790530945391335,
            -1.125774551965959,
            -0.1544332781454147,
            -0.6286552934911933,
            -0.2288273884590692,
            -0.8385342657240452,
            0.15250201903149063,
            0.04251983134150298,
            -0.013344006613908778,
            -0.38119826529660106,
            -0.37988460590401985,
            -0.1400134246998451,
            0.7232045053022557,
            0.33823577511200276,
            -0.2253970790769392,
            0.26843738893904445,
            -0.3309524322087877,
            0.05473619953050888,
            -0.12368516302016848,
            0.794843380834225,
            -0.8837651836047361,
            -0.38543828238694844,
            -0.7030330518460213,
            0.6312962951424099,
            -0.7851759040328069,
            -0.3200991131670486,
            0.3840003069110417,
            0.17535441244839284,
            0.471338369691253,
            0.16917859429160073,
            0.6441095450669352,
            -1.0203026557769967,
            -0.8552042003199823,
            -0.5667519529401385,
            -0.5882583805344445,
            -0.42959476168659094,
            -0.01206498870130897,
            0.42862179341545115,
            0.7955681459590612,
            -0.8915099178996149,
            -0.4242396342762932,
            0.7269742066429545,
            -0.013539246647379053,
            0.5256903213479814,
            0.16120085626652064,
            0.567720481398746,
            0.5203281554438856,
            -1.1910091467345765,
            0.6779834679012888,
            -1.0326483726970521,
            -0.8776677042762929,
            0.12321261256280827,
            0.44048674385894626,
            0.2296286030878675,
            1.0476439900812768,
            0.7962419416490618,
            0.4137445055903591,
            0.7176094677151137,
            -0.060250185052116836,
            0.6867620768942667,
            0.5710347236140477,
            -0.7170378559430889,
            0.08051770543140727,
            0.19514478803719518,
            -0.3222305274011954,
            0.011964999775747885,
            0.8333260829520605,
            -0.5863929238792162,
            0.292892183395398,
            0.8568721976999375,
            -0.3544610570319316,
            0.4177166822667174,
            -0.7931863348714555,
            -0.6147445125662019,
            -0.1440725361517832,
            0.03468811007277352,
            0.5694544515887588,
            0.21944754602267852,
            -0.8297090890762758,
            0.8234715800678699,
            0.17138506532279665,
            0.3882748266801182,
            1.1608633850769803,
            -0.4694556056791507,
            0.7279803669842799,
            0.610401440372736,
            1.0115494812722154,
            -0.589208117557882,
            -0.0901836166218781,
            -0.6256895922879885,
            0.23399834693177873,
            -0.6020731572698143,
            -0.9207253083570749,
            0.5183558515662894,
            0.6162779196007212,
            0.3822293766832122,
            -0.7547232284454535,
            0.8545527528312757,
            -0.2315549460419645,
            0.2143537890430145,
            0.40434251896653145,
            -0.5624436146259106,
            -0.7620795157532736,
            0.20753952233924716,
            -1.1425563500891691,
            -0.19530932893149694,
            0.5542235469667803,
            -0.6168961291298699,
            0.8707727287138345,
            0.004090093361452588,
            -0.7653440299827295,
            0.43276729715978224,
            -0.5708574848268195,
            -0.714487136405547,
            0.2238478497937647,
            0.9846724804811301,
            0.8813180011724074,
            -0.04006637670619389,
            0.40385516401121324,
            0.1654616263141226,
            -0.726238086052012,
            0.7944349251974852,
            -0.020683369902388088,
            -0.3762416538980893,
            -0.6542710320417182,
            -0.18198931919599748,
            0.1690059267925966,
            -0.7852792152586383,
            -0.2014860249569457,
            -0.6364978198806471,
            0.4470501965280023,
            -0.9633989003596386,
            -0.9937545428580794,
            0.6812813610788949,
            -0.82289996756127,
            0.47102680510098593,
            0.8208395613528017,
            -0.014023958903018099,
            -0.38306811219400183,
            -0.12983627069360001,
            0.4291306111288604,
            0.9941535335681126,
            -0.3872738297957191,
            0.024996268812874905,
            -0.8385001993773527,
            -0.27247900591064206,
            -0.7545346796999353,
            -0.9726426690473862,
            -0.06447671568816675,
            0.1754237782840104,
            -0.8461140507031059,
            0.699616301522728,
            -0.5860943965783932,
            -0.11814098930702219,
            -0.6442123755319623,
            -0.5638435729214003,
            -0.4412802958156905,
            0.7049513766668135,
            0.5680159359912436,
            0.22684967541854187,
            -1.0738882817798565,
            -0.6741346748358596,
            -0.4766463566019271,
            -0.8711597087579073,
            -1.0233625936526818,
            -0.6005214899851996,
            -0.6626911053873686,
            0.9276170478757205,
            0.4447182718094945,
            -0.2638778215648385,
            0.5565204250391571,
            -0.19508953512569946,
            0.2372940220984722,
            -0.29394308274839615,
            0.4447958602028857,
            -0.044605711113037315,
            -0.5472677244036874,
            0.4024465780241334,
            0.0134228916657595,
            -0.1452612007314347,
            -0.08315610978230739,
            -0.10134304629936317,
            -0.18188093248963197,
            -0.6347235681479485,
            -0.3428676481086195,
            0.4700691080871123,
            -0.7633500722608436,
            0.2146643539906646,
            -0.34435554119713035,
            -0.9831783806887678,
            -1.0954626520116906,
            0.7384894100303191,
            -0.015190629175062212,
            0.8576789302474305,
            -0.9027849786728034,
            0.1764500776289154,
            -0.8287980657387398,
            -0.00613579404253409,
            -0.6767040021411064,
            0.184600784605407,
            -0.2949193664883084,
            -0.5756644546478945,
            -0.24781623930610974,
            -0.5731362281339174,
            -0.6474352360662373,
            0.4225609610812455,
            -0.23046698710689387,
            -0.7417268457433212,
            -0.9675178960870524,
            -0.22055277081410457,
            -0.8542742067840393,
            -0.6533892594622329,
            0.5596893882499371,
            -0.13663097014512676,
            -0.47711526094140194,
            0.08117095358816921,
            0.0922539332740365,
            -0.6958924040998167,
            -1.1712106201208026,
            0.21585212338330564,
            0.2822544352136919,
            0.8533570510090762,
            -0.21438684096221075,
            0.00017802454445686727,
            0.005555023840404479,
            1.0914282880626007,
            0.46678547943908943,
            -0.6432225744026988,
            -0.2661247148991307,
            -0.1560502132563831,
            0.6226674915241877,
            0.4537528057423787,
            -0.3571929759081208,
            -0.9687687794967723,
            0.6275029171548495,
            -0.3971921832196291,
            0.11835320718376233,
            0.23434404169683007,
            -0.7588218615962103,
            0.6502103685534891,
            -0.21151934347177556,
            -0.08812586171544017,
            -0.21948378771007981,
            0.2791223410371297,
            0.7496337916315235,
            -0.5073651072433709,
            -0.0224012418444141,
            0.2858557688669586,
            -0.4814784022099567,
            0.369049891112015,
            -0.02666421609959091,
            0.11933550988474789,
            1.0084962677060556,
            1.0245189176603076,
            0.24189224197612053,
            0.26903437124737895,
            0.8243319043914907,
            -0.8777855859977381,
            -0.3458449536808311,
            0.5003122317746287,
            0.6128174398126445,
            0.7581397623976605,
            0.7462122534811199,
            -0.6898040481982074,
            0.01655492434835923,
            0.9660255892577209,
            0.8686178186542532,
            0.4328304855636892,
            0.1288023318139704,
            0.37045892690571824,
            -0.28334719767433736,
            0.6275031944936669,
            -0.8872488126753841,
            -0.5303141620720695,
            -0.5583427130552931,
            -1.023515515943624,
            -0.18608430503559148,
            -0.03398090597678901,
            -0.6744124956291879,
            -0.5087840367902293,
            0.4482792200909949,
            0.22818061358942412,
            0.2307583108401915,
            0.6656757877077569,
            0.2709039640523448,
            0.31916997447576284,
            0.5914308708502733,
            0.9296141146441174,
            0.23969274400053847,
            -0.7669848017559273,
            0.6290087281904344,
            -0.12738410459776342,
            0.290128184099932,
            -0.01982477134085364,
            -0.5952784560684758,
            0.8854746345977877,
            -0.08490723908647307,
            0.958268383223453,
            0.6775455122959733,
            0.7572053051270708,
            -0.4755243060513967,
            0.4010185805067511,
            -0.2850570140176851,
            -0.4588713317061674,
            -0.4706284925152015,
            0.21816489263368435,
            -0.9044026429298638,
            -0.1808984304218389,
            0.10410763450272681,
            -0.8508537748134051,
            -0.5219928188174877,
            1.1528634137003129,
            -0.023678280355304983,
            -0.19695076901491934,
            -1.00131566438718,
            0.8768366400350824,
            0.5311932399657445,
            0.7740624384445155,
            -0.23933506592665174,
            0.541365780684386,
            0.8231063122739968,
            0.38800105462750456,
            0.8703234878826779,
            -0.5716902816191753,
            0.7316601290530956,
            1.014326155522369,
            -0.1839625635775803,
            0.2866564713002231,
            0.3411316345315553,
            -0.2821160561957981,
            -0.566300816449691,
            -0.2596334051606995,
            0.8188272906073493,
            -0.05435703453833221,
            0.5647258177435337,
            -0.09937129917955337,
            -0.6290259225742559,
            -0.6717614827303973,
            -0.7120091291520589,
            0.0627323108737646,
            -0.7316984712170148,
            0.17998221722630772,
            -0.23937472219568032,
            0.5016617922021681,
            0.6597378041022385,
            -0.19628805651820097,
            0.8620367437068607,
            -0.21783194649673418,
            -0.8390905354581631,
            -0.9823097469284763,
            0.9848086254542114,
            0.010044032715019333,
            -0.26240979890297583,
            -0.5988409872601156,
            -0.44787146810836653,
            -0.35573082566158626,
            0.5322678735359734,
            -0.49559481687724116,
            -1.0474604600290682,
            -1.1194974575137664,
            0.5694697980069764,
            0.49730076781185734,
            0.434875283796958,
            0.5076303520943974,
            0.2985421276237701,
            -0.5986327976286886,
            0.31541534408799227,
            0.6885093934757439,
            0.3062156198159183,
            0.5305042266653076,
            -0.5045192122281597,
            0.5687790090674176,
            0.4424581507330929,
            -1.014647533131983,
            -0.41751049302136545,
            0.7785944562351342,
            0.44258522368452413,
            0.05762269816365603,
            -0.794189533402003,
            -0.4542082526343674,
            -0.6208269199233196,
            0.5238419227724008,
            0.6387381517500397,
            0.1543852576441732,
            -0.24697155443174065,
            -1.143969880185191,
            -0.18569562420305755,
            -0.05386662855188513,
            0.16534079216527298,
            0.4978797042806024,
            0.7689744170667525,
            -0.4406570708897199,
            -0.7739450546357175,
            0.3197593244188557,
            -0.08143803056240292,
            0.8099438429143667,
            0.6329522260121554,
            -0.28782877724159767,
            -0.26448909977377677,
            0.18389442162507916,
            0.25737185383507055,
            0.04075661550150844,
            -0.8823907124384823,
            0.31543126406447086,
            -0.7574675675163139,
            -0.22228973119637593,
            -0.029262815157222396,
            0.7470044065212723,
            0.2637096082499752,
            -0.8355904783529791,
            0.6680874064303645,
            0.34713509902684253,
            0.01814835071685353,
            -0.25547877858672774,
            -1.001835848838223,
            0.25041161397387385,
            0.6307540148366605,
            0.3489935106559762,
            0.5483357622369828,
            -0.38808333577369253,
            -0.780196121190957,
            0.5902447553881148,
            -0.13253812088968075,
            0.568309830298291,
            -0.8598991607068643,
            -0.45791207127266237,
            0.16267710921785575,
            -0.9997487068476252,
            -0.04432202690412418,
            0.8449830017362822,
            -0.6752899910016318,
            -1.0188014849790108,
            -0.6855902320394468,
            -0.8834863571659409,
            -0.36852348520032197,
            0.8748715112954423,
            0.18693561880941148,
            -0.019026630849290873,
            0.1288600520719935,
            0.8222341252579141,
            0.013394474678824682,
            -0.7606865155754141,
            0.9798991251461341,
            0.8529642282125196,
            -0.5977258794742625,
            -0.08363948002052309,
            -0.29457092509588667,
            0.39464802520111975,
            0.47277015074389683,
            0.18080465816750993,
            -0.3145790183149637,
            0.4432889232878401,
            0.5797250821495163,
            0.26058524412231,
            -0.5771476829937424,
            -0.15041982450154245,
            -0.7270985966739291,
            -0.09566095792718807,
            -0.4853214487773323,
            -0.7342249793854864,
            0.40020870505697215,
            -0.004174790879866132,
            -0.6233932969040427,
            -0.501855208353872,
            -0.45868311581675203,
            -0.9649961840297917,
            0.7950479504030008,
            0.3015925086599321,
            0.21755248002563543,
            -0.7229827709161472,
            0.3555394729202111,
            0.08606131996953666,
            -0.40231184805069764,
            0.19286189536342724,
            -0.16632626260653288,
            -0.6307876219469126,
            -0.9855688732063772,
            -0.9620509972799097,
            -1.0389810260168217,
            -0.5233059586114943,
            -0.9605400230329908,
            0.44611456264677696,
            0.9466557446988801,
            -0.268181441938957,
            -0.2882461689292446,
            0.517520345491077,
            0.061228503433966464,
            -0.9575491778792188,
            -0.8559837994721761,
            -0.6779874998175109,
            0.7725315262915854,
            -0.24035774296439344,
            0.7933822548445907,
            -0.11909670074945265,
            -0.46643750663282213,
            -0.1942069616030184,
            0.8645960849552683,
            0.6556475183668227,
            0.8649111646520913,
            -0.11362351071166105,
            -0.4768786739521996,
            0.6797612443139283,
            0.18551092954312193,
            0.05021478513628888,
            0.6410835614586288,
            0.6950049694175947,
            -0.04027683358349374,
            -0.6205947193598752,
            0.30291365286952565,
            -0.10448976219536674,
            -0.3998688665701664,
            0.9017916588475353,
            0.43299726377075765,
            -0.6236499616664867,
            -0.8220244387742147
         ],
         [
            0.660795120970945,
            0.7869466460918523,
            -0.12067836694117424,
            -0.17858462266176567,
            -0.46349669302294505,
            0.47879173844402756,
            -0.17217774544765907,
            -0.15275434232859975,
            -0.8353367272784816,
            0.1806179444290722,
            -0.21741957264080536,
            0.14188465621153934,
            -0.08014555825477225,
            0.8427246808904175,
            -0.04776539474501709,
            0.7316732118338641,
            0.7932985972316172,
            0.4537171476797427,
            -0.846971301498522,
            0.9201855408989984,
            0.02532413622916603,
            0.2855590897227821,
            -0.2200180488969753,
            0.25470934458212935,
            0.08006773191800955,
            -0.16033457628868347,
            -0.41459745561945305,
            0.9261873827161636,
            0.5556926177995732,
            -0.9578518611998149,
            0.1473568854557793,
            -0.8459626260011405,
            -0.878242621625488,
            -0.1003812799918845,
            -0.9291795962793142,
            0.8533588177852266,
            -0.6544527634911708,
            0.587078210078195,
            0.5906008145689388,
            0.2521315877625221,
            -0.44710545814884944,
            0.5864754148093393,
            -0.5866194255357609,
            -0.1974033129950355,
            -0.6215311625062002,
            -0.9893827267960847,
            -0.9026114074323509,
            -0.7671741474852275,
            -0.37339807170735706,
            -0.7087197705099205,
            -0.10339445787563374,
            -0.021551621841327438,
            0.8695426398510125,
            -0.8107580125760506,
            0.9375442392936205,
            -0.756302509993669,
            0.7574681060237075,
            -0.17968778213740177,
            0.5993720640357129,
            0.4450983758211452,
            -0.912928695552503,
            -0.11750123469390857,
            -0.827084932234593,
            -0.7390250420316441,
            0.2950008984111809,
            0.5611311821730222,
            -0.6208445127291453,
            0.5100414155631124,
            0.34097608833314813,
            0.7722654661918605,
            0.7245008983579109,
            0.1380131397790696,
            -0.966557836628538,
            -0.7800226440108494,
            0.6029960299916554,
            0.24647274179725928,
            0.7447873728035189,
            0.709149472551044,
            -0.36212548062145167,
            0.038243025608750585,
            0.3526018112850201,
            0.14326960278990025,
            0.7437486087211432,
            -0.16525950340714052,
            0.8647996281123141,
            0.7470971393885072,
            -0.526881873479428,
            0.5067609026934353,
            -0.12510449341920338,
            0.3735394000722617,
            -0.6769940660484532,
            -0.9478969791361251,
            0.6231594606173451,
            -0.022711263107770798,
            -0.07089756489854378,
            -0.600744402699926,
            -0.33637319648583863,
            -0.5061323449397678,
            -0.46901877655771784,
            0.10361741944468726,
            -0.8564700446562825,
            0.3154752240334993,
            -0.45062904351652233,
            -0.17560077530855003,
            -0.05208221001411042,
            0.26786797534899437,
            -0.15081794316909622,
            0.5066865467494283,
            0.9096869191046515,
            0.8514105557295342,
            0.22013017665664691,
            0.15951907805586918,
            -0.7561466657053738,
            0.007346496985847501,
            0.3414732854654866,
            -0.8856244641082186,
            -0.5342149404881086,
            0.04285454667328831,
            -0.9549564617803759,
            0.0031249856134427456,
            -0.49411018654115146,
            0.8326361146046223,
            0.26922739420300573,
            0.4650009547272975,
            0.3825298722242946,
            0.09085792914398927,
            -0.8887995975687225,
            -0.7166271662340432,
            0.4916009491289869,
            0.7353625814390059,
            -0.6004389147106525,
            0.6220860330603718,
            -0.9564779372699583,
            -0.4631699599355459,
            0.09618636757087365,
            0.5334706516894939,
            -0.8678849432143151,
            0.36767291611900493,
            0.9342015398384477,
            0.21628965021811059,
            -0.5497792823742033,
            0.7444212688372894,
            0.16949684849684732,
            0.3570868745826536,
            -0.20457074227550112,
            0.32027170281735684,
            -0.6020528633128294,
            0.24927325848364307,
            0.8320924543985255,
            -0.443102456873948,
            -0.4051595210290393,
            -0.6958634691335259,
            1.0374456857269252,
            -0.24484600627815928,
            0.04100442468233823,
            -0.4607220457463285,
            -0.6011808498944503,
            -0.5528502874512654,
            -0.04618651157131507,
            -0.2942184375990392,
            0.04067707815553545,
            0.5672093989149526,
            0.7092786299052268,
            -0.9530470234929699,
            -0.9812620633392203,
            -0.6901488639157062,
            0.5550201321503769,
            -0.1901030244774084,
            0.27668857134607594,
            0.5596768304470218,
            0.7453663781795451,
            -0.3254653141467349,
            0.8673057099860184,
            0.8734303690547283,
            0.8447340768780449,
            0.4823664066225559,
            -0.7254767915448375,
            0.7732711669286393,
            -0.32740684016871835,
            0.15154581206021434,
            0.7937314662040251,
            -0.391404522032329,
            0.6999565733418756,
            0.3927509323050998,
            0.3380639572256259,
            -0.7989407966279078,
            -0.7283983868906438,
            0.7613343790096959,
            -0.07920134226700976,
            -0.5391276110987083,
            0.6295785735397981,
            0.4985549023687918,
            0.5052055416679496,
            0.24681252141397472,
            -0.5344105071030066,
            -0.9617281457924257,
            -0.7031765165068525,
            0.7957607840549157,
            0.2122600841801353,
            -0.9398260578208116,
            0.8193418611804498,
            0.626437056740759,
            0.485029919882855,
            -0.6459090090867646,
            -0.4882632229461439,
            -0.5190206777455634,
            -0.5889398564591614,
            -0.7507056683123118,
            -0.11587861190296637,
            0.01563860335312839,
            -0.6831048002489526,
            0.9662759391203241,
            -0.5064939622122235,
            -0.22791553743812834,
            0.22629857974741946,
            0.33243707594280275,
            0.6861450823881848,
            0.5792430130447345,
            0.09695203285957804,
            -0.3237757223073887,
            0.901011404339967,
            -0.9206953472348871,
            -0.8529333524152568,
            -0.3812891794014968,
            -0.005180504157067326,
            -0.18276034080936432,
            0.13864652698978824,
            0.4505601450229942,
            -0.6329615577532307,
            -0.8777798901131227,
            0.7899172417876583,
            0.009142240704317529,
            0.4649166479766889,
            -0.6598795872494357,
            0.8313636609631974,
            -0.24638891966403056,
            0.5449882618873318,
            1.0586981410656569,
            -0.09692905265892025,
            -0.44476144575789833,
            0.35074809317195804,
            -0.29647658659524323,
            0.3841953150712761,
            0.9105517944568261,
            -0.2313794567169771,
            0.01526076673024622,
            0.49286242485682485,
            0.9643846324096045,
            0.3235928361835772,
            0.07649451072961523,
            0.6467458874229852,
            -0.3884724510488895,
            0.18378761281550787,
            0.04736626437126916,
            0.5757940327262661,
            -0.8464953096487698,
            0.6021471308482246,
            0.6557710696117091,
            0.7047915329548501,
            -0.8829602295037355,
            0.8712495982832106,
            -0.9531992849567891,
            -0.019658213295413254,
            -0.7030455820704509,
            -0.7980822937810889,
            0.9293891882210467,
            -0.13822095687711616,
            -0.4511116711902499,
            -0.7783915214014286,
            0.9106688314169987,
            0.9721705576911058,
            0.04907077979063201,
            -0.29132290726040516,
            0.22977105122010336,
            -0.055371257889431785,
            0.8565137767571857,
            0.955185585892472,
            0.5506822922483702,
            -0.10290627084448771,
            -0.06746802043254689,
            -0.92668444957273,
            -0.22435354703762805,
            0.9218456881130899,
            -0.44956726720553847,
            0.577334502930342,
            -0.5499347626037072,
            0.7789517442190351,
            -0.16654349067055657,
            0.0722005630470225,
            -0.5194971052502666,
            0.8725887401495601,
            -0.4761328618474965,
            -0.7270442485161418,
            -0.2672226464422036,
            -0.03949990026623611,
            0.7359474281710464,
            -0.8336591395311521,
            -0.3857857992773353,
            -0.4497458766123315,
            0.1538980144958362,
            -0.010526376770626858,
            0.08188629590639156,
            0.11557803995517063,
            0.4468177277383795,
            -0.44920759705128827,
            -0.3854680330640269,
            0.06289763042396275,
            -0.6868667094374205,
            0.9607964268444009,
            0.9089329290575218,
            -0.9999767136565849,
            -0.6032131046696573,
            -0.7898951766227,
            -0.7397067873564647,
            0.22678032519071425,
            0.21857795415161022,
            -0.1490334963904646,
            -0.42506498754664956,
            -0.410498203784854,
            -0.763581748218504,
            -0.17743880180940788,
            0.1890203431244142,
            -0.34360337892875215,
            -0.6678625723045469,
            0.5736092552725757,
            0.8170247139637944,
            -0.1634070376906318,
            -0.7313649966680097,
            -0.973900429901302,
            -1.0379795424332987,
            0.6144070561033566,
            -0.43179154182909035,
            0.43727979831933,
            0.05342023651131835,
            0.712519069232225,
            -0.33318655727314384,
            0.5613022195200192,
            0.9339457086286937,
            -0.7483808248280772,
            -0.02730666528430323,
            -0.8274093978641387,
            -0.6399193848725638,
            0.4432619061623176,
            -0.31898407224521275,
            0.6255789435070344,
            -0.41382689564503894,
            -0.5997083523162459,
            -0.137875073482412,
            -0.5329083549599755,
            -0.9115926167694266,
            -0.5468781811667843,
            0.2923705432987242,
            -0.8695527398199453,
            -0.05072153867231021,
            0.020409576723583147,
            -0.8052388713716769,
            0.5370819114033629,
            -0.9205424563377459,
            -0.4012127328555372,
            -0.9817083621092945,
            -0.19641009792004532,
            -1.0085310529431752,
            -0.43930417949704004,
            0.3332870131453016,
            0.5466323803383818,
            0.5874984744623817,
            -0.020976072559459644,
            0.98343184969979,
            -0.9662781423004541,
            -0.39600001362264137,
            -0.7304226552683097,
            -0.8480963479489741,
            0.6722107333678811,
            -0.5619038225411209,
            0.7874774244428708,
            -0.27045334053982717,
            0.2187674000551797,
            -0.3151767010242191,
            -0.8325281243929231,
            -0.568156607268702,
            0.3007828338237471,
            -0.9220484222523064,
            -0.6692987499537685,
            0.021276731997461787,
            -0.13575975843920357,
            -0.3233009736989695,
            -1.0827858008522862,
            -0.834754981045802,
            -0.700945587677678,
            -0.9553334872975787,
            0.7653103919468434,
            -0.3849903473117775,
            -0.7056757211106809,
            -0.7872550385916465,
            0.7191957037632022,
            0.3456923664681148,
            -0.3099474539671884,
            0.6122525928021262,
            -0.47424601882083095,
            0.03529421534054609,
            0.45718721014972863,
            -0.04784405510669686,
            -0.8245058363305955,
            -0.2166551030310305,
            -0.17758455531605194,
            -0.07628045114729487,
            -0.5821293585248178,
            -0.43106491309626865,
            0.15390117635896297,
            -0.5517202531191998,
            0.7490421982744921,
            -1.0226742992585773,
            -0.7466902766050986,
            -0.27480288728430635,
            -0.9554661789335659,
            -0.15124549452390945,
            0.33415075287287166,
            -0.7821557547804278,
            0.6936617473757835,
            -0.007250700998311034,
            -0.31011103030997733,
            -0.989184366887195,
            0.6499950130814347,
            -0.5115776868342069,
            -0.9248072396577294,
            0.05915989747258903,
            -0.9006207486449243,
            0.3147711003421527,
            -0.758427048546837,
            -0.3070289527292735,
            0.034770280704740725,
            -0.35994081998268235,
            0.745750146445887,
            -0.4080144060217006,
            -0.8375346373452502,
            -0.6220248292343213,
            -1.0196297060365387,
            -0.4984192999134534,
            -0.9680687578944054,
            -0.09075806238765681,
            -1.0929516698167991,
            -0.07476783203372041,
            0.4033746727550859,
            -0.5900417335806696,
            -0.2088252364604891,
            -0.05053150192793733,
            -0.07761767357660064,
            0.46773735762171775,
            -0.7074642882215602,
            0.8594947234759681,
            0.6901318267541969,
            -0.492291728947208,
            -0.07722963050579046,
            0.909469032320649,
            0.6088947375980991,
            0.41899966276054484,
            0.010466120600792644,
            -0.5642561643405901,
            0.5691855643841127,
            0.0060916101088229705,
            0.6649033168377094,
            -0.838959333759068,
            0.7426581827221364,
            0.7971228535635236,
            -0.03449719326048267,
            -0.6519928021483006,
            0.09984277717338755,
            0.4022386464789231,
            -0.8661594445972508,
            0.3768946467049477,
            0.08167121474225633,
            -0.3013193193621502,
            0.02802346957993165,
            0.6457818831716451,
            -0.6894495500225791,
            -0.7356167806780226,
            0.1371234579622706,
            0.8270041291743974,
            -0.17277598467506622,
            0.4938422402107078,
            -0.45309655049099007,
            -0.5508906605261296,
            -0.5194175117180783,
            0.16264379740849075,
            0.3054442335904902,
            0.2481689882687942,
            -0.8368511837750476,
            -0.4403967230920868,
            0.9529632018985569,
            -0.1600161248147511,
            0.5630075389426009,
            -0.31971331258054936,
            0.473236440850989,
            0.4138905206776158,
            -0.4736640059016796,
            -0.5413583799078463,
            0.44837804373406104,
            -0.8311017194968789,
            0.06710965000130327,
            -1.0564528317903696,
            -0.6178441646536617,
            -0.020161622698611305,
            0.3535191751285437,
            0.6229165987959603,
            -0.8022277881158354,
            0.13927544365213917,
            -0.6692942586134311,
            0.7350360923501299,
            -0.6275013458285262,
            -0.5020467072420437,
            -0.4209658887067405,
            0.8759117828781813,
            -0.8095434055133783,
            0.8427638004364147,
            -0.15998883769446784,
            -0.6123106048383623,
            0.8086739421731678,
            0.32090156390034885,
            -0.412895687450365,
            -0.5851070007984218,
            0.2606175345476311,
            0.30638590493248524,
            -0.159006044893261,
            -0.18826335040965297,
            -0.4790583538929041,
            0.17624676810589007,
            0.33669415778181894,
            -0.029936357547963848,
            0.8159360610820446,
            -0.030333524201930723,
            0.8936018103125327,
            -0.598594638682136,
            0.8225254762973312,
            0.6188326872304711,
            0.1272402726982513,
            -0.5824074698690023,
            0.6307523003702977,
            -0.01633691193605383,
            -0.9563992201280211,
            0.8223576515686951,
            -0.45465940406951494,
            -0.9000034771137383,
            0.5194668287390862,
            -0.9358021706319305,
            0.7802965725273875,
            -0.5425730504506975,
            -0.02107134042325436,
            0.9000938803643591,
            0.5452186760096334,
            0.4835497735839481,
            -0.6603009041849944,
            -0.17521878860579454,
            -0.6824308562982352,
            -0.6263962181585107,
            -0.11646233078511399,
            0.25449815136844034,
            1.011241425475115,
            -0.4173672549001913,
            0.3991760943872804,
            -0.5185030931109967,
            0.23461025536555458,
            -0.9680537966841861,
            0.20330924150435456,
            0.42735415746718647,
            0.8184584604417671,
            -0.8982751736796648,
            -0.644755976025519,
            -0.9075640665058373,
            -0.8696022892538112,
            0.7689064975678068,
            0.714621236416993,
            -0.5082032920315314,
            -0.2500521392276576,
            1.1662078579811617,
            -0.7262195220364632,
            0.8324361466176368,
            0.7960904508674796,
            0.3097216672553237,
            -0.23970252062562653,
            -0.47242311285072036,
            0.9207467282492031,
            0.283027817777853,
            0.5402486473934112,
            -0.060020776411090486,
            0.9206899018595364,
            0.7920490576710374,
            -0.1040331097347205,
            -0.7094386142688441,
            0.8965858011462801,
            -0.20737704221595593,
            -0.7469946714870803,
            0.08072207975705914,
            -0.16381949572018317,
            -0.7665391320717466,
            0.15523386368339817,
            -0.308969680625915,
            0.8651355876210092,
            0.9207390456478702,
            0.13604385207024441,
            0.357220395458291,
            -0.6009502920266783,
            0.9924791981756946,
            -0.46220558780054816,
            0.472693313181454,
            0.6859336931217188,
            1.0608211048056184,
            0.34010223541789364,
            0.6489529099074608,
            0.9993896642100251,
            0.4775115352539171,
            -0.7628315804925254,
            1.0626127984166498,
            0.8189630993724915,
            0.00588474947251407,
            -0.8296180967318855,
            -0.6452122724434787,
            -0.521926295792923,
            -0.302023324816974,
            -0.20023525470602682,
            0.783915556759749,
            -0.9696481849179709,
            -0.5442628493714481,
            0.3075851192597238,
            -0.13741615401963456,
            0.2544495629694099,
            0.7026503994885566,
            0.34726966013324584,
            -0.13730089874798204,
            0.5685660342674523,
            0.29008989653119527,
            0.22979268845106762,
            -0.14467296484492478,
            -0.34447410703323084,
            0.37856554095937683,
            0.5691154056925635,
            0.3346258579817691,
            0.5892744209485002,
            0.997918910227775,
            -0.09954737006327542,
            0.9395856027824643,
            -0.07308748578668987,
            0.9179659198288898,
            -0.10424621593995163,
            -0.8686484845944374,
            -0.9521733370590356,
            -0.5817967016947841,
            -0.5301214670500305,
            -0.8440527619526269,
            -0.6080353651005573,
            -0.16654710829153274,
            -0.049585022680528945,
            0.8068147772077461,
            0.4210766924135035,
            -0.5980283833986493,
            -0.24733927282952706,
            -0.06536714788599858,
            0.6122779610813666,
            0.10469883761720959,
            0.9633920688984855,
            -0.8039118554402493,
            0.7694217424860889,
            -0.696415869889828,
            0.3846645999032139,
            -0.19914733381104802,
            0.4938818744814843,
            0.01832772747428653,
            -0.5126231997678282,
            -0.8382382913192835,
            0.8186377261923201,
            -0.6059742756224227,
            0.02399058023452145,
            0.7955122192784027,
            0.033377423590748204,
            -0.42601906137833045,
            -0.8463221577399499,
            -0.014531166787533556,
            0.2215740759365638,
            0.3080856174190722,
            0.46873536460936327,
            0.4896444442021187,
            0.18843041490205856,
            0.6941794145354843,
            -0.748769407275345,
            -0.2582479600434748,
            -0.35849771694323856,
            -0.39695121310843695,
            -0.33151353565240393,
            -0.5825765970767662,
            0.056206884983177,
            -0.05527410141464572,
            0.749713479817679,
            0.18835996561760254,
            -0.9717088634498705,
            0.1264399832186549,
            -0.043406714590151226,
            -0.9308878227362365,
            -0.23116576776905312,
            -0.14007505694388184,
            0.4678366460403943,
            -0.21981759352132013,
            -0.6870815577970141,
            -0.5315484278837234,
            0.913606393356123,
            -0.8128610994169877,
            -0.23458047077558544,
            0.37233531062350567,
            8.169322139331027e-05,
            0.6705028687072768,
            0.3912400677163331,
            0.06490177280776077,
            0.3717035687586034,
            -0.09942844717910324,
            0.8074226527549987,
            0.34954809110596413,
            0.6797247288675663,
            0.7659644863282072,
            -0.23446039905556862,
            0.7664337264210821,
            0.17492198531622258,
            0.399541947129592,
            0.2782781006230496,
            0.8030266925904384,
            0.1710751420092592,
            -0.41946528994734794,
            0.39405154687483573,
            -0.9539821867590065,
            0.941097559446414,
            -0.8659007794835673,
            0.4682706137934488,
            0.05427383505208734,
            0.3025853999180622,
            0.389283965824203,
            -0.028645451751527815,
            0.45729964180617644,
            0.7418167752579816,
            0.6827082853443762,
            0.20904632217124075,
            0.1006912464130374,
            -0.6238709337829842,
            0.06574882898726953,
            -0.9324167892337526,
            0.5584313331424888,
            -0.4517580709167819,
            -0.7585018905328275,
            -0.5473228831716167,
            -0.9705168542075793,
            0.616026248483995,
            0.1942281442968128,
            -0.4828576520609467,
            -0.6157500153010861,
            -1.002906900878676,
            -0.0650965578971036,
            0.15217007798310406,
            -0.5424254508559784,
            -0.22676197444916435,
            0.21308708719604935,
            0.44608240419505585,
            -0.5587743335237915,
            -0.7649119587957377,
            0.7509560129829468,
            0.05911548260672873,
            -0.7776924848631286,
            0.5536391091278594,
            -0.4211965489765641,
            -0.029401054626840478,
            0.4976225911087861,
            -0.9929489948120598,
            -0.04217033053513521,
            -0.7176281698936957,
            0.11511309000328106,
            -0.91781057566648,
            -0.4808448743845268,
            0.10627774532191296,
            -0.20935756707332284,
            -0.397783921802504,
            -0.03987309307835572,
            0.8907734879670862,
            0.555266034195235,
            0.45147334803246186,
            -0.5989180571946399,
            0.42504120996121564,
            0.8461904731303317,
            -0.09085061681045149,
            -1.0015854639796384
         ],
         [
            0.02021282037884356,
            0.9947756323968591,
            0.8841377618768343,
            -0.4732249270255357,
            -0.9073976754663157,
            0.6046780126697969,
            0.7844096195141065,
            -0.3795675350290974,
            -0.8852418214380847,
            -0.36654279648003113,
            0.7859621191932794,
            -0.4227436490879756,
            0.6680086095936942,
            -0.1193909966179152,
            -0.6358865638335861,
            -0.1208792159972182,
            -0.22772638544188956,
            0.8389152435274324,
            -0.4896472075884735,
            0.6646421300230595,
            -0.7322852570019557,
            0.05910618757178488,
            0.5652879328008099,
            0.6119475192536016,
            -0.5997753419528574,
            0.6256509376950413,
            0.9842709292995645,
            -0.10930785270933784,
            -0.03604969086763483,
            0.5627538213287705,
            0.7366183784467294,
            0.5522578249134474,
            -0.1722292060843717,
            -0.5480502914736524,
            -0.6599336268450048,
            -0.9167014153203985,
            0.32351485163009436,
            0.4158848877334977,
            0.2995524963376031,
            -0.47888815478281843,
            -0.5003346109306732,
            0.27985552103037725,
            0.5703739789200312,
            -0.28278533427848335,
            0.43482540219396143,
            -0.5553094114617598,
            -0.43087135344847777,
            0.7553102956414491,
            0.1295715189812442,
            0.07379660723990393,
            0.3815799087022778,
            0.9741893725893301,
            0.26303451202932876,
            0.7307300427079072,
            0.6497752300430094,
            0.639700179010123,
            0.20740700974998455,
            -0.9107162055782837,
            0.04586577094115225,
            -0.2657120811717144,
            -0.42680801780135713,
            -0.18053164057008692,
            0.3913658208361221,
            0.7547751345706245,
            -0.5374456537362091,
            0.5928277209368368,
            -0.1967719308906629,
            -0.5994962751586057,
            0.019958125757429335,
            -0.048833881034251965,
            0.9218082614834933,
            -0.21382567308488748,
            -0.6669507237813568,
            -0.9163893893802318,
            0.13989777079290705,
            0.7124849372745283,
            -0.6755068770499765,
            -0.5121311735086209,
            -0.0009139395251761041,
            -0.07356608362604052,
            0.9556080210231713,
            -0.8004202527131359,
            -0.11347997352148324,
            -0.012192067181254701,
            -0.21896918518657,
            -0.036231350588435705,
            0.17284677040508925,
            0.5336297720195394,
            -0.15378298989436223,
            -0.5338862078164335,
            0.011642501712147478,
            -0.16870274178472766,
            -0.6230051620446274,
            -0.08060684921684336,
            -0.6188016254806814,
            -0.229683906822228,
            0.7358619944107279,
            -0.2901150522211047,
            -0.8697694849604953,
            0.9646851569655565,
            0.7399820523600614,
            -0.9489410563304553,
            -0.3429100778346004,
            0.01236862320138865,
            -0.5536345208891899,
            -0.19147740859599083,
            -0.6646525718207364,
            -0.4872965296578071,
            0.4229090578578319,
            -0.1321401635034498,
            -0.8965848590982107,
            0.0307994709322831,
            -0.9249329779594483,
            0.571682634474521,
            0.7293050995854307,
            -0.49353356410792876,
            -0.7597119754017677,
            0.549030578871706,
            -0.4336158434824299,
            -0.44808148298337463,
            0.8499211009029649,
            0.4047069624091975,
            -0.7472520170451226,
            -0.4970329346409885,
            -0.8055259852605384,
            -0.33403247886900184,
            0.8244680881075767,
            0.41714169583291305,
            -0.29852220552949044,
            -0.6738710283793072,
            0.7275142252784282,
            0.904974800780867,
            -0.8965120598244369,
            0.0009055195282239032,
            0.15019144383833574,
            -0.8748826888546669,
            -0.19447411281363092,
            0.2282977075635648,
            0.17354405126248687,
            -0.4287245767078797,
            -0.8093809974476119,
            -0.30186963607454337,
            0.8965405262044449,
            0.1354411126011075,
            0.5177197974505677,
            0.9785971793525511,
            -0.6367182728725314,
            -0.5071723957216399,
            -1.0419052439418517,
            0.012891488913609712,
            0.5330809065318429,
            -0.576463001707675,
            0.6855947200644953,
            -1.0183640355256687,
            0.5210149783756672,
            -0.15509424570481398,
            0.1559667286468109,
            0.10863396200376291,
            0.7795906367657824,
            0.1393415641900838,
            0.36190872358037535,
            -0.08204972015331026,
            0.6202499498761812,
            0.7799817289854658,
            0.54627186872011,
            0.14762071340263316,
            -0.8095667484879636,
            0.07884907641423756,
            -0.17292719821095082,
            0.08654167072137843,
            -0.2325869475231418,
            -0.5638007739871448,
            0.8955677805415873,
            0.13903612296802992,
            -0.1319502059550128,
            0.37755676799586596,
            -0.25524568390741276,
            0.24633367040708287,
            0.12634300924362807,
            -0.536271336505072,
            -0.6307430309161001,
            0.48970567303086004,
            -0.42134074586515896,
            -0.3611421721695992,
            -0.8366815133197477,
            0.4957426585879185,
            0.2642564746937647,
            -1.1544738682591558,
            0.3205432867329563,
            0.8419017240162755,
            -0.7470351075744639,
            0.4312390688770934,
            -0.6801317223785636,
            0.189271915223735,
            0.2978781407454949,
            -0.6324471163635189,
            -0.42229007592385853,
            0.7799913472280746,
            0.48697177140549164,
            -0.6573829381386675,
            -0.08420806587262539,
            -0.4983182446657656,
            0.34156475968637084,
            1.1219697151215602,
            0.7348066835909328,
            -0.7710035475430893,
            0.4882955970903168,
            -0.30007135177323335,
            -1.0320669068407273,
            -0.6188217089526256,
            -0.9664075927367537,
            -0.6860931080202861,
            0.37321617386013484,
            0.5898571479780829,
            -0.3112811938525928,
            -0.3227701534469774,
            -0.31881474264904774,
            0.7440354889851116,
            -0.5749098214166098,
            -0.8834161896571201,
            0.4324245190040922,
            0.4767045293236177,
            0.695639800628857,
            -0.8114451435820087,
            -0.5914459996362688,
            0.6516595096772667,
            0.16562617044627906,
            0.7514623766974179,
            0.82409172040043,
            0.0008422545127257854,
            0.10525497495695964,
            0.4144602195844002,
            0.43688719378805785,
            0.5443415137344262,
            -0.9022617439330283,
            0.8137924295879748,
            -0.7229622972501413,
            -1.2531159753669823,
            0.4453295517588706,
            -1.1291373863622873,
            -0.300603348826973,
            -0.21558714992589068,
            -0.15159016720882035,
            0.5852469583203351,
            -0.4333138488970806,
            -0.08391510177185264,
            0.7492896059519788,
            -0.5998819727001741,
            -0.22171708857807593,
            -0.7517663525114537,
            0.32236603742837444,
            -0.45424567263030974,
            -0.4689046301819708,
            0.37150237528085045,
            0.7906249874709176,
            -0.8788035106298425,
            -0.030337349233388763,
            -0.5735260550721951,
            0.5673939698128667,
            1.0832266429593873,
            0.13599363552205257,
            0.5782271257936247,
            -1.0151850721471134,
            -0.26471176691932025,
            0.22534877097316786,
            -0.38259176424995106,
            -0.4736219474454157,
            0.03391739114503806,
            1.1738111266769262,
            1.232409097392221,
            -0.03325855141384474,
            -0.4928319493768044,
            -0.30742271281447764,
            -0.5267682085168192,
            -0.398646850521457,
            0.9229957268678225,
            -0.006304823963170265,
            0.3625379207313712,
            0.758771816098982,
            -0.7222214771720015,
            -0.012295030991114212,
            0.47056368190794795,
            0.7858906471034404,
            0.796439860568485,
            1.0303562495908436,
            0.5187454463993194,
            0.9116101749672312,
            -0.46865334434044376,
            -0.2675977830108188,
            0.03356324852757347,
            -0.596171553418443,
            -0.9312699847487848,
            -0.35096561990965086,
            0.2597032790961951,
            0.1072480041943748,
            -0.18887498614010542,
            0.11252568948853822,
            1.1638382376984886,
            0.8423414373856127,
            -0.5913659470396959,
            0.19916644465745983,
            -0.10304921793268197,
            -0.6085724383868479,
            0.9135070573951007,
            -0.3968163187369055,
            0.966139259503852,
            0.7118866448331875,
            -0.152281526010545,
            -0.6815150779817426,
            0.11585125519466721,
            -0.5036159478903013,
            0.8437232165211894,
            -0.790179345399294,
            0.3511592812104347,
            -0.7521990212112408,
            -0.3868032988270754,
            0.47213887681751326,
            0.7546402137458805,
            0.853835897415967,
            -1.0990387506289387,
            0.767177963198138,
            -0.5686374466326729,
            0.4491618940105065,
            -0.26638214407882826,
            1.129993749062783,
            0.6476955874500631,
            -0.4741270509520235,
            -0.7662992495889602,
            -0.6499068743832689,
            -0.3333921121075374,
            -0.032799153408955596,
            -0.2838428144203193,
            0.2316109480154915,
            0.09892997916480961,
            -0.5032667717331591,
            1.022073884634608,
            -0.9222157451012035,
            0.2739427598706622,
            0.13719244894052043,
            0.6667100848867467,
            0.3565927930146114,
            0.4459963927397487,
            0.3635342459220273,
            0.5608596471620423,
            -0.2435668260198377,
            0.2021189837986505,
            -0.2923935370654146,
            -0.16339573122861364,
            -0.1325371256126917,
            0.038477534355602784,
            -0.28302769482443146,
            0.4017027547183907,
            0.02922120708632803,
            -0.3533844590744122,
            -0.3819424809332767,
            -0.3407772414921704,
            0.2076027340865532,
            0.11623155405288368,
            -0.1819802278160263,
            -0.038027598874017736,
            0.8922302688189536,
            0.12727884238351178,
            -0.7916295415286384,
            -0.1861496543085292,
            0.744305659775213,
            0.1315224726970314,
            -0.3241966878560248,
            -0.5925727026307002,
            0.7752910813442312,
            0.4390125918323153,
            0.5150270877276971,
            0.9117160494561256,
            -0.2583056887229071,
            0.4255441178144945,
            -0.6845410721474968,
            0.1005257639005345,
            -0.42686659603277044,
            0.2257692449751123,
            -1.1464626795821227,
            -0.48898313013298483,
            -0.6092095256410477,
            -0.8361480876717442,
            -0.549914856049489,
            -0.6719057339161766,
            -0.7191916021530581,
            0.07221073008752148,
            0.158629329337473,
            -0.5867813170867666,
            -0.6494030727746914,
            -0.9747907487460089,
            0.8570219381163369,
            0.6211456266992312,
            0.6421609848587727,
            0.7217866764774868,
            -0.060687607400690825,
            -0.4901526641370593,
            0.003634844671179271,
            0.6978482117577949,
            -0.9283452085601608,
            -0.937162804659419,
            -0.7009609365249989,
            -0.4174833855959611,
            -0.013204727812473479,
            -0.13657272014309077,
            -0.21992862688688597,
            0.21763894022650807,
            0.6612464677650429,
            0.057987122199494985,
            0.6394200571995491,
            0.3723978131783221,
            0.17227940239960263,
            -0.2948854627904397,
            -0.5691907505699934,
            -0.12101301475683164,
            -0.20738456699566674,
            0.5832369995719492,
            -0.11647850111944742,
            0.5958917967345364,
            -0.07746207483590549,
            -0.03477316884925674,
            0.19046618005229987,
            0.48809953941563533,
            -0.296975932450633,
            -0.4330841926194212,
            -0.40661271180380887,
            0.806756643269736,
            0.25265215976290495,
            0.828933180206159,
            0.5626519589445352,
            -0.308851106189914,
            -0.049540191357374405,
            -1.0376651827890435,
            0.12997044072950645,
            -0.06183381164402148,
            -0.49140768159431536,
            0.9236766895803679,
            -0.7518121616661739,
            0.624125354120261,
            0.48148423938323864,
            0.7343084369815025,
            -0.07064906277896117,
            0.9372416072306453,
            0.18167100460979885,
            -0.2461353435011443,
            0.6448349560832467,
            0.8776776581961373,
            -0.09688392623367027,
            -0.9127484744901485,
            0.5728600763988886,
            0.35322945194678884,
            0.05229983307089609,
            0.6833323677752802,
            0.739416746040534,
            -0.3854843147125892,
            -0.19570586207569274,
            -0.45486351058935953,
            -0.7061492719906475,
            0.24164366517890365,
            0.3045682380251846,
            -1.0391069407730782,
            0.2641580368079096,
            0.6444207647173275,
            0.45424124295366236,
            0.49578896434398395,
            -0.8169130871705649,
            0.8095719948492144,
            -0.06725207440764107,
            0.00546230789808505,
            0.16167653356067777,
            0.476641522266394,
            0.5777731964932473,
            -0.11452195690212832,
            -0.7996645201311146,
            0.2627575872081587,
            -0.3011382408065372,
            0.24508489230168443,
            0.5936034480676099,
            -0.5470131672941122,
            -0.1602626053587654,
            -0.07422834832647542,
            0.3076951276351761,
            0.24597829249621528,
            0.25129256299980324,
            0.29578649565155135,
            0.3300591894574468,
            -0.01274072503054248,
            -0.1650480707971694,
            -0.21358614611602608,
            -0.475232557654648,
            0.9515087819910695,
            -0.5228418479178167,
            -0.5342062094499247,
            0.4228279465212272,
            -0.2470210309596071,
            -0.1676024795979293,
            -0.6468784162287892,
            -0.13722481925636165,
            -0.7986400683495334,
            0.3857120656774826,
            0.614034099030927,
            -0.12552385070950187,
            0.2843777446627471,
            -0.9155267583724899,
            0.16368044874123527,
            -0.06963647169038735,
            -0.43702777768064865,
            -0.20599600076853777,
            -0.9319087279960615,
            0.12264293348388214,
            -0.5821302135806894,
            -0.4328861875603684,
            0.35823580441492464,
            -0.693109107340171,
            -0.4575170593210423,
            -0.8352577351696127,
            -0.3688587882345336,
            -0.46247481116456013,
            0.1868767743067846,
            1.0553669714112641,
            0.1594289980218483,
            0.10454768383142839,
            0.4841674887309717,
            0.3188736259706479,
            -0.1377105924575492,
            -0.9834814089783102,
            -0.6467248870091973,
            0.6535860971032136,
            -0.756234072399643,
            -0.928418183871068,
            0.0016547886666548413,
            0.997590804167169,
            0.14736553577172276,
            0.6132168715278364,
            0.559218012184023,
            -0.5374589410049299,
            -0.4029819824248929,
            -0.7957950747639319,
            0.8860769976909993,
            -0.9244136440536006,
            -0.18682709122584643,
            0.37229079855530983,
            -0.3716892810477925,
            0.3615162939172246,
            -0.1578202200552393,
            0.19664877360204575,
            0.3644438125844224,
            0.491346816612301,
            0.5894830412958683,
            -0.9546457996046167,
            -0.005179132912786426,
            -0.2770431207234955,
            -0.6097934480554135,
            -0.5116096977474278,
            -0.3385176343957902,
            -0.669918038780627,
            -1.0337162021608117,
            -0.3249958956776857,
            -0.5348993162749647,
            -0.185518471536188,
            0.15934151319488996,
            -0.225441444587959,
            -0.1899496994806119,
            0.38625151553538656,
            0.20321004357761213,
            -0.8953198534745443,
            -0.8096639145646669,
            -0.38833924832872235,
            -0.9744617320935866,
            -0.07281062023539409,
            0.4663378985085233,
            -0.9829604500961562,
            0.4982186089479661,
            -0.5893846633354833,
            0.5084933041884834,
            0.4901173151550157,
            -0.3792719521848821,
            0.05886788449818926,
            0.164182176546654,
            0.04745020649255758,
            0.1136543340112707,
            -0.6742637586322147,
            0.3044412942847917,
            -0.8881619459418609,
            0.17620774070342038,
            -0.8420446603851018,
            0.7730549859558266,
            0.8193083165430542,
            -0.8082432673801514,
            0.7915201319838424,
            0.5642074466609449,
            -0.6918367352642767,
            -0.19119179228387825,
            0.1251864214571719,
            -0.4814182701570573,
            -0.6336631181438076,
            -0.15754360500063752,
            -0.6929116558737206,
            -0.17674268156911177,
            0.4905736658858938,
            0.11012658944222095,
            -0.22221638145090183,
            -0.793764037929752,
            0.8661610364788457,
            -0.28822789684895667,
            0.4165568155025565,
            -0.015317993466584029,
            -0.2134892074420953,
            0.12341450314774893,
            0.3093102491695624,
            -0.5735590200536419,
            -0.2293314481064355,
            -0.6665690827287667,
            0.8864361482972837,
            -0.18994163045847637,
            0.05762718110394254,
            -0.19393776464730306,
            -0.41938059925586385,
            0.6841407496472943,
            -0.4148142477566359,
            0.12063642506839957,
            -0.6468742590463229,
            -0.5858421507000305,
            -0.1709575602606185,
            -0.3113120026560433,
            0.6371720892685925,
            -1.0590409683427022,
            0.12135251971187196,
            0.40320126796662525,
            0.6071500695665603,
            0.5776787040740087,
            0.3687300517135594,
            0.6407575361412307,
            0.1048451221867284,
            -0.795428852293971,
            -0.7229286794834654,
            -0.5390317826350168,
            -0.8607296926554052,
            0.1342710953520616,
            0.8728009712012285,
            0.3539422109394304,
            0.6069824458641891,
            -0.8847424476085934,
            -0.66625821371496,
            0.828610777196127,
            -0.8817193267058449,
            -0.5621080765135323,
            0.4685247871442225,
            0.925044975632035,
            -0.6187546879435628,
            -0.1410404045042707,
            0.572319299545735,
            0.6387598546318863,
            0.016714687539653144,
            -0.8493594063500803,
            0.3577539834174617,
            0.38381734003714585,
            0.5334927543587056,
            -0.528562521770105,
            -0.5551603225473583,
            -1.0080543046731771,
            0.45528799620884086,
            -0.13228890501286716,
            -0.2723900046475802,
            0.11268455324668564,
            -0.6188929601238675,
            -0.5939269879500636,
            0.9605162566733505,
            0.882657526057786,
            -0.9106242017394661,
            0.36679008134668295,
            0.3792315871967706,
            0.0250773861286029,
            -0.641988532648973,
            -0.4020527974533878,
            -0.1890002626819891,
            -0.02039288261505476,
            0.5141403342707672,
            -0.7246418880255107,
            0.3228863309427678,
            0.5217192037694389,
            0.10324726560277533,
            0.7561369728463401,
            -0.5834831386533791,
            0.14164488719768295,
            -0.6956906012741599,
            -0.22310648836548239,
            -0.45846935092649743,
            0.4230224510836487,
            0.6109711855123043,
            0.7146801862205793,
            -0.43442810910797797,
            0.6444672458292341,
            0.14539913611498753,
            -0.4316619957387782,
            0.5647086126215904,
            0.5617944480924615,
            0.23962585818169363,
            -0.5001996874873533,
            -0.76782809217117,
            0.9816496397060027,
            -0.2115988757539108,
            0.5594227695514794,
            0.3578844463157362,
            0.9472304070765314,
            0.06123252856285865,
            -0.7149999556254318,
            -0.3093621279490816,
            0.698849543478566,
            0.7715141109939684,
            0.3692840250943538,
            -1.1111571918516063,
            -0.36343436143120145,
            0.45519207935526534,
            -0.34649344521399617,
            -0.5410143910259376,
            0.37008760165312954,
            0.18515440743241227,
            -0.6653380003465175,
            0.7664047978473357,
            -0.9076365156640289,
            0.20502136182779931,
            -0.6705100218470617,
            0.6951554169546588,
            -0.278664050906064,
            -0.35848559048910383,
            -0.5513694852682504,
            0.40995516818774974,
            0.8553291111809308,
            0.1635939684608228,
            -0.8874446333845308,
            -0.9306260000125625,
            0.6432978254943774,
            0.6250832838108826,
            0.10090963567096159,
            0.6609146791034158,
            -0.5251448278384445,
            0.8030787283272274,
            -0.6122344682056359,
            0.2180173340390685,
            0.6278581663661275,
            -0.4238592041731541,
            0.3294322649359135,
            -0.6792385019914932,
            0.2183002481445621,
            0.2862660782414842,
            -0.36739761965400825,
            0.02347489349115354,
            1.0007100739609038,
            0.9356034208075481,
            -0.9057902068278899,
            -0.25086330444896515,
            0.863414686453662,
            0.13123047346037797,
            0.9101579551051151,
            -0.7565594184515515,
            0.7692901498780175,
            1.019583859007868,
            0.9387481727226473,
            -0.6645509140034708,
            -0.41821400626612876,
            -0.3931825942978195,
            0.29989251601687533,
            -0.34004089348800687,
            0.017343788571184654,
            0.13853163489146744,
            0.27620639763307914,
            -0.7447490628280242,
            -0.8544915184279035,
            0.04686366852538472,
            0.19499458668926736,
            0.6636660257442755,
            0.7254985426187701,
            0.8523680471378128,
            -0.13675130556345585,
            0.2288002342953538,
            0.35432383570987175,
            0.3426344121043671,
            0.03696125276247345,
            -0.17232697701440697,
            0.8430233965846353,
            -0.14352553713526425,
            -0.43031172398355516,
            0.15491856650592495,
            -0.11407724460725142
         ],
         [
            0.13127804405199175,
            0.7662436976814643,
            -0.060193595364520944,
            -0.30947352842050835,
            -0.2203540480645089,
            -0.8081425011487314,
            -0.6173032742232741,
            -0.8987014003095023,
            -0.14437232816093218,
            -0.9735342766685479,
            -0.4539153801828735,
            -0.18541543792783385,
            0.2760555933556008,
            -0.3637261255037265,
            0.35091666218908424,
            -0.07918040198097537,
            -0.8545635349244903,
            0.6526123591441307,
            -0.28815302865038395,
            0.6558177625159097,
            0.37825616881232205,
            0.287255410887824,
            0.758040771120367,
            0.8521181456874599,
            0.8478346540545713,
            -0.8753373084113353,
            0.18211709603802076,
            -1.0147244400676807,
            -0.49585046448800374,
            0.7365087030074987,
            -0.3413502800118333,
            -0.8033588962675263,
            0.7140985378860424,
            0.7375717073471059,
            -0.8627913919378635,
            0.8553395686773542,
            0.09432560252349324,
            -0.1547185097902899,
            0.7050589067700407,
            -0.9746146403349716,
            -0.7092187349130163,
            0.6324737899322187,
            -0.6430558343423796,
            -0.4140637044060946,
            0.9289869667771483,
            0.03224251791772035,
            0.5324275070158652,
            -0.33163841922759796,
            0.597483764016028,
            -0.4925251383476712,
            0.8992220365247706,
            0.43833827518767343,
            0.8104323280121543,
            0.26455341528065734,
            -0.09583020984846499,
            0.2980867043156381,
            -0.9250638684158466,
            -0.645906217616185,
            -0.7866563332643601,
            0.930105515813624,
            -0.8367646305714111,
            -0.39842696471181793,
            0.41019239136446395,
            -0.3922986927416602,
            0.5837690701865956,
            -0.2778108464709626,
            -0.35340480191460566,
            0.126246018662042,
            0.416550821605331,
            0.722519043710864,
            0.7336723654098428,
            0.1263218848454279,
            -0.2283864694721142,
            -0.23669022777324672,
            0.09298767623918229,
            0.5388560701330192,
            -0.4458470281390495,
            0.10793419842449717,
            -0.9810279100769568,
            0.8652274522889438,
            0.36161428007905483,
            -0.5108453131193462,
            0.5719791766379937,
            0.37422346064666967,
            -0.49799905606982714,
            0.655924779480732,
            -0.3401347499076587,
            0.5186473954801902,
            -0.4965445399945538,
            0.92033338621447,
            -0.1767689296891152,
            -0.4141290669192624,
            0.23193887877666722,
            0.3052200480928077,
            -0.6051855509816305,
            0.19183492968295615,
            0.34086779796918076,
            -0.8562231754242813,
            -0.4033429788789737,
            0.34835662627921654,
            -0.941678200336861,
            0.23780775558410697,
            0.7841267794911826,
            0.6049356713692863,
            0.14479403004859917,
            -0.055880251810105454,
            0.9216210465321983,
            0.15966601592737145,
            -0.5438304141696445,
            0.9346618927497214,
            0.08079307554274404,
            -0.5503289344370149,
            0.7632338620294675,
            0.8420786579803757,
            -0.23504732828676447,
            -0.09672309130900517,
            -0.4586747499137874,
            -0.09509609707292861,
            0.3983021204000707,
            0.5768674029988681,
            -0.8675971250846525,
            0.8892067385015432,
            0.19463932678186543,
            -0.5401134902241828,
            0.6975960013659603,
            0.09891310992619039,
            -1.0341471165456695,
            -0.8892246517829268,
            0.6093812837506938,
            -0.5933100885874151,
            -0.08257602211548633,
            0.3938485588478155,
            -0.6539319039875668,
            0.027941087724254753,
            0.4483945545400685,
            0.08872942194722007,
            0.3487103834010962,
            0.7251717150322451,
            0.30971326060092974,
            -0.10880224244509284,
            0.47971706281628623,
            0.5215744851649365,
            -0.029696566822156857,
            -0.15729082504308783,
            -0.07218272199308677,
            0.13160048726781776,
            -0.7649648112391269,
            0.3193758586350778,
            -0.7315186290271436,
            -0.7057091476980081,
            0.9476603211641494,
            -0.11188266686543666,
            0.28896669892833887,
            0.8755928705364124,
            -0.4694518055684807,
            -0.20301949829632732,
            -0.3657105536145678,
            0.6859018817138908,
            -0.04431958972641727,
            0.3083515523862727,
            -0.8899745123683003,
            0.17980984232355302,
            -0.6735455280529948,
            0.5174638599435805,
            0.9296499629257441,
            0.3707038321809974,
            0.9316090039535156,
            -0.8411304382352259,
            -0.016318630222478498,
            -0.622943148244658,
            0.1392495315820983,
            0.7771636979010949,
            0.0801964237836258,
            0.4943291613142753,
            -0.0031391620537681137,
            0.9567821274866424,
            0.16815252021022595,
            -0.4805761957750232,
            0.5893071105425999,
            -0.7088329056592062,
            -0.0591975942385924,
            0.5038538971299467,
            0.7173810401541137,
            0.3812994063652454,
            -0.8872276917444789,
            -0.7391028737139534,
            -0.36600622956721734,
            -0.4388656575221497,
            0.7734542478183215,
            0.4156537965015896,
            -0.6242665410612188,
            -0.11458981464173353,
            -0.9353830633789956,
            0.4519885193099524,
            0.7368634675817051,
            -0.673815710942599,
            -0.82319330005826,
            -0.608452785100384,
            0.14743683930783372,
            -0.33706750228563004,
            -0.469942370942389,
            0.2971134256770143,
            0.7031731901798353,
            0.6639711066409761,
            -0.8216577716926604,
            0.07749332166377693,
            -0.0011720376798153404,
            -0.9805341727976302,
            0.2530509089166617,
            0.6215660870547876,
            -0.7925163153989626,
            -0.9260996160872356,
            0.17305163504094428,
            -1.0465282365534985,
            -0.614590442511637,
            -0.8008426600140778,
            -0.8840854744796062,
            -0.5789347087684724,
            0.9769786009458062,
            1.0349980039232083,
            -0.5731327694044901,
            0.7041414986418213,
            0.15940664592850298,
            0.48528257778643547,
            -0.2297267087916088,
            -0.06662022371613091,
            -0.6574402317243538,
            -0.40646616233534233,
            0.2883325328106028,
            0.008675234681318394,
            0.48098921903787356,
            -0.11741109168218089,
            -0.6636134033459159,
            -0.6826880586574859,
            -0.0633873792489976,
            -0.23562788544949656,
            -0.15525360397727103,
            0.6521980751634746,
            0.863135563448331,
            0.06906144846208219,
            0.6156842820730698,
            -0.2899121176751167,
            -0.5412262333630842,
            0.15636089062012704,
            0.28820338648484767,
            0.9942853445538823,
            0.8467850330973155,
            -0.2396661407734936,
            0.2865498324783979,
            -0.6317666402766211,
            0.12634371460764626,
            0.5767226528907046,
            -0.17006608974539342,
            0.9706200925097359,
            0.02788863857891572,
            0.050012910783678845,
            -0.6403256674022357,
            0.053822447102047845,
            -0.5810759005644784,
            0.8481485934601277,
            -0.7672931929712651,
            -0.06322274676935828,
            0.2378823445522534,
            -0.37242686319508905,
            -0.028182021593706343,
            0.010704948756757864,
            -0.6827148390908458,
            -0.038444713097650754,
            -0.32223398118801916,
            0.7522878238454119,
            -0.5398627436520932,
            0.0777836481890453,
            0.4523311634929004,
            0.5011324893807847,
            0.744851841579484,
            -0.4253774165349656,
            0.9622294534560087,
            -0.7535613981142917,
            0.8558168970024671,
            0.6944016934104451,
            0.6667360758824219,
            0.9014860929086009,
            -0.15529184135460528,
            -0.5074021605439566,
            -0.40884876658562275,
            0.2743039779613706,
            -1.1369289952715051,
            -1.0809501768037968,
            -0.40343542839567914,
            -0.30538756003658024,
            -0.9335263329271036,
            -0.046800630658998754,
            -0.7425016116089383,
            -0.21700712310156312,
            -0.8100060722966694,
            0.11845270168824153,
            0.399527211138498,
            -0.16004509049229457,
            0.9544039962157327,
            0.09413325458818372,
            -0.4023306786415726,
            -0.34754588222234867,
            -0.5406967879659347,
            -0.49279583892150053,
            0.5771321870920221,
            0.18117653284193025,
            -0.27010055186822324,
            -0.9800271863102908,
            -0.7360203063999939,
            0.5537588674960667,
            0.6694932009978267,
            -1.0188013530715294,
            -0.8854351563405267,
            0.6458662440540476,
            -0.3443763387412519,
            -0.488605607169387,
            -0.8774840789367107,
            -0.25529183672903777,
            -1.1097046195730602,
            0.09546525373907717,
            0.47618346072924833,
            0.055649085350813636,
            -0.8567258087356098,
            -0.8188499118850091,
            -0.6546165189272025,
            0.12295681391192567,
            0.5337866329806458,
            0.33863995200434643,
            0.9568541113427312,
            0.5854293984902319,
            0.013895579469661625,
            -0.5244057866504694,
            0.75076825751447,
            0.5185189780980861,
            -0.3904905816629003,
            0.29372872591359134,
            -0.29454821275789933,
            0.10157564288472751,
            -0.740035457854332,
            0.10893165903578186,
            -0.08003299987318002,
            0.1516408865157471,
            -0.043371822859044465,
            -0.16724802665346206,
            -0.6354615205372272,
            -0.9462707211088551,
            0.8975283305292685,
            0.1687480921046585,
            0.9348082526374409,
            0.08378910838660796,
            -0.8480131318513165,
            -0.5689910504237001,
            0.7592933891182289,
            -0.8540313447791685,
            -0.16401553208454206,
            -0.035240668743363554,
            -0.2636631736343569,
            -0.8185122165354629,
            0.4034300081599933,
            0.09730834585699583,
            0.7153663478068673,
            -0.8004558128430403,
            0.5347418477130017,
            0.22879640988042918,
            -0.8973690045636368,
            0.5064625174450028,
            0.29544980296616385,
            0.1016688071651415,
            0.8306953744202945,
            0.6963286719903764,
            -0.6273587641821202,
            -0.004394708712016644,
            0.5027122612339069,
            0.04470096046135621,
            1.0790834029759342,
            0.5171538928171109,
            0.05414399140642159,
            -0.5656923813259107,
            -0.41802417290428845,
            0.6256789600463876,
            -0.4691435422414673,
            -0.6217811842594095,
            0.098059020974148,
            0.791251547292915,
            0.6697482355055859,
            -0.9977176313394421,
            0.31687211947468574,
            0.8911613150767759,
            -0.1609468147040353,
            -0.7983495742070336,
            -0.6435698724092521,
            -0.8131577518321261,
            -0.7572823125185834,
            -0.12944303119754832,
            0.09787819353118908,
            0.4875299313604036,
            0.8091042203622594,
            0.07797757331897258,
            -0.34373492490487456,
            0.21369070361270828,
            0.4001221730444128,
            0.30733724621310665,
            0.2454020031734319,
            0.12825995417033345,
            0.40473462485983885,
            0.24016081397594555,
            -0.8226534510865827,
            0.09564317756661964,
            0.7383998317361442,
            0.6371899062445504,
            0.1964985795615274,
            -0.06807260937397666,
            0.7031099060520605,
            0.3340799687184008,
            -0.40306090199785394,
            -0.13172551355218182,
            0.20416941337581326,
            -0.4127888432648978,
            0.8871479254251757,
            -0.12707210718247466,
            0.43310978540270495,
            0.9753112745617937,
            -0.30835070379926866,
            0.6880939038110403,
            -0.8217451347837952,
            -0.6003330644879117,
            0.5126513872668327,
            0.9880346509452446,
            0.34859686285198954,
            -0.7433289378624367,
            0.16111501306802573,
            -0.8059264401760049,
            -0.4852621986273882,
            -0.7024305798928403,
            -0.5966628718289094,
            -0.5232558822900418,
            0.24597563365126182,
            0.3729340500303336,
            0.7318772697008764,
            -0.7277378738245337,
            -0.4646021041934068,
            0.9955491368392623,
            -0.8787471285318454,
            -0.5643384794442081,
            0.16377400554606444,
            -0.4656124900735989,
            -0.676931923811092,
            0.4682228263163265,
            -0.8958882021265459,
            -0.911195858703017,
            -0.37411892829903715,
            0.3120178099225843,
            0.3285079620519395,
            -0.2710766386564197,
            -0.41992870813984595,
            0.6125819610332053,
            0.8865897613102466,
            0.014814652999992626,
            -0.7172658085525118,
            0.0018230683755074805,
            -0.536854528755138,
            -1.0513989176283514,
            -0.5532823979626316,
            -0.08282694011594388,
            -0.6563228280095122,
            -0.584947334720603,
            -0.7960647325998761,
            0.7637020446206159,
            0.08598860783507063,
            0.13339563497559714,
            -0.08925591937076485,
            0.6240403456398756,
            -0.319947109815828,
            0.16443503058909734,
            -0.973262727666791,
            -0.6446361030489316,
            0.7778775600265159,
            0.5914380173954418,
            -0.9870661675781193,
            0.17073408194822745,
            0.6041223489909424,
            0.317409253724884,
            -0.20934279357128405,
            0.05803674309072792,
            0.5492414191904869,
            0.8647555465158084,
            0.18773703757647706,
            0.25307068822021234,
            -0.20268820541214513,
            -0.735261401900261,
            -0.8044207263307723,
            -0.22137567654294646,
            0.2707754512444594,
            -0.6812629102832735,
            -0.31269180280075964,
            -0.7230938157910426,
            0.9055595936792183,
            0.1971118812821018,
            -0.5509447259943404,
            -0.1499357171431337,
            -0.13177620337361445,
            -0.3436724075665297,
            0.49743201967073664,
            -0.2714955418101753,
            0.35404555406330873,
            -0.5020959699669109,
            -0.9881165734115535,
            -0.0627577126456093,
            0.09805149799465432,
            -0.49358422822038056,
            0.12900161301845392,
            -1.0098517105749372,
            0.5011203258201392,
            -0.9235158668387777,
            -0.6845076390503867,
            0.43519104531513636,
            -0.9103695109866932,
            -1.145165223760704,
            0.034714994585451624,
            -0.37599846828869016,
            0.9702411373340857,
            -0.3619028901499548,
            -0.5137793216865965,
            0.16386581967535643,
            -0.36787739929559393,
            -0.04468698208871955,
            -0.37981592510654444,
            -0.3309135933878928,
            -0.692100979716993,
            0.17995089136625317,
            -0.8540880911133003,
            -0.47248965772296614,
            0.4811102428133408,
            0.9422242621217084,
            -0.6278098001482352,
            0.47358565348392584,
            0.9874228764690125,
            0.8632934499708914,
            0.5420434988722999,
            -0.8643931074356803,
            0.2957597994068706,
            0.6185059451329358,
            1.0007219140910142,
            0.704350145771684,
            -0.6303845337731685,
            0.8087004580741189,
            0.7508981146979865,
            -0.6136919029819763,
            -0.7317347941942666,
            0.0802191830582511,
            -0.35996543289652205,
            0.6774398586524708,
            -0.9351583893464119,
            0.26283244137342127,
            -0.6782900446341625,
            0.5753887383191448,
            -0.03427200840176919,
            0.8744753840087762,
            0.30680123077217053,
            -0.35603461346658416,
            0.815713403180825,
            0.6150447336346044,
            0.6762567070375841,
            -0.8515908435493075,
            0.8715029108750116,
            -0.5512652612270799,
            -0.8989403386706941,
            -0.6697457599435682,
            0.39644898400382594,
            -0.8710570474423356,
            0.05581580831871104,
            0.2846833696934583,
            0.7928291411899714,
            -0.3030683156627463,
            -0.49831967801639965,
            0.7033142755844828,
            0.26926605782245144,
            0.3080147589964354,
            0.294875017269354,
            0.27400402217971687,
            -0.11092270045787714,
            -0.95757874716006,
            0.5286190443282265,
            0.35910481701532715,
            0.16013912916965464,
            0.009323429340477493,
            -0.37523045203887284,
            -0.22361565757938226,
            -0.31759185986749516,
            0.34754036031223867,
            0.3534273069034928,
            -0.20286579207527874,
            -0.8999879810492,
            0.5340814677975955,
            0.18815853660643053,
            0.2583488568599849,
            0.554889442908235,
            0.6472715932324585,
            0.8024165409321476,
            0.581290857927459,
            -0.8519204283024501,
            -0.6053361008311788,
            0.9071248837975352,
            0.34661803675121294,
            0.4515447913126902,
            -0.7091172728010557,
            -0.09123073921748558,
            0.0591862393173508,
            -0.5806022537473686,
            0.7263765547658231,
            0.08440373762625468,
            0.46875456032225343,
            0.7618479032490145,
            -0.1214218950139755,
            0.8822505187133576,
            0.8393495420005143,
            -0.6441782841290099,
            0.86934274407807,
            0.8181270642237498,
            -0.26656237232934976,
            0.7464323332377252,
            1.023396521137073,
            0.14090349325307297,
            -0.34228440554548145,
            0.6291439960447652,
            -0.8364413359143753,
            -0.44860880776803774,
            -0.30450459842677197,
            -0.2481568478987973,
            0.9451512091031801,
            0.48430985345078226,
            -0.9014874924053671,
            0.5752024538235032,
            0.8344467645670575,
            0.5545764504064128,
            -0.05758278961612986,
            0.205604403856061,
            -0.6021151241795671,
            -0.8094053768796439,
            -0.6514749739748142,
            0.6768716439781702,
            0.5928282446674263,
            0.5493081518590495,
            0.6613779998085768,
            -0.11556292789920303,
            -0.44086558652486674,
            -0.8918316202728758,
            -0.689484217597932,
            0.8000600541233136,
            0.2987186180863638,
            -0.5980001226109218,
            -0.19783149052484153,
            0.8162370037218919,
            0.3123607469320844,
            0.13196056831079736,
            1.1032904961711594,
            0.0930263011690213,
            0.0957363528773012,
            0.9718406256343873,
            0.538929024120504,
            0.2442036836743227,
            -0.9256841047687886,
            0.9175948758662387,
            0.8319815363821333,
            -0.18981658513225474,
            0.25440256184534604,
            0.7610781003205633,
            -0.9800239924680665,
            0.9604434915488809,
            -0.953873835460419,
            -0.434958152847306,
            0.52382812508525,
            0.5530983521177776,
            0.20105971831978156,
            0.053174559721637316,
            0.712878837075735,
            -0.04853612261056284,
            0.17550249075838625,
            0.8325255520651835,
            0.13736272003507222,
            0.2959167155190338,
            0.8443103655167281,
            -0.6870988236002183,
            -0.2796542479126394,
            -0.9320440708598925,
            -0.5358175635383372,
            -0.360927026452844,
            -0.7276732171073274,
            -0.36147621821260356,
            -0.8322753634571315,
